{"learner":{"attributes":{"best_iteration":"299","best_score":"0.8228215663838039","scikit_learn":"{\"_estimator_type\": \"classifier\"}"},"feature_names":[],"feature_types":[],"gradient_booster":{"model":{"cats":{"enc":[],"feature_segments":[],"sorted_idx":[]},"gbtree_model_param":{"num_parallel_tree":"1","num_trees":"300"},"iteration_indptr":[0,1,2,3,4,5,6,7,8,9,10,11,12,13,14,15,16,17,18,19,20,21,22,23,24,25,26,27,28,29,30,31,32,33,34,35,36,37,38,39,40,41,42,43,44,45,46,47,48,49,50,51,52,53,54,55,56,57,58,59,60,61,62,63,64,65,66,67,68,69,70,71,72,73,74,75,76,77,78,79,80,81,82,83,84,85,86,87,88,89,90,91,92,93,94,95,96,97,98,99,100,101,102,103,104,105,106,107,108,109,110,111,112,113,114,115,116,117,118,119,120,121,122,123,124,125,126,127,128,129,130,131,132,133,134,135,136,137,138,139,140,141,142,143,144,145,146,147,148,149,150,151,152,153,154,155,156,157,158,159,160,161,162,163,164,165,166,167,168,169,170,171,172,173,174,175,176,177,178,179,180,181,182,183,184,185,186,187,188,189,190,191,192,193,194,195,196,197,198,199,200,201,202,203,204,205,206,207,208,209,210,211,212,213,214,215,216,217,218,219,220,221,222,223,224,225,226,227,228,229,230,231,232,233,234,235,236,237,238,239,240,241,242,243,244,245,246,247,248,249,250,251,252,253,254,255,256,257,258,259,260,261,262,263,264,265,266,267,268,269,270,271,272,273,274,275,276,277,278,279,280,281,282,283,284,285,286,287,288,289,290,291,292,293,294,295,296,297,298,299,300],"tree_info":[0,0,0,0,0,0,0,0,0,0,0,0,0,0,0,0,0,0,0,0,0,0,0,0,0,0,0,0,0,0,0,0,0,0,0,0,0,0,0,0,0,0,0,0,0,0,0,0,0,0,0,0,0,0,0,0,0,0,0,0,0,0,0,0,0,0,0,0,0,0,0,0,0,0,0,0,0,0,0,0,0,0,0,0,0,0,0,0,0,0,0,0,0,0,0,0,0,0,0,0,0,0,0,0,0,0,0,0,0,0,0,0,0,0,0,0,0,0,0,0,0,0,0,0,0,0,0,0,0,0,0,0,0,0,0,0,0,0,0,0,0,0,0,0,0,0,0,0,0,0,0,0,0,0,0,0,0,0,0,0,0,0,0,0,0,0,0,0,0,0,0,0,0,0,0,0,0,0,0,0,0,0,0,0,0,0,0,0,0,0,0,0,0,0,0,0,0,0,0,0,0,0,0,0,0,0,0,0,0,0,0,0,0,0,0,0,0,0,0,0,0,0,0,0,0,0,0,0,0,0,0,0,0,0,0,0,0,0,0,0,0,0,0,0,0,0,0,0,0,0,0,0,0,0,0,0,0,0,0,0,0,0,0,0,0,0,0,0,0,0,0,0,0,0,0,0,0,0,0,0,0,0,0,0,0,0,0,0,0,0,0,0,0,0,0,0,0,0,0,0],"trees":[{"base_weights":[1.2881661E-4,-6.736102E-1,1.8282799E0,-9.082125E-1,-2.495819E-2,1.2604847E0,2.7540662E0,-1.0319848E0,-6.794079E-1,-2.4156886E-1,2.8007442E-1,8.909356E-1,1.662143E0,3.4349546E0,1.6847738E0,-1.07733E0,-9.3759274E-1,-6.8606377E-1,2.0848494E0,-2.7985874E-1,1.766044E0,1.2135176E-1,4.4462726E-1,8.501561E-1,2.7865665E0,1.9482085E0,1.1331502E0,3.022635E0,4.023356E0,1.4015781E0,2.7062547E0,-1.081081E0,-9.873102E-1,-9.397642E-1,1.4866796E0,-7.6441646E-1,-5.46995E-1,1.1507502E0,2.9326725E0,-1.9220212E-1,-6.3007873E-1,1.153519E0,2.601167E0,1.0879048E-1,1.5270952E0,4.2201248E-1,1.9379879E0,1.0100647E0,4.2418206E-1,2.4176335E0,3.5974934E0,1.6420277E0,2.2484045E0,7.787354E-1,1.7765687E0,3.2056367E0,2.5918186E0,4.4432487E0,2.9795191E0,1.2755363E0,2.2215488E0,3.4104142E0,2.5168226E0,-5.4070752E-2,-5.2549608E-2,-4.9194977E-2,-5.8196533E-2,-4.6785288E-2,-5.464529E-2,5.730591E-2,1.13957345E-1,-4.0683713E-2,-3.4694295E-2,-2.6074508E-2,-3.9806306E-2,2.8098423E-2,1.05585255E-1,1.2645112E-1,1.6400573E-1,-1.3668519E-2,2.5647206E-3,-3.906475E-2,5.6582266E-3,3.965896E-2,1.1757239E-1,1.6335465E-1,7.346946E-2,1.0569343E-2,-4.919334E-3,5.6459315E-2,1.2227958E-1,2.5577648E-2,1.6362667E-3,8.282324E-2,1.4892803E-1,3.8578194E-2,6.5453485E-2,9.950087E-3,5.750407E-2,5.680594E-2,1.2850364E-1,1.9775882E-1,1.4002542E-1,7.884447E-2,1.23989455E-1,1.2192724E-1,8.6782165E-2,3.2746755E-2,9.332322E-2,7.185567E-2,1.18686736E-1,1.4010195E-1,1.7728065E-1,1.148706E-1,1.4299177E-1,2.0480378E-1,2.3726788E-1,1.3899672E-1,1.5923905E-1,1.00218475E-1,5.3794097E-2,1.04534544E-1,1.8108125E-1,1.4648539E-1,2.0314892E-1,1.1084884E-1,1.609213E-1],"categories":[],"categories_nodes":[],"categories_segments":[],"categories_sizes":[],"default_left":[0,0,0,0,0,0,0,0,0,0,0,0,0,0,0,0,0,0,0,0,0,0,0,0,0,0,0,0,0,0,0,0,0,0,0,0,0,0,0,0,0,0,0,0,0,0,0,0,0,0,0,0,0,0,0,0,0,0,0,0,0,0,0,0,0,0,0,0,0,0,0,0,0,0,0,0,0,0,0,0,0,0,0,0,0,0,0,0,0,0,0,0,0,0,0,0,0,0,0,0,0,0,0,0,0,0,0,0,0,0,0,0,0,0,0,0,0,0,0,0,0,0,0,0,0,0,0],"id":0,"left_children":[1,3,5,7,9,11,13,15,17,19,21,23,25,27,29,31,33,35,37,39,41,43,45,47,49,51,53,55,57,59,61,63,65,67,69,71,73,75,77,79,81,83,85,87,89,91,93,95,97,99,101,103,105,107,109,111,113,115,117,119,121,123,125,-1,-1,-1,-1,-1,-1,-1,-1,-1,-1,-1,-1,-1,-1,-1,-1,-1,-1,-1,-1,-1,-1,-1,-1,-1,-1,-1,-1,-1,-1,-1,-1,-1,-1,-1,-1,-1,-1,-1,-1,-1,-1,-1,-1,-1,-1,-1,-1,-1,-1,-1,-1,-1,-1,-1,-1,-1,-1,-1,-1,-1,-1,-1,-1],"loss_changes":[1.7127902E6,1.54628E5,1.9684238E5,2.1132188E4,1.7832822E4,3.4452375E4,1.0364125E5,2.0716875E3,4.821242E3,1.2132443E4,2.9270918E3,9.343039E3,1.6829219E4,2.1088688E4,1.60179375E4,1.094375E2,8.2865625E2,2.847211E3,4.9516235E2,4.75421E3,1.5079834E3,1.0071915E3,1.8575E3,8.061125E3,7.5285547E2,6.6313125E3,8.901164E3,4.0238125E3,1.5692125E4,4.4789688E3,1.5948828E3,2E0,6.7441406E0,9.659375E1,3.5447754E1,5.801719E2,5.980254E2,1.6920673E2,3.7894043E1,2.4481587E3,3.4844268E3,7.344675E2,9.365615E2,1.2019033E3,1.8186877E2,1.8894346E3,2.3544849E2,6.1352188E3,5.2800317E3,3.3945312E2,2.1524023E2,1.9464688E3,3.5492344E3,3.388919E3,2.8072969E3,4.9148438E3,1.1969688E3,2.6605E3,4.123672E2,5.467703E3,1.0507285E3,7.865957E2,1.9864492E3,0E0,0E0,0E0,0E0,0E0,0E0,0E0,0E0,0E0,0E0,0E0,0E0,0E0,0E0,0E0,0E0,0E0,0E0,0E0,0E0,0E0,0E0,0E0,0E0,0E0,0E0,0E0,0E0,0E0,0E0,0E0,0E0,0E0,0E0,0E0,0E0,0E0,0E0,0E0,0E0,0E0,0E0,0E0,0E0,0E0,0E0,0E0,0E0,0E0,0E0,0E0,0E0,0E0,0E0,0E0,0E0,0E0,0E0,0E0,0E0,0E0,0E0,0E0,0E0],"parents":[2147483647,0,0,1,1,2,2,3,3,4,4,5,5,6,6,7,7,8,8,9,9,10,10,11,11,12,12,13,13,14,14,15,15,16,16,17,17,18,18,19,19,20,20,21,21,22,22,23,23,24,24,25,25,26,26,27,27,28,28,29,29,30,30,31,31,32,32,33,33,34,34,35,35,36,36,37,37,38,38,39,39,40,40,41,41,42,42,43,43,44,44,45,45,46,46,47,47,48,48,49,49,50,50,51,51,52,52,53,53,54,54,55,55,56,56,57,57,58,58,59,59,60,60,61,61,62,62],"right_children":[2,4,6,8,10,12,14,16,18,20,22,24,26,28,30,32,34,36,38,40,42,44,46,48,50,52,54,56,58,60,62,64,66,68,70,72,74,76,78,80,82,84,86,88,90,92,94,96,98,100,102,104,106,108,110,112,114,116,118,120,122,124,126,-1,-1,-1,-1,-1,-1,-1,-1,-1,-1,-1,-1,-1,-1,-1,-1,-1,-1,-1,-1,-1,-1,-1,-1,-1,-1,-1,-1,-1,-1,-1,-1,-1,-1,-1,-1,-1,-1,-1,-1,-1,-1,-1,-1,-1,-1,-1,-1,-1,-1,-1,-1,-1,-1,-1,-1,-1,-1,-1,-1,-1,-1,-1,-1],"split_conditions":[8.301887E-3,2.6415095E-3,3.3207547E-2,1.1320754E-3,5.216484E-3,1.5849056E-2,5.874735E-2,7.54717E-4,5.669467E-1,3.6980012E-1,6.037736E-3,2.981424E-1,6.091449E-2,7.042254E-2,1.3E1,1.2E1,6.666667E-1,1.8867925E-3,6.666667E-1,6.2876366E-2,5E-1,3.1622776E-1,2.8867513E-1,6.670374E-2,4.0089187E-1,2.1387585E-2,6E0,1E0,1E0,1.9500358E-1,8.856149E-2,8E0,1.382E3,5.981486E-2,4.8E1,1.509434E-3,6.670374E-2,2.0865935E-3,1.3E1,1E0,2.5E-1,5.6603774E-3,1.24E2,1E0,4.0089187E-1,6.770371E-2,4.0089187E-1,1.1997913E-2,1.8257418E-1,4.173187E-3,6.7814295E-3,1.3786002E-2,1E0,2.1181877E-1,1.6269784E-1,4.277517E-2,1.3786002E-2,1.1371935E-1,1.2490566E-1,8.219949E-2,2.6943398E-1,8.075472E-2,3.46E2,-5.4070752E-2,-5.2549608E-2,-4.9194977E-2,-5.8196533E-2,-4.6785288E-2,-5.464529E-2,5.730591E-2,1.13957345E-1,-4.0683713E-2,-3.4694295E-2,-2.6074508E-2,-3.9806306E-2,2.8098423E-2,1.05585255E-1,1.2645112E-1,1.6400573E-1,-1.3668519E-2,2.5647206E-3,-3.906475E-2,5.6582266E-3,3.965896E-2,1.1757239E-1,1.6335465E-1,7.346946E-2,1.0569343E-2,-4.919334E-3,5.6459315E-2,1.2227958E-1,2.5577648E-2,1.6362667E-3,8.282324E-2,1.4892803E-1,3.8578194E-2,6.5453485E-2,9.950087E-3,5.750407E-2,5.680594E-2,1.2850364E-1,1.9775882E-1,1.4002542E-1,7.884447E-2,1.23989455E-1,1.2192724E-1,8.6782165E-2,3.2746755E-2,9.332322E-2,7.185567E-2,1.18686736E-1,1.4010195E-1,1.7728065E-1,1.148706E-1,1.4299177E-1,2.0480378E-1,2.3726788E-1,1.3899672E-1,1.5923905E-1,1.00218475E-1,5.3794097E-2,1.04534544E-1,1.8108125E-1,1.4648539E-1,2.0314892E-1,1.1084884E-1,1.609213E-1],"split_indices":[1,1,1,1,2,1,0,1,0,0,1,0,0,2,3,3,0,1,0,0,0,0,0,0,0,2,3,3,3,0,0,3,3,0,3,1,0,2,3,3,0,1,3,3,0,0,0,2,0,2,2,0,3,0,0,2,0,2,1,0,1,1,3,0,0,0,0,0,0,0,0,0,0,0,0,0,0,0,0,0,0,0,0,0,0,0,0,0,0,0,0,0,0,0,0,0,0,0,0,0,0,0,0,0,0,0,0,0,0,0,0,0,0,0,0,0,0,0,0,0,0,0,0,0,0,0,0],"split_type":[0,0,0,0,0,0,0,0,0,0,0,0,0,0,0,0,0,0,0,0,0,0,0,0,0,0,0,0,0,0,0,0,0,0,0,0,0,0,0,0,0,0,0,0,0,0,0,0,0,0,0,0,0,0,0,0,0,0,0,0,0,0,0,0,0,0,0,0,0,0,0,0,0,0,0,0,0,0,0,0,0,0,0,0,0,0,0,0,0,0,0,0,0,0,0,0,0,0,0,0,0,0,0,0,0,0,0,0,0,0,0,0,0,0,0,0,0,0,0,0,0,0,0,0,0,0,0],"sum_hessian":[1.3905921E6,1.0161172E6,3.744749E5,7.4622475E5,2.698924E5,2.321172E5,1.4235769E5,4.8425988E5,2.6196488E5,1.578206E5,1.1207182E5,1.20892375E5,1.1122483E5,8.697367E4,5.538402E4,3.271091E5,1.571508E5,2.6133638E5,6.2850507E2,1.5486777E5,2.952831E3,5.7047387E4,5.5024438E4,1.1834788E5,2.5444932E3,7.21859E4,3.9038926E4,5.114218E4,3.5831492E4,4.3364105E4,1.2019912E4,3.1401316E5,1.3095912E4,1.5701078E5,1.4002332E2,1.6715508E5,9.41813E4,3.0015878E2,3.2834628E2,1.23866695E5,3.100107E4,1.7048104E3,1.2480206E3,5.654321E4,5.0417532E2,5.4204867E4,8.195706E2,8.604547E4,3.2302418E4,1.7515865E3,7.9290674E2,3.573992E4,3.644598E4,2.5174332E4,1.3864593E4,3.5890305E4,1.5251875E4,2.555037E4,1.0281124E4,3.758872E4,5.77539E3,2.5444932E3,9.475419E3,3.1053178E5,3.4813848E3,1.2854262E4,2.4165068E2,1.5296411E5,4.0466584E3,9.964662E1,4.037669E1,9.841353E4,6.874154E4,8.543769E4,8.74361E3,1.8710405E2,1.1305473E2,1.5571689E2,1.726294E2,9.289914E4,3.0967549E4,2.5760023E4,5.2410464E3,1.3118615E3,3.9294897E2,7.845267E2,4.6349393E2,3.78162E4,1.8727014E4,3.5333414E2,1.5084122E2,4.4068336E4,1.0136529E4,6.4709357E2,1.7247702E2,4.7867555E4,3.817791E4,2.4655377E4,7.64704E3,1.8710405E2,1.5644824E3,5.44552E2,2.4835474E2,3.3164195E4,2.575728E3,2.6584316E4,9.861663E3,2.2603328E4,2.5710046E3,8.841886E3,5.022708E3,1.6413963E4,1.9476344E4,7.2726797E3,7.979196E3,1.1895277E4,1.3655092E4,5.2200205E3,5.0611035E3,8.0808228E3,2.9507895E4,5.2840137E3,4.9137668E2,1.4683402E3,1.0761531E3,6.64128E3,2.834139E3],"tree_param":{"num_deleted":"0","num_feature":"5","num_nodes":"127","size_leaf_vector":"1"}},{"base_weights":[-2.4454093E-3,-6.601484E-1,1.6024927E0,-9.008715E-1,-9.6789345E-2,1.0885438E0,2.326121E0,-9.8236966E-1,-6.616502E-1,-3.1672773E-1,2.1088743E-1,7.9818517E-1,1.4356059E0,3.0833383E0,1.6619079E0,-9.844822E-1,2.1327999E0,-6.7954826E-1,2.134481E0,-3.499983E-1,1.4249092E0,1.5895146E-1,1.7989941E0,7.5702226E-1,1.8960717E0,1.6478742E0,9.8266965E-1,2.5762856E0,3.532256E0,2.2142658E0,1.271373E0,-1.0362046E0,-8.7351453E-1,1.8695672E-1,1.9377208E0,-6.876367E-1,-2.1774264E-2,1.211954E0,3.3866856E0,-2.9808503E-1,-6.3139266E-1,3.8003E0,1.2523663E0,4.362508E-2,3.1835368E-1,1.4434079E0,2.5365205E0,5.7610875E-1,9.270151E-1,1.5067196E0,2.35255E0,1.4694135E0,1.8424809E0,6.807928E-1,1.6043458E0,2.3897524E0,2.770087E0,3.253193E0,3.8454094E0,2.0090184E0,2.6180673E0,1.0848827E0,2.1069887E0,-5.230421E-2,-4.621465E-2,-4.456192E-2,-3.5678007E-2,8.129695E-2,1.3007887E-1,-3.2857433E-2,-5.128495E-2,1.3873893E-1,-4.729895E-3,1.6610664E-1,5.5253E-2,1.7539474E-1,8.176892E-2,-1.6735202E-2,3.3868675E-3,-4.0110283E-2,-5.2066348E-3,1.9967209E-1,1.4264138E-1,3.98535E-2,9.517985E-2,4.087364E-3,-7.7604726E-3,1.4805733E-2,4.412641E-2,1.7234774E-1,6.8566196E-2,1.8681705E-1,1.1942055E-1,3.1857528E-2,1.7406054E-2,5.1315036E-2,3.2075748E-2,1.9251344E-1,7.327651E-2,2.0249271E-1,1.1196561E-1,7.148343E-2,9.6362256E-2,9.7198166E-2,7.927685E-2,2.8842513E-2,7.913951E-2,1.6694881E-1,7.728194E-2,1.1873659E-1,1.635609E-1,1.3188033E-1,1.41849E-1,1.5874162E-1,1.6979389E-1,1.8455905E-1,2.046241E-1,8.213477E-2,1.0915265E-1,1.1208322E-1,1.3742028E-1,4.6262078E-2,8.931916E-2,8.170499E-2,1.2093395E-1],"categories":[],"categories_nodes":[],"categories_segments":[],"categories_sizes":[],"default_left":[0,0,0,0,0,0,0,0,0,0,0,0,0,0,0,0,0,0,0,0,0,0,0,0,0,0,0,0,0,0,0,0,0,0,0,0,0,0,0,0,0,0,0,0,0,0,0,0,0,0,0,0,0,0,0,0,0,0,0,0,0,0,0,0,0,0,0,0,0,0,0,0,0,0,0,0,0,0,0,0,0,0,0,0,0,0,0,0,0,0,0,0,0,0,0,0,0,0,0,0,0,0,0,0,0,0,0,0,0,0,0,0,0,0,0,0,0,0,0,0,0,0,0,0,0],"id":1,"left_children":[1,3,5,7,9,11,13,15,17,19,21,23,25,27,29,31,33,35,37,39,41,43,45,47,49,51,53,55,57,59,61,63,65,-1,67,69,71,73,75,77,79,81,83,85,87,89,91,93,95,97,99,101,103,105,107,109,111,113,115,117,119,121,123,-1,-1,-1,-1,-1,-1,-1,-1,-1,-1,-1,-1,-1,-1,-1,-1,-1,-1,-1,-1,-1,-1,-1,-1,-1,-1,-1,-1,-1,-1,-1,-1,-1,-1,-1,-1,-1,-1,-1,-1,-1,-1,-1,-1,-1,-1,-1,-1,-1,-1,-1,-1,-1,-1,-1,-1,-1,-1,-1,-1,-1,-1],"loss_changes":[1.4677984E6,1.3375925E5,1.5032144E5,1.3472E4,1.9981916E4,2.3815531E4,8.441875E4,3.3942188E3,8.789625E3,9.978328E3,1.0152232E4,5.814133E3,1.0348969E4,1.7844875E4,1.9286781E4,2.9555E3,1.02314575E2,9.283203E2,1.2864033E3,2.4680996E3,1.3182446E3,2.1911624E3,1.01857227E3,3.8140703E3,8.228594E2,2.5430312E3,6.446508E3,1.3250156E3,3.6228438E3,3.06425E3,8.1613516E3,3.875E2,4.63625E2,0E0,6.072827E1,1.7759062E3,4.3213104E2,1.4177374E2,9.4740234E1,1.9109961E3,2.3700146E3,2.8519531E1,8.9121387E2,5.2424274E2,6.2751855E2,3.7543018E2,2.1616553E2,8.360449E2,1.8119727E3,2.3685449E2,4.0196777E2,6.931172E2,9.111328E2,2.1674785E3,1.1383516E3,2.4083594E2,1.525625E2,2.3521875E2,7.316875E2,1.5621484E3,6.059922E2,4.7948516E3,1.4047344E3,0E0,0E0,0E0,0E0,0E0,0E0,0E0,0E0,0E0,0E0,0E0,0E0,0E0,0E0,0E0,0E0,0E0,0E0,0E0,0E0,0E0,0E0,0E0,0E0,0E0,0E0,0E0,0E0,0E0,0E0,0E0,0E0,0E0,0E0,0E0,0E0,0E0,0E0,0E0,0E0,0E0,0E0,0E0,0E0,0E0,0E0,0E0,0E0,0E0,0E0,0E0,0E0,0E0,0E0,0E0,0E0,0E0,0E0,0E0,0E0,0E0,0E0],"parents":[2147483647,0,0,1,1,2,2,3,3,4,4,5,5,6,6,7,7,8,8,9,9,10,10,11,11,12,12,13,13,14,14,15,15,16,16,17,17,18,18,19,19,20,20,21,21,22,22,23,23,24,24,25,25,26,26,27,27,28,28,29,29,30,30,31,31,32,32,34,34,35,35,36,36,37,37,38,38,39,39,40,40,41,41,42,42,43,43,44,44,45,45,46,46,47,47,48,48,49,49,50,50,51,51,52,52,53,53,54,54,55,55,56,56,57,57,58,58,59,59,60,60,61,61,62,62],"right_children":[2,4,6,8,10,12,14,16,18,20,22,24,26,28,30,32,34,36,38,40,42,44,46,48,50,52,54,56,58,60,62,64,66,-1,68,70,72,74,76,78,80,82,84,86,88,90,92,94,96,98,100,102,104,106,108,110,112,114,116,118,120,122,124,-1,-1,-1,-1,-1,-1,-1,-1,-1,-1,-1,-1,-1,-1,-1,-1,-1,-1,-1,-1,-1,-1,-1,-1,-1,-1,-1,-1,-1,-1,-1,-1,-1,-1,-1,-1,-1,-1,-1,-1,-1,-1,-1,-1,-1,-1,-1,-1,-1,-1,-1,-1,-1,-1,-1,-1,-1,-1,-1,-1,-1,-1],"split_conditions":[7.824726E-3,2.608242E-3,2.7647365E-2,1.5649452E-3,4.6948357E-3,1.4606155E-2,2.5666668E-4,6.666667E-1,5E-1,3.5355338E-1,2.6726124E-1,2.3570226E-1,6.670374E-2,5.268649E-2,7.343709E-2,1.0432968E-3,1.1588889E-3,3.1622776E-1,6.666667E-1,6.579517E-2,2.5666668E-4,6.259781E-3,3.6380345E-1,1.0432968E-2,8E0,1.982264E-2,7E0,3.7037037E-2,9.650496E-2,7.459572E-2,1.7E1,2.9198056E-1,1.7222722E-1,1.8695672E-1,5.4E1,5.3186975E-2,1.7222223E-5,2.5666668E-4,5.66E2,2.2096889E-1,2.182179E-1,1.38E2,4.6291006E-1,6.93542E-2,1.9611613E-1,2.5666668E-4,1.5841667E-3,6.93542E-2,6.195782E-2,1.7222223E-5,2.5666668E-4,1.3786002E-2,2.5666668E-4,2.1181877E-1,2.5666668E-4,1E0,4.1210223E-2,7.459572E-2,1.8570684E-1,2.4728056E-2,1.8540556E-2,1.7739372E-1,5.508389E-2,-5.230421E-2,-4.621465E-2,-4.456192E-2,-3.5678007E-2,8.129695E-2,1.3007887E-1,-3.2857433E-2,-5.128495E-2,1.3873893E-1,-4.729895E-3,1.6610664E-1,5.5253E-2,1.7539474E-1,8.176892E-2,-1.6735202E-2,3.3868675E-3,-4.0110283E-2,-5.2066348E-3,1.9967209E-1,1.4264138E-1,3.98535E-2,9.517985E-2,4.087364E-3,-7.7604726E-3,1.4805733E-2,4.412641E-2,1.7234774E-1,6.8566196E-2,1.8681705E-1,1.1942055E-1,3.1857528E-2,1.7406054E-2,5.1315036E-2,3.2075748E-2,1.9251344E-1,7.327651E-2,2.0249271E-1,1.1196561E-1,7.148343E-2,9.6362256E-2,9.7198166E-2,7.927685E-2,2.8842513E-2,7.913951E-2,1.6694881E-1,7.728194E-2,1.1873659E-1,1.635609E-1,1.3188033E-1,1.41849E-1,1.5874162E-1,1.6979389E-1,1.8455905E-1,2.046241E-1,8.213477E-2,1.0915265E-1,1.1208322E-1,1.3742028E-1,4.6262078E-2,8.931916E-2,8.170499E-2,1.2093395E-1],"split_indices":[2,2,2,2,2,2,4,0,0,0,0,0,0,2,0,2,4,0,0,0,4,2,0,2,3,2,3,2,2,2,3,4,4,0,3,0,4,4,3,4,0,3,0,0,0,4,4,0,0,4,4,0,4,0,4,3,2,2,2,4,4,0,4,0,0,0,0,0,0,0,0,0,0,0,0,0,0,0,0,0,0,0,0,0,0,0,0,0,0,0,0,0,0,0,0,0,0,0,0,0,0,0,0,0,0,0,0,0,0,0,0,0,0,0,0,0,0,0,0,0,0,0,0,0,0],"split_type":[0,0,0,0,0,0,0,0,0,0,0,0,0,0,0,0,0,0,0,0,0,0,0,0,0,0,0,0,0,0,0,0,0,0,0,0,0,0,0,0,0,0,0,0,0,0,0,0,0,0,0,0,0,0,0,0,0,0,0,0,0,0,0,0,0,0,0,0,0,0,0,0,0,0,0,0,0,0,0,0,0,0,0,0,0,0,0,0,0,0,0,0,0,0,0,0,0,0,0,0,0,0,0,0,0,0,0,0,0,0,0,0,0,0,0,0,0,0,0,0,0,0,0,0,0],"sum_hessian":[1.3905214E6,9.86326E5,4.041954E5,6.9104294E5,2.9528303E5,2.3634005E5,1.6785534E5,5.1543953E5,1.7560342E5,1.7219316E5,1.2308986E5,1.2868396E5,1.0765609E5,7.843462E4,8.9420734E4,5.150909E5,3.4862756E2,1.744873E5,1.1161367E3,1.6896619E5,3.2269683E3,1.19192984E5,3.8968777E3,1.240352E5,4.6487505E3,7.330098E4,3.4355113E4,3.683558E4,4.1599035E4,3.7035062E4,5.238567E4,3.5132762E5,1.6376328E5,3.5786255E1,3.128413E2,1.723677E5,2.1195874E3,6.4380164E2,4.7233508E2,1.4265114E5,2.631504E4,2.1710243E2,3.009866E3,6.915854E4,5.0034445E4,2.6312307E3,1.2656471E3,6.0089664E4,6.3945543E4,2.511162E3,2.1375884E3,3.824115E4,3.505983E4,2.312705E4,1.1228062E4,1.8776545E4,1.8059035E4,2.2002842E4,1.9596195E4,2.455834E4,1.2476724E4,4.282942E4,9.556247E3,3.2282053E5,2.8507098E4,1.4742334E5,1.6339941E4,2.1521452E2,9.7626785E1,1.5811144E5,1.4256271E4,5.285263E1,2.0667349E3,2.9590055E1,6.142116E2,4.4082242E2,3.1512653E1,1.296711E5,1.2980043E4,1.987556E4,6.4394785E3,1.7766968E2,3.9432747E1,1.7727224E3,1.2371436E3,5.8032633E4,1.1125908E4,4.8138414E4,1.8960297E3,8.9753365E1,2.5414773E3,1.3640619E2,1.1292408E3,4.7397566E4,1.2692097E4,4.744386E4,1.6501684E4,4.1775723E1,2.4693865E3,1.3151842E2,2.0060698E3,3.519036E4,3.0507893E3,2.5128512E4,9.931318E3,2.073883E4,2.3882205E3,3.6573572E2,1.0862326E4,1.8465578E4,3.109662E2,6.072648E3,1.1986388E4,1.421784E4,7.785002E3,1.2074784E4,7.5214106E3,7.912936E3,1.6645404E4,3.213805E3,9.262919E3,3.4891457E4,7.9379653E3,3.7988962E3,5.7573506E3],"tree_param":{"num_deleted":"0","num_feature":"5","num_nodes":"125","size_leaf_vector":"1"}},{"base_weights":[-1.6930031E-3,-6.762895E-1,1.3774217E0,-8.803487E-1,-1.5306541E-1,8.52175E-1,1.9786423E0,-9.635606E-1,-6.38744E-1,-1.877342E-1,1.4329262E0,5.8925176E-1,1.1323943E0,2.386761E0,1.2180783E0,-9.657623E-1,1.9447857E0,-6.5912116E-1,1.6603439E0,-3.8785163E-1,3.72948E-2,3.3201466E0,1.306757E0,5.436833E-1,1.6742598E0,1.2600963E0,8.3614594E-1,1.9973153E0,2.7932632E0,1.0246828E0,1.8953497E0,-1.0181507E0,-8.539564E-1,1.66237E-1,1.7768264E0,-6.34572E-1,-9.019516E-1,1.0337719E0,2.8866692E0,-3.327698E-1,-7.010047E-1,1.116747E-2,6.837008E-1,3.438858E0,2.7805943E0,9.4134426E-1,1.8289126E0,4.196864E-1,7.1711844E-1,1.4800341E0,2.470847E0,1.0603257E0,1.4311215E0,5.641418E-1,1.4528759E0,1.8075165E0,2.2099888E0,3.0181491E0,2.2034764E0,9.196106E-1,1.6447605E0,1.5790946E0,2.1752725E0,-5.1311295E-2,-4.4062134E-2,-4.3593954E-2,-3.4656208E-2,7.815293E-2,1.1241831E-1,-3.3314627E-2,-1.8806137E-2,-5.0269682E-2,-5.430558E-3,1.479343E-1,4.5124706E-2,1.6695528E-1,1.2778021E-1,-1.841034E-2,8.9723675E-4,-4.1684262E-2,-1.31165935E-2,2.9433798E-3,-1.4203389E-2,1.5746993E-1,3.1672996E-2,1.5897837E-1,1.8842447E-1,1.1748059E-1,1.6468535E-1,2.5604714E-2,8.426649E-2,6.887881E-2,1.0990464E-1,2.3133872E-2,1.1602061E-2,3.9195217E-2,2.4406953E-2,6.1398752E-2,1.0151046E-1,1.0668006E-1,1.3729125E-1,5.1202156E-2,8.378729E-2,7.225746E-2,1.8906364E-2,2.2526368E-2,6.9305204E-2,5.6983482E-2,9.007723E-2,9.519057E-2,7.708887E-2,1.16843596E-1,9.4210334E-2,1.3985242E-1,1.6502456E-1,9.083172E-2,1.17288224E-1,6.946946E-2,3.8705487E-2,7.510301E-2,1.1956537E-1,1.5151986E-1,7.3283546E-2,1.262375E-1,9.8270714E-2],"categories":[],"categories_nodes":[],"categories_segments":[],"categories_sizes":[],"default_left":[0,0,0,0,0,0,0,0,0,0,0,0,0,0,0,0,0,0,0,0,0,0,0,0,0,0,0,0,0,0,0,0,0,0,0,0,0,0,0,0,0,0,0,0,0,0,0,0,0,0,0,0,0,0,0,0,0,0,0,0,0,0,0,0,0,0,0,0,0,0,0,0,0,0,0,0,0,0,0,0,0,0,0,0,0,0,0,0,0,0,0,0,0,0,0,0,0,0,0,0,0,0,0,0,0,0,0,0,0,0,0,0,0,0,0,0,0,0,0,0,0,0,0,0,0],"id":2,"left_children":[1,3,5,7,9,11,13,15,17,19,21,23,25,27,29,31,33,35,37,39,41,43,45,47,49,51,53,55,57,59,61,63,65,-1,67,69,71,73,75,77,79,81,83,85,87,89,91,93,95,97,99,101,103,105,107,109,111,113,115,117,119,121,123,-1,-1,-1,-1,-1,-1,-1,-1,-1,-1,-1,-1,-1,-1,-1,-1,-1,-1,-1,-1,-1,-1,-1,-1,-1,-1,-1,-1,-1,-1,-1,-1,-1,-1,-1,-1,-1,-1,-1,-1,-1,-1,-1,-1,-1,-1,-1,-1,-1,-1,-1,-1,-1,-1,-1,-1,-1,-1,-1,-1,-1,-1],"loss_changes":[1.2921411E6,9.957944E4,1.4406619E5,1.3489094E4,1.438893E4,1.7939047E4,6.602625E4,3.1977188E3,8.054211E3,1.1532285E4,1.3286064E3,6.210328E3,4.4581094E3,2.191025E4,9.728305E3,2.9202188E3,8.167432E1,1.01514844E3,1.1576074E3,2.33783E3,2.0358225E3,1.28654785E1,9.997793E2,2.5924805E3,7.796709E2,2.8124688E3,5.9556543E3,2.8500312E3,8.9770625E3,3.7635781E3,1.45725E3,3.7453125E2,4.5808594E2,0E0,3.0658691E1,1.2683828E3,1.283501E3,2.5033887E2,6.788818E1,1.4326621E3,1.1798389E3,1.6316561E3,5.7812573E2,1.2187256E1,7.3807373E0,9.8593994E2,3.568667E2,5.6704297E2,7.682344E2,5.62334E2,8.604004E1,8.46625E2,6.548672E2,2.300584E3,1.1846426E3,9.532656E2,1.3737031E3,3.0516562E3,1.0250859E3,3.3767656E3,8.883125E2,1.2714297E3,6.3676953E2,0E0,0E0,0E0,0E0,0E0,0E0,0E0,0E0,0E0,0E0,0E0,0E0,0E0,0E0,0E0,0E0,0E0,0E0,0E0,0E0,0E0,0E0,0E0,0E0,0E0,0E0,0E0,0E0,0E0,0E0,0E0,0E0,0E0,0E0,0E0,0E0,0E0,0E0,0E0,0E0,0E0,0E0,0E0,0E0,0E0,0E0,0E0,0E0,0E0,0E0,0E0,0E0,0E0,0E0,0E0,0E0,0E0,0E0,0E0,0E0,0E0,0E0],"parents":[2147483647,0,0,1,1,2,2,3,3,4,4,5,5,6,6,7,7,8,8,9,9,10,10,11,11,12,12,13,13,14,14,15,15,16,16,17,17,18,18,19,19,20,20,21,21,22,22,23,23,24,24,25,25,26,26,27,27,28,28,29,29,30,30,31,31,32,32,34,34,35,35,36,36,37,37,38,38,39,39,40,40,41,41,42,42,43,43,44,44,45,45,46,46,47,47,48,48,49,49,50,50,51,51,52,52,53,53,54,54,55,55,56,56,57,57,58,58,59,59,60,60,61,61,62,62],"right_children":[2,4,6,8,10,12,14,16,18,20,22,24,26,28,30,32,34,36,38,40,42,44,46,48,50,52,54,56,58,60,62,64,66,-1,68,70,72,74,76,78,80,82,84,86,88,90,92,94,96,98,100,102,104,106,108,110,112,114,116,118,120,122,124,-1,-1,-1,-1,-1,-1,-1,-1,-1,-1,-1,-1,-1,-1,-1,-1,-1,-1,-1,-1,-1,-1,-1,-1,-1,-1,-1,-1,-1,-1,-1,-1,-1,-1,-1,-1,-1,-1,-1,-1,-1,-1,-1,-1,-1,-1,-1,-1,-1,-1,-1,-1,-1,-1,-1,-1,-1,-1,-1,-1,-1,-1],"split_conditions":[6.7814295E-3,2.608242E-3,2.2430882E-2,1.5649452E-3,3.3068016E-1,1.1997913E-2,5.874735E-2,6.666667E-1,4.3876344E-1,4.173187E-3,2.5666668E-4,2.3570226E-1,6.670374E-2,4.85133E-2,1.2E1,1.0432968E-3,9.602778E-4,5.3186975E-2,6.666667E-1,6.091449E-2,2.182179E-1,9.8E1,4.173187E-3,9.3896715E-3,1.1E2,1.5649453E-2,8E0,3.2342203E-2,2.5666668E-4,1.8569534E-1,6.897139E-2,7E0,1.7222722E-1,1.66237E-1,5.4E1,8.3060555E-2,3.1622776E-1,5.219444E-4,1.5728611E-2,2.0986389E-1,2.182179E-1,7.343709E-2,1.7222223E-5,5E-1,4.173187E-3,4.6291006E-1,3.8490018E-1,7.856742E-2,7.1878195E-2,3.1622776E-1,3.89E2,1.3786002E-2,6.8E1,2.1363391E-1,1.511858E-1,2.5666668E-4,1.7222223E-5,9.650496E-2,2.0544723E-2,8.219949E-2,1.1371935E-1,2.5666668E-4,1.0238252E-1,-5.1311295E-2,-4.4062134E-2,-4.3593954E-2,-3.4656208E-2,7.815293E-2,1.1241831E-1,-3.3314627E-2,-1.8806137E-2,-5.0269682E-2,-5.430558E-3,1.479343E-1,4.5124706E-2,1.6695528E-1,1.2778021E-1,-1.841034E-2,8.9723675E-4,-4.1684262E-2,-1.31165935E-2,2.9433798E-3,-1.4203389E-2,1.5746993E-1,3.1672996E-2,1.5897837E-1,1.8842447E-1,1.1748059E-1,1.6468535E-1,2.5604714E-2,8.426649E-2,6.887881E-2,1.0990464E-1,2.3133872E-2,1.1602061E-2,3.9195217E-2,2.4406953E-2,6.1398752E-2,1.0151046E-1,1.0668006E-1,1.3729125E-1,5.1202156E-2,8.378729E-2,7.225746E-2,1.8906364E-2,2.2526368E-2,6.9305204E-2,5.6983482E-2,9.007723E-2,9.519057E-2,7.708887E-2,1.16843596E-1,9.4210334E-2,1.3985242E-1,1.6502456E-1,9.083172E-2,1.17288224E-1,6.946946E-2,3.8705487E-2,7.510301E-2,1.1956537E-1,1.5151986E-1,7.3283546E-2,1.262375E-1,9.8270714E-2],"split_indices":[2,2,2,2,0,2,0,0,0,2,4,0,0,2,3,2,4,0,0,0,0,3,2,2,3,2,3,2,4,0,4,3,4,0,3,4,0,4,4,4,0,0,4,0,2,0,0,0,0,0,3,0,3,0,0,4,4,2,4,0,2,4,0,0,0,0,0,0,0,0,0,0,0,0,0,0,0,0,0,0,0,0,0,0,0,0,0,0,0,0,0,0,0,0,0,0,0,0,0,0,0,0,0,0,0,0,0,0,0,0,0,0,0,0,0,0,0,0,0,0,0,0,0,0,0],"split_type":[0,0,0,0,0,0,0,0,0,0,0,0,0,0,0,0,0,0,0,0,0,0,0,0,0,0,0,0,0,0,0,0,0,0,0,0,0,0,0,0,0,0,0,0,0,0,0,0,0,0,0,0,0,0,0,0,0,0,0,0,0,0,0,0,0,0,0,0,0,0,0,0,0,0,0,0,0,0,0,0,0,0,0,0,0,0,0,0,0,0,0,0,0,0,0,0,0,0,0,0,0,0,0,0,0,0,0,0,0,0,0,0,0,0,0,0,0,0,0,0,0,0,0,0,0],"sum_hessian":[1.3888804E6,9.326657E5,4.5621462E5,6.709804E5,2.6168531E5,2.4349316E5,2.1272148E5,4.9908562E5,1.7189475E5,2.5608827E5,5.597046E3,1.2562515E5,1.1786801E5,1.384351E5,7.4286375E4,4.9870875E5,3.768718E2,1.7038531E5,1.5094371E3,1.3554653E5,1.2054174E5,3.491531E2,5.247893E3,1.20563195E5,5.06195E3,8.2361625E4,3.550638E4,7.0703875E4,6.773123E4,5.7787594E4,1.6498787E4,3.3958362E5,1.5912514E5,3.885382E1,3.3801797E2,1.5474486E5,1.5640451E4,1.0002287E3,5.0920837E2,1.1527278E5,2.0273754E4,1.1585977E5,4.681963E3,2.8178235E2,6.7370766E1,3.0889795E3,2.1589133E3,7.030343E4,5.0259766E4,4.0719712E3,9.899788E2,3.7991637E4,4.4369992E4,2.46407E4,1.0865681E4,3.73662E4,3.333767E4,4.9031414E4,1.8699812E4,4.9416457E4,8.371135E3,7.7497764E3,8.74901E3,3.2066347E5,1.892016E4,1.4316662E5,1.5958509E4,2.3554898E2,1.02469E2,1.378272E5,1.691765E4,1.3836122E4,1.8043297E3,6.2484665E1,9.37744E2,2.1132452E2,2.9788385E2,1.0469419E5,1.057859E4,1.5565061E4,4.7086924E3,9.974511E4,1.6114668E4,9.226263E1,4.5897007E3,1.6367793E2,1.18104416E2,3.9648033E1,2.772273E1,1.9598896E3,1.1290898E3,9.735019E2,1.1854114E3,5.7197547E4,1.3105882E4,3.8908883E4,1.1350884E4,2.7947883E3,1.2771827E3,4.4857944E2,5.413994E2,3.587902E4,2.1126165E3,4.378631E4,5.8368304E2,2.1649746E4,2.9909531E3,5.726174E3,5.1395073E3,2.7422902E4,9.943298E3,2.3988607E4,9.349064E3,2.7504033E4,2.152738E4,5.032254E3,1.3667558E4,1.1683955E4,3.7732504E4,7.030321E3,1.3408141E3,5.5990094E2,7.1898755E3,3.2784211E3,5.470589E3],"tree_param":{"num_deleted":"0","num_feature":"5","num_nodes":"125","size_leaf_vector":"1"}},{"base_weights":[-3.0444735E-3,-6.523962E-1,1.2947856E0,-8.7802684E-1,-1.310953E-1,8.0093515E-1,1.8063179E0,-9.7931826E-1,-6.610395E-1,-2.9981375E-1,1.17705606E-1,5.6006676E-1,1.0600519E0,2.2745814E0,1.393205E0,-1.0272402E0,-8.809117E-1,-7.53662E-1,-5.8622E-1,-4.0300736E-1,-2.1533841E-1,-6.108062E-3,2.438052E-1,4.5173877E-1,6.80539E-1,1.2363113E0,8.7711996E-1,1.8986565E0,2.6844132E0,1.1531625E0,1.6319863E0,-1.0330548E0,-9.521466E-1,-8.916596E-1,-7.652835E-1,-7.637581E-1,-6.260343E-1,-6.3070726E-1,-5.2762574E-1,-4.5103917E-1,-3.6163542E-1,-2.5684625E-1,-7.876308E-3,7.911173E-2,-1.8052049E-1,3.1646955E-1,1.2237683E-1,3.331289E-1,9.3513376E-1,8.9538276E-1,3.5445705E-1,9.9783915E-1,1.5219795E0,6.7820626E-1,1.0758356E0,1.6451892E0,2.0741777E0,2.5142198E0,2.926604E0,1.002374E0,1.3387903E0,1.4413296E0,1.9751308E0,-5.1858734E-2,-4.602994E-2,-4.897958E-2,-4.6541058E-2,-4.428222E-2,-4.6209957E-2,-3.0836133E-2,-3.965519E-2,-3.811861E-2,-4.8136976E-2,-1.1836994E-2,-3.2414492E-2,-3.203776E-2,-2.267201E-2,-2.71633E-2,-1.7611025E-2,-2.3721872E-2,-1.3874772E-2,-1.49843935E-2,-2.553922E-2,-1.8975843E-2,-8.371602E-3,1.0945163E-1,-3.7820626E-3,6.324619E-4,9.707692E-3,-1.6758794E-2,-5.8632335E-3,5.747104E-3,2.12406E-2,1.0357576E-2,4.5626348E-5,9.505747E-4,2.19902E-2,1.509358E-1,4.178206E-2,4.0222447E-2,5.5740148E-2,1.0689679E-2,2.4175828E-2,4.6722826E-2,1.5927093E-1,7.150991E-2,8.7446146E-2,2.1823846E-1,3.379361E-2,8.187151E-2,4.399183E-2,7.966013E-2,1.5998755E-1,9.953692E-2,1.1102002E-1,1.2257093E-1,1.3287951E-1,1.4166862E-1,1.5671386E-1,4.9248036E-2,7.194971E-2,6.4967535E-2,8.8126324E-2,6.203987E-2,8.558102E-2,1.977235E-1,9.7216725E-2],"categories":[],"categories_nodes":[],"categories_segments":[],"categories_sizes":[],"default_left":[0,0,0,0,0,0,0,0,0,0,0,0,0,0,0,0,0,0,0,0,0,0,0,0,0,0,0,0,0,0,0,0,0,0,0,0,0,0,0,0,0,0,0,0,0,0,0,0,0,0,0,0,0,0,0,0,0,0,0,0,0,0,0,0,0,0,0,0,0,0,0,0,0,0,0,0,0,0,0,0,0,0,0,0,0,0,0,0,0,0,0,0,0,0,0,0,0,0,0,0,0,0,0,0,0,0,0,0,0,0,0,0,0,0,0,0,0,0,0,0,0,0,0,0,0,0,0],"id":3,"left_children":[1,3,5,7,9,11,13,15,17,19,21,23,25,27,29,31,33,35,37,39,41,43,45,47,49,51,53,55,57,59,61,63,65,67,69,71,73,75,77,79,81,83,85,87,89,91,93,95,97,99,101,103,105,107,109,111,113,115,117,119,121,123,125,-1,-1,-1,-1,-1,-1,-1,-1,-1,-1,-1,-1,-1,-1,-1,-1,-1,-1,-1,-1,-1,-1,-1,-1,-1,-1,-1,-1,-1,-1,-1,-1,-1,-1,-1,-1,-1,-1,-1,-1,-1,-1,-1,-1,-1,-1,-1,-1,-1,-1,-1,-1,-1,-1,-1,-1,-1,-1,-1,-1,-1,-1,-1,-1],"loss_changes":[1.1674982E6,1.086065E5,1.1670656E5,1.4163344E4,1.1708596E4,1.4670156E4,4.3895688E4,2.0709375E3,1.4208438E3,1.4488428E3,1.7597878E3,1.5895234E3,3.650125E3,1.6382E4,6.9088125E3,1.2803125E2,1.7813281E2,1.1760547E2,2.9540625E2,1.4850879E2,7.8705176E2,8.453464E2,4.9267944E2,3.6775576E3,4.040246E3,3.9271094E3,2.195836E3,2.4648594E3,2.0900938E3,1.6816875E3,3.9513281E3,1.260625E2,1.15234375E1,2.4953125E1,5.0117188E1,2.26875E1,5.80979E1,1.1456836E2,1.3415137E2,1.4043701E2,3.7126953E2,8.352969E2,2.268804E3,2.9212323E2,1.8258734E2,7.627202E2,2.1528687E2,1.7260034E3,2.6173281E3,6.9281055E2,4.1578857E2,4.3554434E3,5.4396875E2,2.3604004E2,3.0583027E3,1.8298164E3,3.9548438E2,2.62625E2,3.9759375E2,2.5086328E2,4.480664E2,2.1039922E3,1.3080391E3,0E0,0E0,0E0,0E0,0E0,0E0,0E0,0E0,0E0,0E0,0E0,0E0,0E0,0E0,0E0,0E0,0E0,0E0,0E0,0E0,0E0,0E0,0E0,0E0,0E0,0E0,0E0,0E0,0E0,0E0,0E0,0E0,0E0,0E0,0E0,0E0,0E0,0E0,0E0,0E0,0E0,0E0,0E0,0E0,0E0,0E0,0E0,0E0,0E0,0E0,0E0,0E0,0E0,0E0,0E0,0E0,0E0,0E0,0E0,0E0,0E0,0E0,0E0,0E0],"parents":[2147483647,0,0,1,1,2,2,3,3,4,4,5,5,6,6,7,7,8,8,9,9,10,10,11,11,12,12,13,13,14,14,15,15,16,16,17,17,18,18,19,19,20,20,21,21,22,22,23,23,24,24,25,25,26,26,27,27,28,28,29,29,30,30,31,31,32,32,33,33,34,34,35,35,36,36,37,37,38,38,39,39,40,40,41,41,42,42,43,43,44,44,45,45,46,46,47,47,48,48,49,49,50,50,51,51,52,52,53,53,54,54,55,55,56,56,57,57,58,58,59,59,60,60,61,61,62,62],"right_children":[2,4,6,8,10,12,14,16,18,20,22,24,26,28,30,32,34,36,38,40,42,44,46,48,50,52,54,56,58,60,62,64,66,68,70,72,74,76,78,80,82,84,86,88,90,92,94,96,98,100,102,104,106,108,110,112,114,116,118,120,122,124,126,-1,-1,-1,-1,-1,-1,-1,-1,-1,-1,-1,-1,-1,-1,-1,-1,-1,-1,-1,-1,-1,-1,-1,-1,-1,-1,-1,-1,-1,-1,-1,-1,-1,-1,-1,-1,-1,-1,-1,-1,-1,-1,-1,-1,-1,-1,-1,-1,-1,-1,-1,-1,-1,-1,-1,-1,-1,-1,-1,-1,-1,-1,-1,-1],"split_conditions":[7.1698115E-3,2.264151E-3,2.3773585E-2,1.1320754E-3,4.6948357E-3,1.28301885E-2,2.5666668E-4,7.54717E-4,1.509434E-3,3.018868E-3,5.283019E-3,9.91132E-3,2.5666668E-4,5.0599895E-2,5.993889E-2,6.0902196E-1,3.324175E-1,1.2787842E0,1.8867925E-3,3.1298904E-3,5E0,1E0,1.7222223E-5,5E0,1E0,1.7736046E-2,5.383583E-2,3.0255608E-2,1.0537298E-1,5.7358492E-2,5E0,1.2E1,5.1193405E1,5.6436113E-3,1.0432968E-3,5.66E2,1.0432968E-3,2.4576326E1,9.0478474E-1,2.7547473E-1,1E0,3.6515389E-3,2.5666668E-4,5.7381326E-3,4.1509434E-3,6.7814295E-3,7.3030777E-3,6.259781E-3,2.5666668E-4,1.304121E-2,1.0566038E-2,1E0,2.347418E-2,1.0432968E-3,1.2519562E-2,1E0,4.1210223E-2,7.876891E-2,2.326552E-1,2.73E2,2.6943398E-1,6.264151E-2,1.1476265E-2,-5.1858734E-2,-4.602994E-2,-4.897958E-2,-4.6541058E-2,-4.428222E-2,-4.6209957E-2,-3.0836133E-2,-3.965519E-2,-3.811861E-2,-4.8136976E-2,-1.1836994E-2,-3.2414492E-2,-3.203776E-2,-2.267201E-2,-2.71633E-2,-1.7611025E-2,-2.3721872E-2,-1.3874772E-2,-1.49843935E-2,-2.553922E-2,-1.8975843E-2,-8.371602E-3,1.0945163E-1,-3.7820626E-3,6.324619E-4,9.707692E-3,-1.6758794E-2,-5.8632335E-3,5.747104E-3,2.12406E-2,1.0357576E-2,4.5626348E-5,9.505747E-4,2.19902E-2,1.509358E-1,4.178206E-2,4.0222447E-2,5.5740148E-2,1.0689679E-2,2.4175828E-2,4.6722826E-2,1.5927093E-1,7.150991E-2,8.7446146E-2,2.1823846E-1,3.379361E-2,8.187151E-2,4.399183E-2,7.966013E-2,1.5998755E-1,9.953692E-2,1.1102002E-1,1.2257093E-1,1.3287951E-1,1.4166862E-1,1.5671386E-1,4.9248036E-2,7.194971E-2,6.4967535E-2,8.8126324E-2,6.203987E-2,8.558102E-2,1.977235E-1,9.7216725E-2],"split_indices":[1,1,1,1,2,1,4,1,1,1,1,2,4,2,4,4,4,4,1,2,3,3,4,3,3,2,4,2,2,1,3,3,4,4,2,3,2,4,4,4,3,2,4,2,1,2,2,2,4,2,1,3,2,2,2,3,2,2,2,3,1,1,2,0,0,0,0,0,0,0,0,0,0,0,0,0,0,0,0,0,0,0,0,0,0,0,0,0,0,0,0,0,0,0,0,0,0,0,0,0,0,0,0,0,0,0,0,0,0,0,0,0,0,0,0,0,0,0,0,0,0,0,0,0,0,0,0],"split_type":[0,0,0,0,0,0,0,0,0,0,0,0,0,0,0,0,0,0,0,0,0,0,0,0,0,0,0,0,0,0,0,0,0,0,0,0,0,0,0,0,0,0,0,0,0,0,0,0,0,0,0,0,0,0,0,0,0,0,0,0,0,0,0,0,0,0,0,0,0,0,0,0,0,0,0,0,0,0,0,0,0,0,0,0,0,0,0,0,0,0,0,0,0,0,0,0,0,0,0,0,0,0,0,0,0,0,0,0,0,0,0,0,0,0,0,0,0,0,0,0,0,0,0,0,0,0,0],"sum_hessian":[1.3853445E6,9.2335625E5,4.6198828E5,6.444313E5,2.7892494E5,2.35058E5,2.269303E5,4.3934028E5,2.05091E5,1.6621198E5,1.12712945E5,1.218202E5,1.1323779E5,1.0636316E5,1.2056714E5,2.9545203E5,1.4388825E5,9.1638414E4,1.13452586E5,7.481524E4,9.139675E4,5.6872438E4,5.5840504E4,6.4145574E4,5.7674633E4,5.766777E4,5.557002E4,5.5479406E4,5.088375E4,6.0127684E4,6.0439457E4,2.7420672E5,2.124531E4,1.3164486E5,1.2243396E4,8.491606E4,6.722355E3,6.4483906E4,4.8968676E4,3.461646E4,4.019878E4,7.615904E4,1.5237708E4,3.820541E4,1.866703E4,3.4933957E4,2.0906549E4,5.1508664E4,1.263691E4,3.476649E4,2.2908145E4,3.1432672E4,2.6235098E4,2.7773375E4,2.7796645E4,2.2703725E4,3.277568E4,2.9890395E4,2.0993355E4,3.318081E4,2.6946875E4,3.8855758E4,2.1583703E4,2.645083E5,9.698425E3,9.270123E3,1.19751875E4,1.1112976E5,2.05151E4,1.9347794E3,1.0308617E4,8.433348E4,5.825802E2,3.641569E2,6.3581978E3,6.1022387E4,3.4615186E3,4.4957855E4,4.0108225E3,3.0502223E4,4.1142373E3,2.8404332E4,1.1794449E4,3.2107025E4,4.4052016E4,4.5501526E2,1.4782692E4,2.4216238E4,1.3989172E4,5.4174653E3,1.3249563E4,1.2214975E4,2.271898E4,1.2312481E4,8.594067E3,1.3058259E4,3.8450406E4,5.74584E2,1.2062326E4,2.4583197E4,1.018329E4,1.0962568E4,1.1945575E4,3.0548979E4,8.836942E2,1.8685533E4,7.549565E3,1.6390358E1,2.7756984E4,7.189438E3,2.0607207E4,2.1971012E4,7.327132E2,2.0877104E4,1.1898577E4,2.0798166E4,9.092229E3,1.4498937E4,6.494419E3,3.1911367E4,1.269442E3,2.4656049E4,2.2908247E3,2.2309582E4,1.6546174E4,3.2872147E2,2.125498E4],"tree_param":{"num_deleted":"0","num_feature":"5","num_nodes":"127","size_leaf_vector":"1"}},{"base_weights":[-4.6192193E-3,-6.465364E-1,1.1639751E0,-8.8858575E-1,-2.0055982E-1,7.277378E-1,1.6478018E0,-9.618653E-1,-6.844278E-1,-3.7269557E-1,3.9405614E-2,4.871296E-1,9.7481227E-1,1.9445342E0,1.0668315E0,-1.010498E0,-8.624971E-1,-6.9057506E-1,1.3593332E0,-3.9402023E-1,1.349306E0,2.4642901E-2,1.0986018E0,4.5522875E-1,1.9198477E0,1.1021469E0,7.024991E-1,1.6354313E0,2.2393181E0,9.564259E-1,1.4982303E0,-1.0165585E0,-9.3264604E-1,-8.646671E-1,1.0276556E0,-7.4177456E-1,-6.1818516E-1,5.122311E-1,1.9132024E0,-3.38342E-1,-7.027411E-1,8.2346946E-1,1.9520371E0,-9.279852E-2,1.652694E-1,7.138974E-1,1.5685014E0,5.6360054E-1,1.17255285E-1,3.054348E0,1.779257E0,8.5683393E-1,1.2291058E0,4.9099874E-1,1.4385611E0,1.5052499E0,1.780651E0,2.392109E0,1.8780037E0,9.921328E-1,-1.525576E-1,2.8261728E0,1.451641E0,-5.0695598E-2,-5.1654834E-2,-4.750337E-2,-4.532741E-2,-4.378204E-2,-3.7510253E-2,9.203897E-2,2.2732532E-2,-3.647582E-2,-4.979223E-2,-3.0209402E-2,-4.2098995E-2,5.0398022E-2,5.611675E-3,1.08509675E-1,1.7230539E-2,-1.9372944E-2,1.0589396E-3,-4.0760577E-2,8.133526E-3,2.561304E-2,9.061008E-2,8.367806E-2,1.3042264E-1,-2.5682715E-3,-1.7943041E-2,1.3391482E-2,-1.9091138E-3,2.2453142E-2,5.519979E-2,9.8585635E-2,6.126509E-2,1.8314846E-2,3.4361493E-2,-6.594922E-3,2.9200394E-2,1.5374659E-1,-9.709588E-3,6.841916E-2,1.036124E-1,3.5272893E-2,7.834698E-2,6.546662E-2,4.9664903E-2,1.32823E-1,2.3236824E-2,9.321936E-2,5.4933008E-2,7.2906904E-2,8.7922305E-2,9.61472E-2,7.136224E-2,1.0927097E-1,1.288958E-1,7.846125E-2,9.90601E-2,4.0588617E-2,6.192688E-2,1.2924056E-1,-9.779133E-3,1.56987E-1,1.32538E-1,6.945685E-2,1.1304756E-1],"categories":[],"categories_nodes":[],"categories_segments":[],"categories_sizes":[],"default_left":[0,0,0,0,0,0,0,0,0,0,0,0,0,0,0,0,0,0,0,0,0,0,0,0,0,0,0,0,0,0,0,0,0,0,0,0,0,0,0,0,0,0,0,0,0,0,0,0,0,0,0,0,0,0,0,0,0,0,0,0,0,0,0,0,0,0,0,0,0,0,0,0,0,0,0,0,0,0,0,0,0,0,0,0,0,0,0,0,0,0,0,0,0,0,0,0,0,0,0,0,0,0,0,0,0,0,0,0,0,0,0,0,0,0,0,0,0,0,0,0,0,0,0,0,0,0,0],"id":4,"left_children":[1,3,5,7,9,11,13,15,17,19,21,23,25,27,29,31,33,35,37,39,41,43,45,47,49,51,53,55,57,59,61,63,65,67,69,71,73,75,77,79,81,83,85,87,89,91,93,95,97,99,101,103,105,107,109,111,113,115,117,119,121,123,125,-1,-1,-1,-1,-1,-1,-1,-1,-1,-1,-1,-1,-1,-1,-1,-1,-1,-1,-1,-1,-1,-1,-1,-1,-1,-1,-1,-1,-1,-1,-1,-1,-1,-1,-1,-1,-1,-1,-1,-1,-1,-1,-1,-1,-1,-1,-1,-1,-1,-1,-1,-1,-1,-1,-1,-1,-1,-1,-1,-1,-1,-1,-1,-1],"loss_changes":[1.0358628E6,9.621372E4,1.03334375E5,8.642656E3,1.2952185E4,1.5305125E4,4.0016312E4,2.053625E3,1.9181641E3,6.705297E3,2.0479994E3,5.9608574E3,4.4037188E3,1.39970625E4,3.7365625E3,1.3371875E2,5.7390625E2,5.634375E2,2.1388641E2,3.0998672E3,7.063218E2,2.1334224E3,3.2434058E2,4.6735E3,4.4767285E2,2.6945078E3,6.3002363E3,1.4153438E3,4.3371875E3,2.474746E3,9.8522266E2,1.053125E1,8.517578E0,1.74625E2,7.401993E1,2.768047E2,1.9694531E2,3.605859E1,1.1072949E2,2.6982031E3,2.6822598E3,3.6666772E2,1.8574292E2,7.7596594E2,1.2266449E3,1.01965454E2,1.0962073E2,2.3565195E3,3.6030989E3,2.1448242E1,3.0172754E2,3.172088E3,1.0776094E3,1.7868613E3,1.305457E3,4.693125E2,1.7799922E3,2.1169375E3,7.4184375E2,2.689629E3,2.3019353E2,2.1431152E1,7.7843945E2,0E0,0E0,0E0,0E0,0E0,0E0,0E0,0E0,0E0,0E0,0E0,0E0,0E0,0E0,0E0,0E0,0E0,0E0,0E0,0E0,0E0,0E0,0E0,0E0,0E0,0E0,0E0,0E0,0E0,0E0,0E0,0E0,0E0,0E0,0E0,0E0,0E0,0E0,0E0,0E0,0E0,0E0,0E0,0E0,0E0,0E0,0E0,0E0,0E0,0E0,0E0,0E0,0E0,0E0,0E0,0E0,0E0,0E0,0E0,0E0,0E0,0E0,0E0,0E0],"parents":[2147483647,0,0,1,1,2,2,3,3,4,4,5,5,6,6,7,7,8,8,9,9,10,10,11,11,12,12,13,13,14,14,15,15,16,16,17,17,18,18,19,19,20,20,21,21,22,22,23,23,24,24,25,25,26,26,27,27,28,28,29,29,30,30,31,31,32,32,33,33,34,34,35,35,36,36,37,37,38,38,39,39,40,40,41,41,42,42,43,43,44,44,45,45,46,46,47,47,48,48,49,49,50,50,51,51,52,52,53,53,54,54,55,55,56,56,57,57,58,58,59,59,60,60,61,61,62,62],"right_children":[2,4,6,8,10,12,14,16,18,20,22,24,26,28,30,32,34,36,38,40,42,44,46,48,50,52,54,56,58,60,62,64,66,68,70,72,74,76,78,80,82,84,86,88,90,92,94,96,98,100,102,104,106,108,110,112,114,116,118,120,122,124,126,-1,-1,-1,-1,-1,-1,-1,-1,-1,-1,-1,-1,-1,-1,-1,-1,-1,-1,-1,-1,-1,-1,-1,-1,-1,-1,-1,-1,-1,-1,-1,-1,-1,-1,-1,-1,-1,-1,-1,-1,-1,-1,-1,-1,-1,-1,-1,-1,-1,-1,-1,-1,-1,-1,-1,-1,-1,-1,-1,-1,-1,-1,-1,-1],"split_conditions":[6.7924527E-3,1.8867925E-3,2.4528302E-2,1.1320754E-3,4.173187E-3,1.2452831E-2,6.670374E-2,7.54717E-4,5.669467E-1,4.3876344E-1,3.1622776E-1,3.1622776E-1,6.091449E-2,5.207547E-2,1.7739372E-1,6.0902196E-1,6.666667E-1,1.509434E-3,6.666667E-1,6.2876366E-2,5.669467E-1,5.7381326E-3,3.8490018E-1,7.018624E-2,2.5666668E-4,1.5127804E-2,1.9245009E-1,3.3385497E-2,2.5666668E-4,4.432995E2,2.5666668E-4,7.5858333E-3,1.4973233E2,2.9198056E-1,1.5405834E-2,7.500586E-2,4.6665836E-2,2.6330277E-2,6.667994E-1,6.715472E-2,3.086067E-1,4.528302E-3,4.1509434E-3,7.343709E-2,1.7222223E-5,5.283019E-3,2.5788888E-2,8.868023E-3,1.6666667E-1,1.0432968E-2,3.6380345E-1,3.565361E-2,1.7222223E-5,1.7222223E-5,1.2519562E-2,7.791222E-2,1.7222223E-5,8.3985396E-2,1.8540556E-2,7.131472E-2,1.304121E-2,2.1387585E-2,2.6943398E-1,-5.0695598E-2,-5.1654834E-2,-4.750337E-2,-4.532741E-2,-4.378204E-2,-3.7510253E-2,9.203897E-2,2.2732532E-2,-3.647582E-2,-4.979223E-2,-3.0209402E-2,-4.2098995E-2,5.0398022E-2,5.611675E-3,1.08509675E-1,1.7230539E-2,-1.9372944E-2,1.0589396E-3,-4.0760577E-2,8.133526E-3,2.561304E-2,9.061008E-2,8.367806E-2,1.3042264E-1,-2.5682715E-3,-1.7943041E-2,1.3391482E-2,-1.9091138E-3,2.2453142E-2,5.519979E-2,9.8585635E-2,6.126509E-2,1.8314846E-2,3.4361493E-2,-6.594922E-3,2.9200394E-2,1.5374659E-1,-9.709588E-3,6.841916E-2,1.036124E-1,3.5272893E-2,7.834698E-2,6.546662E-2,4.9664903E-2,1.32823E-1,2.3236824E-2,9.321936E-2,5.4933008E-2,7.2906904E-2,8.7922305E-2,9.61472E-2,7.136224E-2,1.0927097E-1,1.288958E-1,7.846125E-2,9.90601E-2,4.0588617E-2,6.192688E-2,1.2924056E-1,-9.779133E-3,1.56987E-1,1.32538E-1,6.945685E-2,1.1304756E-1],"split_indices":[1,1,1,1,2,1,0,1,0,0,0,0,0,1,0,4,0,1,0,0,0,2,0,0,4,2,0,2,4,4,4,4,4,4,4,0,0,4,4,4,0,1,1,0,4,1,4,2,0,2,0,4,4,4,2,4,4,2,4,4,2,2,1,0,0,0,0,0,0,0,0,0,0,0,0,0,0,0,0,0,0,0,0,0,0,0,0,0,0,0,0,0,0,0,0,0,0,0,0,0,0,0,0,0,0,0,0,0,0,0,0,0,0,0,0,0,0,0,0,0,0,0,0,0,0,0,0],"split_type":[0,0,0,0,0,0,0,0,0,0,0,0,0,0,0,0,0,0,0,0,0,0,0,0,0,0,0,0,0,0,0,0,0,0,0,0,0,0,0,0,0,0,0,0,0,0,0,0,0,0,0,0,0,0,0,0,0,0,0,0,0,0,0,0,0,0,0,0,0,0,0,0,0,0,0,0,0,0,0,0,0,0,0,0,0,0,0,0,0,0,0,0,0,0,0,0,0,0,0,0,0,0,0,0,0,0,0,0,0,0,0,0,0,0,0,0,0,0,0,0,0,0,0,0,0,0,0],"sum_hessian":[1.3808892E6,8.9129494E5,4.8959425E5,5.7773444E5,3.1356056E5,2.5746031E5,2.3213394E5,4.2513475E5,1.5259966E5,1.8258517E5,1.3097538E5,1.30438516E5,1.270218E5,1.5365286E5,7.848106E4,2.8543038E5,1.3970438E5,1.5214269E5,4.5695804E2,1.8035252E5,2.2326514E3,1.2917599E5,1.7993876E3,1.2759873E5,2.8397925E3,8.654842E4,4.047338E4,7.500796E4,7.864491E4,6.249124E4,1.5989826E4,2.6480434E5,2.0626018E4,1.3954472E5,1.5966322E2,8.910895E4,6.303374E4,1.8141777E2,2.7554028E2,1.5279739E5,2.7555125E4,1.1936499E3,1.0390015E3,7.039083E4,5.878516E4,9.9076917E2,8.086184E2,9.661749E4,3.0981234E4,3.1082855E2,2.5289639E3,2.951898E4,5.7029438E4,3.1440826E4,9.032552E3,3.9557883E4,3.545008E4,5.5267887E4,2.3377021E4,6.054202E4,1.9492194E3,5.3994855E2,1.5449877E4,2.2832852E5,3.647584E4,1.2347898E4,8.278119E3,1.2733062E5,1.22141E4,6.508779E1,9.457543E1,8.501124E4,4.097712E3,5.9326863E4,3.7068762E3,8.033555E1,1.0108222E2,2.3642236E2,3.9117916E1,1.344316E5,1.8365803E4,2.4385941E4,3.1691826E3,9.090422E2,2.8460773E2,7.3200653E2,3.0699493E2,6.0907137E4,9.483696E3,3.9083043E4,1.970212E4,5.914141E2,3.9935507E2,3.696207E2,4.3899768E2,3.7220375E4,5.9397113E4,2.019944E4,1.0781795E4,3.0892456E2,1.9039859E0,1.0550674E3,1.4738965E3,2.4333666E4,5.185314E3,4.254891E4,1.4480528E4,3.7553903E2,3.1065287E4,4.0074968E3,5.0250547E3,3.3357793E4,6.2000874E3,2.5270787E4,1.017929E4,2.6169738E4,2.9098148E4,5.8598955E3,1.7517125E4,3.4958094E4,2.5583926E4,2.9248913E1,1.9199703E3,1.8763448E2,3.523141E2,1.4344734E4,1.1051432E3],"tree_param":{"num_deleted":"0","num_feature":"5","num_nodes":"127","size_leaf_vector":"1"}},{"base_weights":[-4.6912767E-3,-6.4090735E-1,1.0368898E0,-8.6513025E-1,-2.3985527E-1,6.209616E-1,1.454754E0,-9.686702E-1,-7.33266E-1,-2.7395296E-1,9.7845167E-1,3.8902184E-1,8.1925976E-1,1.7143011E0,8.668595E-1,-9.802896E-1,-8.558284E-1,-7.4463063E-1,1.530066E0,-4.5267928E-1,-6.2264476E-2,6.325462E-1,1.5642315E0,3.4620127E-1,1.3170036E0,9.3244886E-1,6.9019973E-1,1.4658926E0,2.0504992E0,7.548628E-1,1.5973219E0,-9.870938E-1,-7.728895E-1,-8.4680396E-1,-9.99629E-1,-8.0038553E-1,-6.573063E-1,6.596427E-1,1.9714355E0,-4.017982E-1,-8.1774616E-1,-1.7609195E-1,4.4175915E-2,1.4449088E-1,1.1084324E0,2.169439E0,1.2966417E0,2.582515E-1,4.6565953E-1,1.0654308E0,1.7573903E0,9.1345716E-1,2.3523867E0,6.036807E-1,1.1183345E0,1.2981914E0,1.6070076E0,2.2108557E0,1.6801069E0,6.4064825E-1,1.1922251E0,1.3101978E0,1.8007662E0,-4.9392644E-2,-4.5641832E-2,-2.649464E-2,-4.319898E-2,-4.2731207E-2,-3.712345E-2,-5.0371356E-2,-2.5508543E-2,-4.0936753E-2,-3.1771302E-2,-3.3181272E-2,7.3018125E-3,4.8840698E-2,-1.1116932E-2,8.2078435E-2,1.14763774E-1,-2.1631818E-2,-5.090191E-3,-4.734999E-2,-2.666449E-2,-6.2833815E-3,-2.2627763E-2,1.2782443E-3,3.7959244E-2,1.21630885E-1,3.2121183E-3,1.2862657E-1,5.2242476E-2,9.604323E-2,1.2625957E-1,7.4619584E-2,3.8360033E-2,1.4846228E-2,3.8698614E-3,2.5642425E-2,1.4330617E-2,4.6527524E-2,9.062312E-2,8.007487E-2,1.11842655E-1,3.7569955E-2,5.3148102E-2,1.2721312E-1,9.246928E-2,4.071531E-2,1.978836E-2,4.8047565E-2,9.0596825E-2,6.5693E-2,2.0296616E-2,8.5350536E-2,6.907503E-2,1.05251364E-1,1.23788886E-1,7.880604E-2,9.417531E-2,2.3145858E-2,4.2471763E-2,5.500266E-2,8.664817E-2,8.891146E-2,5.3858258E-2,7.546945E-2,9.808231E-2],"categories":[],"categories_nodes":[],"categories_segments":[],"categories_sizes":[],"default_left":[0,0,0,0,0,0,0,0,0,0,0,0,0,0,0,0,0,0,0,0,0,0,0,0,0,0,0,0,0,0,0,0,0,0,0,0,0,0,0,0,0,0,0,0,0,0,0,0,0,0,0,0,0,0,0,0,0,0,0,0,0,0,0,0,0,0,0,0,0,0,0,0,0,0,0,0,0,0,0,0,0,0,0,0,0,0,0,0,0,0,0,0,0,0,0,0,0,0,0,0,0,0,0,0,0,0,0,0,0,0,0,0,0,0,0,0,0,0,0,0,0,0,0,0,0,0,0],"id":5,"left_children":[1,3,5,7,9,11,13,15,17,19,21,23,25,27,29,31,33,35,37,39,41,43,45,47,49,51,53,55,57,59,61,63,65,67,69,71,73,75,77,79,81,83,85,87,89,91,93,95,97,99,101,103,105,107,109,111,113,115,117,119,121,123,125,-1,-1,-1,-1,-1,-1,-1,-1,-1,-1,-1,-1,-1,-1,-1,-1,-1,-1,-1,-1,-1,-1,-1,-1,-1,-1,-1,-1,-1,-1,-1,-1,-1,-1,-1,-1,-1,-1,-1,-1,-1,-1,-1,-1,-1,-1,-1,-1,-1,-1,-1,-1,-1,-1,-1,-1,-1,-1,-1,-1,-1,-1,-1,-1],"loss_changes":[9.110488E5,7.674981E4,9.060631E4,7.4734375E3,1.27145E4,1.201632E4,3.9679625E4,4.011875E2,6.1945938E3,1.1264355E4,1.6874756E3,4.7847246E3,2.0569062E3,1.5063625E4,6.51491E3,3.91625E2,3.63125E1,1.1659375E3,4.6098706E2,2.998289E3,1.6513657E3,1.2170815E3,4.9810596E2,1.2092803E3,5.865615E2,2.0213281E3,2.437209E3,2.45325E3,4.54925E3,3.4491562E3,6.1611523E2,1.425E1,1.9511475E2,2.1357422E1,5.9189453E0,4.4207812E2,4.740586E2,1.138958E2,8.1471436E1,1.310748E3,7.255117E2,9.181102E2,9.372628E2,4.7514282E2,2.443186E2,7.887744E1,2.2139429E2,4.637046E2,4.1226074E2,3.3916602E2,1.4063477E2,1.7932461E3,9.081641E1,2.3973887E3,1.2059053E3,6.6234375E2,1.2681406E3,1.4945E3,4.8696875E2,2.0318066E3,7.1080273E2,4.7738428E2,2.874043E2,0E0,0E0,0E0,0E0,0E0,0E0,0E0,0E0,0E0,0E0,0E0,0E0,0E0,0E0,0E0,0E0,0E0,0E0,0E0,0E0,0E0,0E0,0E0,0E0,0E0,0E0,0E0,0E0,0E0,0E0,0E0,0E0,0E0,0E0,0E0,0E0,0E0,0E0,0E0,0E0,0E0,0E0,0E0,0E0,0E0,0E0,0E0,0E0,0E0,0E0,0E0,0E0,0E0,0E0,0E0,0E0,0E0,0E0,0E0,0E0,0E0,0E0,0E0,0E0],"parents":[2147483647,0,0,1,1,2,2,3,3,4,4,5,5,6,6,7,7,8,8,9,9,10,10,11,11,12,12,13,13,14,14,15,15,16,16,17,17,18,18,19,19,20,20,21,21,22,22,23,23,24,24,25,25,26,26,27,27,28,28,29,29,30,30,31,31,32,32,33,33,34,34,35,35,36,36,37,37,38,38,39,39,40,40,41,41,42,42,43,43,44,44,45,45,46,46,47,47,48,48,49,49,50,50,51,51,52,52,53,53,54,54,55,55,56,56,57,57,58,58,59,59,60,60,61,61,62,62],"right_children":[2,4,6,8,10,12,14,16,18,20,22,24,26,28,30,32,34,36,38,40,42,44,46,48,50,52,54,56,58,60,62,64,66,68,70,72,74,76,78,80,82,84,86,88,90,92,94,96,98,100,102,104,106,108,110,112,114,116,118,120,122,124,126,-1,-1,-1,-1,-1,-1,-1,-1,-1,-1,-1,-1,-1,-1,-1,-1,-1,-1,-1,-1,-1,-1,-1,-1,-1,-1,-1,-1,-1,-1,-1,-1,-1,-1,-1,-1,-1,-1,-1,-1,-1,-1,-1,-1,-1,-1,-1,-1,-1,-1,-1,-1,-1,-1,-1,-1,-1,-1,-1,-1,-1,-1,-1,-1],"split_conditions":[6.259781E-3,2.0865935E-3,2.0344287E-2,1.0432968E-3,3.086067E-1,1.0432968E-2,7.018624E-2,1.5061639E-1,5.669467E-1,3.6515389E-3,4.3876344E-1,2.3570226E-1,2.5666668E-4,5.268649E-2,6E1,1.1E1,9.8E1,1.5649452E-3,6.666667E-1,6.482037E-2,4.6948357E-3,3.6515389E-3,9.520277E-3,8.346374E-3,3.1622776E-1,1.3786002E-2,1.7496355E-1,2.973396E-2,1.7222223E-5,1.7251639E-1,2.43E2,7E0,6.7955554E-3,1.6E1,8.6997154E1,1.8051971E-1,3.8490018E-1,8.7E1,1.5649452E-3,1.9965333E-1,1.9050018E-1,6.482037E-2,2.3904572E-1,1.7222223E-5,1.7222223E-5,5.669467E-1,2.18E2,7.856742E-2,7.018624E-2,1.74E2,1.1E2,1.4084507E-2,1.7222223E-5,7.018624E-2,8.7E1,3.5E1,2.5666668E-4,1.3875848E-1,1.1371935E-1,3E0,1.1371935E-1,1.0238252E-1,5.225472E-2,-4.9392644E-2,-4.5641832E-2,-2.649464E-2,-4.319898E-2,-4.2731207E-2,-3.712345E-2,-5.0371356E-2,-2.5508543E-2,-4.0936753E-2,-3.1771302E-2,-3.3181272E-2,7.3018125E-3,4.8840698E-2,-1.1116932E-2,8.2078435E-2,1.14763774E-1,-2.1631818E-2,-5.090191E-3,-4.734999E-2,-2.666449E-2,-6.2833815E-3,-2.2627763E-2,1.2782443E-3,3.7959244E-2,1.21630885E-1,3.2121183E-3,1.2862657E-1,5.2242476E-2,9.604323E-2,1.2625957E-1,7.4619584E-2,3.8360033E-2,1.4846228E-2,3.8698614E-3,2.5642425E-2,1.4330617E-2,4.6527524E-2,9.062312E-2,8.007487E-2,1.11842655E-1,3.7569955E-2,5.3148102E-2,1.2721312E-1,9.246928E-2,4.071531E-2,1.978836E-2,4.8047565E-2,9.0596825E-2,6.5693E-2,2.0296616E-2,8.5350536E-2,6.907503E-2,1.05251364E-1,1.23788886E-1,7.880604E-2,9.417531E-2,2.3145858E-2,4.2471763E-2,5.500266E-2,8.664817E-2,8.891146E-2,5.3858258E-2,7.546945E-2,9.808231E-2],"split_indices":[2,2,2,2,0,2,0,4,0,2,0,0,4,2,3,3,3,2,0,0,2,2,4,2,0,0,0,2,4,0,3,3,4,3,4,4,0,3,2,4,0,0,0,4,4,0,3,0,0,3,3,2,4,0,3,3,4,2,2,3,2,0,4,0,0,0,0,0,0,0,0,0,0,0,0,0,0,0,0,0,0,0,0,0,0,0,0,0,0,0,0,0,0,0,0,0,0,0,0,0,0,0,0,0,0,0,0,0,0,0,0,0,0,0,0,0,0,0,0,0,0,0,0,0,0,0,0],"split_type":[0,0,0,0,0,0,0,0,0,0,0,0,0,0,0,0,0,0,0,0,0,0,0,0,0,0,0,0,0,0,0,0,0,0,0,0,0,0,0,0,0,0,0,0,0,0,0,0,0,0,0,0,0,0,0,0,0,0,0,0,0,0,0,0,0,0,0,0,0,0,0,0,0,0,0,0,0,0,0,0,0,0,0,0,0,0,0,0,0,0,0,0,0,0,0,0,0,0,0,0,0,0,0,0,0,0,0,0,0,0,0,0,0,0,0,0,0,0,0,0,0,0,0,0,0,0,0],"sum_hessian":[1.374812E6,8.534873E5,5.2132472E5,5.4742694E5,3.0606034E5,2.6126886E5,2.6005586E5,3.0664378E5,2.4078317E5,2.9772838E5,8.331978E3,1.2042111E5,1.4084775E5,1.8040688E5,7.9648984E4,2.780092E5,2.8634607E4,2.3958086E5,1.2023153E3,1.6143197E5,1.3629642E5,5.239884E3,3.0920938E3,1.1511083E5,5.3102764E3,7.503437E4,6.581338E4,1.03752234E5,7.665464E4,6.906219E4,1.0586794E4,2.6917456E5,8.834608E3,2.6950191E4,1.6844163E3,1.462164E5,9.336445E4,4.053737E2,7.969416E2,1.4168655E5,1.9745418E4,6.5862414E4,7.0434E4,2.5875105E3,2.6523733E3,9.45822E2,2.1462717E3,6.63008E4,4.881004E4,3.3818179E3,1.9284583E3,7.404565E4,9.8871924E2,5.475142E4,1.1061962E4,4.7414773E4,5.6337457E4,5.3491293E4,2.3163346E4,5.4763492E4,1.4298697E4,4.3935513E3,6.193242E3,2.664387E5,2.7358777E3,2.4106492E3,6.4239595E3,2.506436E4,1.8858318E3,1.6569592E3,2.7457047E1,1.3157633E5,1.4640071E4,9.263595E4,7.2850287E2,2.9807483E2,1.0729886E2,3.9780356E2,3.9913806E2,1.28479E5,1.3207546E4,1.3574842E4,6.1705776E3,5.5703984E4,1.0158433E4,6.864819E4,1.7858138E3,8.668031E1,2.50083E3,1.0875074E2,2.5436226E3,5.605494E2,3.8527267E2,1.565603E3,5.806687E2,5.4620375E4,1.168042E4,3.8627625E4,1.0182412E4,2.866502E3,5.153159E2,1.4585608E3,4.6989743E2,3.5534035E4,3.8511613E4,7.1276733E2,2.759519E2,2.719687E4,2.7554553E4,9.018081E3,2.0438813E3,4.6596055E4,8.187194E2,3.902494E4,1.7312516E4,3.82289E4,1.5262397E4,1.5333153E4,7.830192E3,2.9583553E4,2.5179938E4,1.2218943E4,2.0797534E3,1.4582063E3,2.9353447E3,2.2067952E3,3.9864473E3],"tree_param":{"num_deleted":"0","num_feature":"5","num_nodes":"127","size_leaf_vector":"1"}},{"base_weights":[-5.0823367E-3,-6.367225E-1,9.5972687E-1,-8.5427076E-1,-2.1785589E-1,5.279363E-1,1.3350295E0,-9.3043935E-1,-6.465379E-1,-3.8078803E-1,-3.8983576E-2,3.365018E-1,7.160817E-1,1.5544323E0,8.9605796E-1,-9.8092663E-1,-8.28326E-1,-6.5258265E-1,1.1451806E0,-3.9304417E-1,6.72362E-1,-6.002955E-2,1.121359E0,2.9913056E-1,1.2861437E0,6.8372315E-1,1.4066697E0,1.2841939E0,1.8515898E0,8.063206E-1,1.3456752E0,-9.8759556E-1,-9.0744025E-1,-8.305342E-1,8.800447E-1,-7.041664E-1,-5.8032274E-1,4.0941644E-1,1.6266929E0,-3.5569283E-1,-7.236471E-1,2.8379974E-1,1.3912584E0,2.1699812E-2,-4.3605503E-1,7.485002E-1,1.549308E0,4.0417933E-1,-8.783454E-2,1.0113728E0,1.8764867E0,8.04197E-1,3.4368873E-1,1.6471897E0,9.223395E-1,1.1783781E0,1.4427968E0,1.9737426E0,1.5592085E0,2.1884274E0,7.833445E-1,2.4374597E0,1.2975057E0,-4.9225036E-2,-5.040477E-2,-4.628956E-2,-4.3664824E-2,-4.2058382E-2,-3.5967644E-2,7.530642E-2,2.0622982E-2,-3.4582894E-2,-4.8258107E-2,-2.830498E-2,-4.046912E-2,4.5162078E-2,-1.2433471E-3,9.338959E-2,4.377931E-2,-2.1430748E-2,-1.2416655E-2,-4.1100603E-2,-1.2562557E-2,3.3769827E-2,-5.353537E-4,9.2885725E-2,4.2164486E-2,-7.358037E-4,1.912505E-2,-3.0360533E-2,-1.6231046E-3,7.914736E-2,3.035662E-2,1.067008E-1,6.445404E-2,1.7529072E-2,4.020254E-2,-3.558453E-2,6.554815E-4,1.2629417E-1,4.633158E-2,9.9753335E-2,5.9900105E-2,3.2473695E-2,4.689472E-2,1.0021764E-2,3.6998887E-2,6.764348E-2,1.0083919E-1,4.950163E-2,1.0057124E-2,5.6293797E-2,6.6631064E-2,7.335629E-2,5.13717E-2,9.013675E-2,1.07847385E-1,6.269861E-2,8.262849E-2,1.1967229E-1,8.452177E-2,4.083621E-2,-4.174599E-3,1.3680357E-1,1.1630004E-1,6.1932463E-2,1.0892259E-1],"categories":[],"categories_nodes":[],"categories_segments":[],"categories_sizes":[],"default_left":[0,0,0,0,0,0,0,0,0,0,0,0,0,0,0,0,0,0,0,0,0,0,0,0,0,0,0,0,0,0,0,0,0,0,0,0,0,0,0,0,0,0,0,0,0,0,0,0,0,0,0,0,0,0,0,0,0,0,0,0,0,0,0,0,0,0,0,0,0,0,0,0,0,0,0,0,0,0,0,0,0,0,0,0,0,0,0,0,0,0,0,0,0,0,0,0,0,0,0,0,0,0,0,0,0,0,0,0,0,0,0,0,0,0,0,0,0,0,0,0,0,0,0,0,0,0,0],"id":6,"left_children":[1,3,5,7,9,11,13,15,17,19,21,23,25,27,29,31,33,35,37,39,41,43,45,47,49,51,53,55,57,59,61,63,65,67,69,71,73,75,77,79,81,83,85,87,89,91,93,95,97,99,101,103,105,107,109,111,113,115,117,119,121,123,125,-1,-1,-1,-1,-1,-1,-1,-1,-1,-1,-1,-1,-1,-1,-1,-1,-1,-1,-1,-1,-1,-1,-1,-1,-1,-1,-1,-1,-1,-1,-1,-1,-1,-1,-1,-1,-1,-1,-1,-1,-1,-1,-1,-1,-1,-1,-1,-1,-1,-1,-1,-1,-1,-1,-1,-1,-1,-1,-1,-1,-1,-1,-1,-1],"loss_changes":[8.338153E5,7.534859E4,8.772525E4,8.610531E3,8.2378E3,9.066422E3,2.7891906E4,2.0521875E3,1.582168E3,1.9095566E3,3.2904792E3,4.427826E3,2.8360156E3,1.55041875E4,3.8931016E3,1.296875E2,4.977578E2,5.4202344E2,1.7339856E2,1.8053262E3,4.7503638E2,4.0671287E3,3.8185596E2,4.880211E3,7.643911E2,4.967746E3,6.603164E2,1.6955938E3,3.2815625E3,2.5533555E3,8.4127734E2,1.45E1,1.3087891E1,1.5496094E2,4.9312836E1,2.7652344E2,1.9703906E2,4.1989174E1,5.2082397E1,1.0284414E3,6.894536E2,1.2757108E2,1.5100513E2,1.4283682E3,1.6321763E3,1.505863E2,1.6716162E2,2.0233701E3,1.614241E3,4.1166675E2,1.1823242E2,1.8517578E3,1.801061E3,4.1008203E2,9.1948E1,4.8978906E2,4.074375E2,2.0282188E3,7.7035156E2,1.3022705E2,2.2901602E3,1.618042E1,7.9477344E2,0E0,0E0,0E0,0E0,0E0,0E0,0E0,0E0,0E0,0E0,0E0,0E0,0E0,0E0,0E0,0E0,0E0,0E0,0E0,0E0,0E0,0E0,0E0,0E0,0E0,0E0,0E0,0E0,0E0,0E0,0E0,0E0,0E0,0E0,0E0,0E0,0E0,0E0,0E0,0E0,0E0,0E0,0E0,0E0,0E0,0E0,0E0,0E0,0E0,0E0,0E0,0E0,0E0,0E0,0E0,0E0,0E0,0E0,0E0,0E0,0E0,0E0,0E0,0E0],"parents":[2147483647,0,0,1,1,2,2,3,3,4,4,5,5,6,6,7,7,8,8,9,9,10,10,11,11,12,12,13,13,14,14,15,15,16,16,17,17,18,18,19,19,20,20,21,21,22,22,23,23,24,24,25,25,26,26,27,27,28,28,29,29,30,30,31,31,32,32,33,33,34,34,35,35,36,36,37,37,38,38,39,39,40,40,41,41,42,42,43,43,44,44,45,45,46,46,47,47,48,48,49,49,50,50,51,51,52,52,53,53,54,54,55,55,56,56,57,57,58,58,59,59,60,60,61,61,62,62],"right_children":[2,4,6,8,10,12,14,16,18,20,22,24,26,28,30,32,34,36,38,40,42,44,46,48,50,52,54,56,58,60,62,64,66,68,70,72,74,76,78,80,82,84,86,88,90,92,94,96,98,100,102,104,106,108,110,112,114,116,118,120,122,124,126,-1,-1,-1,-1,-1,-1,-1,-1,-1,-1,-1,-1,-1,-1,-1,-1,-1,-1,-1,-1,-1,-1,-1,-1,-1,-1,-1,-1,-1,-1,-1,-1,-1,-1,-1,-1,-1,-1,-1,-1,-1,-1,-1,-1,-1,-1,-1,-1,-1,-1,-1,-1,-1,-1,-1,-1,-1,-1,-1,-1,-1,-1,-1,-1],"split_conditions":[6.037736E-3,1.8867925E-3,1.962264E-2,1.1320754E-3,3.3962263E-3,1.0566038E-2,6.579517E-2,7.54717E-4,5.669467E-1,4.0089187E-1,3.6380345E-1,2.6726124E-1,2.3570226E-1,4.754717E-2,1.9500358E-1,2.602361E-1,6.666667E-1,1.509434E-3,6.666667E-1,6.482037E-2,5.669467E-1,6.091449E-2,4.6291006E-1,7.018624E-2,3.8490018E-1,6.670374E-2,1.2519562E-2,3.2075472E-2,2.5666668E-4,2.5666668E-4,2.5666668E-4,6.990833E-3,1.4973233E2,3.110597E-1,1.5405834E-2,7.500586E-2,4.9507376E-2,2.9315278E-2,1.5061639E-1,2.6415095E-3,2.6726124E-1,2.6330277E-2,2.608242E-3,2.2096889E-1,2E-1,4.3880558E-3,8.2075E-3,9.1815E-2,4.173187E-3,2.5666668E-4,7.3030777E-3,1.4084507E-2,1.5944353E-1,3.086067E-1,1.982264E-2,2.8690662E-2,5.21286E-2,8.3985396E-2,1.7086111E-2,1.7222223E-5,3.6718195E2,1.4606155E-2,2.6943398E-1,-4.9225036E-2,-5.040477E-2,-4.628956E-2,-4.3664824E-2,-4.2058382E-2,-3.5967644E-2,7.530642E-2,2.0622982E-2,-3.4582894E-2,-4.8258107E-2,-2.830498E-2,-4.046912E-2,4.5162078E-2,-1.2433471E-3,9.338959E-2,4.377931E-2,-2.1430748E-2,-1.2416655E-2,-4.1100603E-2,-1.2562557E-2,3.3769827E-2,-5.353537E-4,9.2885725E-2,4.2164486E-2,-7.358037E-4,1.912505E-2,-3.0360533E-2,-1.6231046E-3,7.914736E-2,3.035662E-2,1.067008E-1,6.445404E-2,1.7529072E-2,4.020254E-2,-3.558453E-2,6.554815E-4,1.2629417E-1,4.633158E-2,9.9753335E-2,5.9900105E-2,3.2473695E-2,4.689472E-2,1.0021764E-2,3.6998887E-2,6.764348E-2,1.0083919E-1,4.950163E-2,1.0057124E-2,5.6293797E-2,6.6631064E-2,7.335629E-2,5.13717E-2,9.013675E-2,1.07847385E-1,6.269861E-2,8.262849E-2,1.1967229E-1,8.452177E-2,4.083621E-2,-4.174599E-3,1.3680357E-1,1.1630004E-1,6.1932463E-2,1.0892259E-1],"split_indices":[1,1,1,1,1,1,0,1,0,0,0,0,0,1,0,4,0,1,0,0,0,0,0,0,0,0,2,1,4,4,4,4,4,4,4,0,0,4,4,1,0,4,2,4,0,4,4,4,2,4,2,2,0,0,2,2,0,2,4,4,4,2,1,0,0,0,0,0,0,0,0,0,0,0,0,0,0,0,0,0,0,0,0,0,0,0,0,0,0,0,0,0,0,0,0,0,0,0,0,0,0,0,0,0,0,0,0,0,0,0,0,0,0,0,0,0,0,0,0,0,0,0,0,0,0,0,0],"split_type":[0,0,0,0,0,0,0,0,0,0,0,0,0,0,0,0,0,0,0,0,0,0,0,0,0,0,0,0,0,0,0,0,0,0,0,0,0,0,0,0,0,0,0,0,0,0,0,0,0,0,0,0,0,0,0,0,0,0,0,0,0,0,0,0,0,0,0,0,0,0,0,0,0,0,0,0,0,0,0,0,0,0,0,0,0,0,0,0,0,0,0,0,0,0,0,0,0,0,0,0,0,0,0,0,0,0,0,0,0,0,0,0,0,0,0,0,0,0,0,0,0,0,0,0,0,0,0],"sum_hessian":[1.3682265E6,8.268836E5,5.413429E5,5.44226E5,2.8265766E5,2.5172845E5,2.8961444E5,3.9821175E5,1.4601427E5,1.4791916E5,1.347385E5,1.24774984E5,1.2695347E5,1.9309895E5,9.6515484E4,2.6645938E5,1.3175234E5,1.4552394E5,4.9031995E2,1.4621816E5,1.7010051E3,1.3233911E5,2.3993826E3,1.200519E5,4.723085E3,1.2127304E5,5.6804277E3,1.0113288E5,9.196607E4,8.045965E4,1.6055836E4,2.4427848E5,2.2180895E4,1.3158278E5,1.6957043E2,8.490471E4,6.0619227E4,1.9468546E2,2.956345E2,1.313773E5,1.4840859E4,1.1050968E3,5.959083E2,1.0871154E5,2.3627576E4,1.2836912E3,1.1156915E3,9.441986E4,2.5632045E4,3.224826E3,1.4982589E3,8.954572E4,3.1727322E4,3.7939424E3,1.8864851E3,6.0666336E4,4.0466547E4,6.4861906E4,2.7104164E4,1.3141476E3,7.91455E4,6.76353E2,1.5379483E4,2.1227967E5,3.199882E4,1.4409987E4,7.770908E3,1.2009072E5,1.1492064E4,7.1548225E1,9.80222E1,8.102514E4,3.8795747E3,5.707848E4,3.5407458E3,9.059254E1,1.04092926E2,2.2267195E2,7.296253E1,7.823478E4,5.3142508E4,1.2282572E4,2.5582874E3,4.738026E2,6.3129425E2,3.206047E2,2.7530362E2,9.8746E4,9.965536E3,1.6591115E4,7.0364604E3,1.8449312E2,1.099198E3,3.4139838E2,7.742931E2,8.326154E4,1.1158315E4,3.568976E3,2.2063068E4,1.6935085E2,3.055475E3,1.2737098E3,2.2454903E2,4.151164E4,4.803408E4,2.3304533E4,8.422788E3,2.1146418E3,1.6793007E3,1.7242688E3,1.6221637E2,4.5266547E4,1.5399786E4,3.822505E4,2.2414949E3,3.3553332E4,3.1308574E4,6.351841E3,2.0752324E4,9.2820764E2,3.8594E2,7.621086E4,2.9346362E3,1.7743549E2,4.9891754E2,1.4418575E4,9.609086E2],"tree_param":{"num_deleted":"0","num_feature":"5","num_nodes":"127","size_leaf_vector":"1"}},{"base_weights":[-5.1124683E-3,-6.062149E-1,8.9776427E-1,-8.3098096E-1,-2.219004E-1,5.477948E-1,1.2415656E0,-9.387434E-1,-6.9632083E-1,-2.5117552E-1,9.358303E-1,3.3395255E-1,6.9775337E-1,1.4658713E0,7.7331495E-1,-9.5348793E-1,-8.45831E-1,-7.0749414E-1,1.2905755E0,-4.2235202E-1,-5.3821255E-2,6.3394797E-1,1.3180189E0,2.8847173E-1,1.0247575E0,6.148047E-1,8.2446027E-1,1.2563843E0,1.749828E0,5.892684E-1,1.1272465E0,-9.598465E-1,-8.365795E-1,-7.226541E-1,-8.697379E-1,-7.6328355E-1,-6.211868E-1,5.6569076E-1,1.6392529E0,-3.7442723E-1,-7.623325E-1,-1.5663736E-1,4.121862E-2,2.0476003E-1,1.0523225E0,1.8396688E0,1.1024361E0,3.262615E-1,1.0321068E-1,8.20836E-1,1.4737924E0,5.8647984E-1,1.1497899E0,9.119737E-1,6.164899E-1,1.1458828E0,1.4129893E0,1.8819333E0,1.4126598E0,5.1223695E-1,1.009803E0,9.757145E-1,1.4919008E0,-4.7892656E-2,-4.9368657E-2,-4.216183E-2,-4.012542E-2,-4.203022E-2,-2.0551935E-2,-4.548913E-2,-3.986449E-2,-3.9091803E-2,-3.0003155E-2,-3.1370778E-2,6.850148E-3,4.086813E-2,-1.5889626E-2,1.2081958E-1,7.614434E-2,-2.0377913E-2,-3.7890282E-3,-4.584152E-2,-2.4857515E-2,-5.6782407E-3,-1.935639E-2,9.27783E-4,2.909117E-2,1.04480915E-1,5.9796465E-3,1.02629006E-1,4.939738E-2,1.009736E-1,7.0704386E-2,6.281796E-2,3.4081038E-2,1.4013076E-2,3.4662586E-2,-5.543913E-3,2.2561235E-2,3.284925E-2,6.488766E-2,6.7238145E-2,9.578111E-2,3.269444E-2,1.8527763E-2,5.040384E-2,9.359165E-2,4.4014093E-2,6.1643165E-2,2.0088313E-2,5.614109E-2,5.7801265E-2,-2.5534086E-4,7.434477E-2,6.151687E-2,8.8252716E-2,1.03496544E-1,6.1171155E-2,7.492437E-2,2.7429014E-2,-1.8883094E-2,4.6218246E-2,7.333107E-2,4.1469615E-2,6.266492E-2,6.9141775E-2,9.210733E-2],"categories":[],"categories_nodes":[],"categories_segments":[],"categories_sizes":[],"default_left":[0,0,0,0,0,0,0,0,0,0,0,0,0,0,0,0,0,0,0,0,0,0,0,0,0,0,0,0,0,0,0,0,0,0,0,0,0,0,0,0,0,0,0,0,0,0,0,0,0,0,0,0,0,0,0,0,0,0,0,0,0,0,0,0,0,0,0,0,0,0,0,0,0,0,0,0,0,0,0,0,0,0,0,0,0,0,0,0,0,0,0,0,0,0,0,0,0,0,0,0,0,0,0,0,0,0,0,0,0,0,0,0,0,0,0,0,0,0,0,0,0,0,0,0,0,0,0],"id":7,"left_children":[1,3,5,7,9,11,13,15,17,19,21,23,25,27,29,31,33,35,37,39,41,43,45,47,49,51,53,55,57,59,61,63,65,67,69,71,73,75,77,79,81,83,85,87,89,91,93,95,97,99,101,103,105,107,109,111,113,115,117,119,121,123,125,-1,-1,-1,-1,-1,-1,-1,-1,-1,-1,-1,-1,-1,-1,-1,-1,-1,-1,-1,-1,-1,-1,-1,-1,-1,-1,-1,-1,-1,-1,-1,-1,-1,-1,-1,-1,-1,-1,-1,-1,-1,-1,-1,-1,-1,-1,-1,-1,-1,-1,-1,-1,-1,-1,-1,-1,-1,-1,-1,-1,-1,-1,-1,-1],"loss_changes":[7.384996E5,7.0562875E4,6.543547E4,7.4789375E3,1.0217251E4,8.642258E3,2.8813406E4,3.914375E2,5.0875625E3,9.932613E3,8.569751E2,3.4900889E3,1.6644844E3,1.10315625E4,5.7874336E3,1.8285938E2,1.1487109E2,1.0966094E3,3.2300806E2,2.5651445E3,1.3344949E3,7.4600415E2,3.668496E2,7.296963E2,6.271245E2,1.4501758E3,1.1401094E3,1.8455781E3,3.50475E3,1.8932559E3,1.6782031E3,1.1921875E1,2.2158203E0,2.3418555E2,9.455469E1,4.1857812E2,4.225703E2,9.315326E1,7.4531006E1,1.3654102E3,7.9648535E2,6.512234E2,8.694723E2,3.2925415E2,1.3346265E2,7.0427E1,1.4964014E2,1.461291E3,1.3158857E3,3.6807593E2,1.1952295E2,1.3232988E3,4.906206E2,4.4748828E2,2.0179722E3,7.306719E2,5.9422656E2,1.2394375E3,3.5826562E2,1.5982676E3,3.518457E2,8.7127734E2,3.382539E2,0E0,0E0,0E0,0E0,0E0,0E0,0E0,0E0,0E0,0E0,0E0,0E0,0E0,0E0,0E0,0E0,0E0,0E0,0E0,0E0,0E0,0E0,0E0,0E0,0E0,0E0,0E0,0E0,0E0,0E0,0E0,0E0,0E0,0E0,0E0,0E0,0E0,0E0,0E0,0E0,0E0,0E0,0E0,0E0,0E0,0E0,0E0,0E0,0E0,0E0,0E0,0E0,0E0,0E0,0E0,0E0,0E0,0E0,0E0,0E0,0E0,0E0,0E0,0E0],"parents":[2147483647,0,0,1,1,2,2,3,3,4,4,5,5,6,6,7,7,8,8,9,9,10,10,11,11,12,12,13,13,14,14,15,15,16,16,17,17,18,18,19,19,20,20,21,21,22,22,23,23,24,24,25,25,26,26,27,27,28,28,29,29,30,30,31,31,32,32,33,33,34,34,35,35,36,36,37,37,38,38,39,39,40,40,41,41,42,42,43,43,44,44,45,45,46,46,47,47,48,48,49,49,50,50,51,51,52,52,53,53,54,54,55,55,56,56,57,57,58,58,59,59,60,60,61,61,62,62],"right_children":[2,4,6,8,10,12,14,16,18,20,22,24,26,28,30,32,34,36,38,40,42,44,46,48,50,52,54,56,58,60,62,64,66,68,70,72,74,76,78,80,82,84,86,88,90,92,94,96,98,100,102,104,106,108,110,112,114,116,118,120,122,124,126,-1,-1,-1,-1,-1,-1,-1,-1,-1,-1,-1,-1,-1,-1,-1,-1,-1,-1,-1,-1,-1,-1,-1,-1,-1,-1,-1,-1,-1,-1,-1,-1,-1,-1,-1,-1,-1,-1,-1,-1,-1,-1,-1,-1,-1,-1,-1,-1,-1,-1,-1,-1,-1,-1,-1,-1,-1,-1,-1,-1,-1,-1,-1,-1],"split_conditions":[6.259781E-3,2.0865935E-3,2.0344287E-2,1.0432968E-3,3.3068016E-1,9.91132E-3,6.2876366E-2,2E0,5.669467E-1,3.6515389E-3,4.3876344E-1,2.085144E-1,1.5127804E-2,5.268649E-2,6E0,1.8051971E-1,6.7955554E-3,1.5649452E-3,6.666667E-1,6.2876366E-2,4.6948357E-3,3.6515389E-3,8.4275E-3,7.7849895E-2,2E1,2.1181877E-1,6.93542E-2,3.3385497E-2,2.5666668E-4,1.8569534E-1,1.38E2,2.8219444E-3,6.87507E2,2E1,2.9198056E-1,1.7222722E-1,3.8490018E-1,1.24E2,5.219444E-4,1.5061639E-1,1.8257418E-1,6.091449E-2,2.1938172E-1,1.7222223E-5,2.5666668E-4,6E1,2.18E2,1.329189E-1,5E0,3.1622776E-1,3.5355338E-1,6.091449E-2,1.74E2,1.3786002E-2,9E0,9.8E1,2.5666668E-4,1.1371935E-1,2.6886666E-2,4.432995E2,1.1371935E-1,1.8979916E-1,8.3985396E-2,-4.7892656E-2,-4.9368657E-2,-4.216183E-2,-4.012542E-2,-4.203022E-2,-2.0551935E-2,-4.548913E-2,-3.986449E-2,-3.9091803E-2,-3.0003155E-2,-3.1370778E-2,6.850148E-3,4.086813E-2,-1.5889626E-2,1.2081958E-1,7.614434E-2,-2.0377913E-2,-3.7890282E-3,-4.584152E-2,-2.4857515E-2,-5.6782407E-3,-1.935639E-2,9.27783E-4,2.909117E-2,1.04480915E-1,5.9796465E-3,1.02629006E-1,4.939738E-2,1.009736E-1,7.0704386E-2,6.281796E-2,3.4081038E-2,1.4013076E-2,3.4662586E-2,-5.543913E-3,2.2561235E-2,3.284925E-2,6.488766E-2,6.7238145E-2,9.578111E-2,3.269444E-2,1.8527763E-2,5.040384E-2,9.359165E-2,4.4014093E-2,6.1643165E-2,2.0088313E-2,5.614109E-2,5.7801265E-2,-2.5534086E-4,7.434477E-2,6.151687E-2,8.8252716E-2,1.03496544E-1,6.1171155E-2,7.492437E-2,2.7429014E-2,-1.8883094E-2,4.6218246E-2,7.333107E-2,4.1469615E-2,6.266492E-2,6.9141775E-2,9.210733E-2],"split_indices":[2,2,2,2,0,2,0,3,0,2,0,0,2,2,3,4,4,2,0,0,2,2,4,0,3,0,0,2,4,0,3,4,4,3,4,4,0,3,4,4,0,0,0,4,4,3,3,4,3,0,0,0,3,0,3,3,4,2,4,4,2,4,2,0,0,0,0,0,0,0,0,0,0,0,0,0,0,0,0,0,0,0,0,0,0,0,0,0,0,0,0,0,0,0,0,0,0,0,0,0,0,0,0,0,0,0,0,0,0,0,0,0,0,0,0,0,0,0,0,0,0,0,0,0,0,0,0],"split_type":[0,0,0,0,0,0,0,0,0,0,0,0,0,0,0,0,0,0,0,0,0,0,0,0,0,0,0,0,0,0,0,0,0,0,0,0,0,0,0,0,0,0,0,0,0,0,0,0,0,0,0,0,0,0,0,0,0,0,0,0,0,0,0,0,0,0,0,0,0,0,0,0,0,0,0,0,0,0,0,0,0,0,0,0,0,0,0,0,0,0,0,0,0,0,0,0,0,0,0,0,0,0,0,0,0,0,0,0,0,0,0,0,0,0,0,0,0,0,0,0,0,0,0,0,0,0,0],"sum_hessian":[1.3607322E6,8.168822E5,5.4385006E5,5.1543138E5,3.014508E5,2.695087E5,2.7434138E5,2.8630688E5,2.2912452E5,2.940169E5,7.4339155E3,1.110927E5,1.58416E5,1.8548602E5,8.885536E4,2.4708666E5,3.9220203E4,2.2784388E5,1.2806388E3,1.5745027E5,1.3656664E5,4.1547944E3,3.279121E3,1.0423177E5,6.860934E3,9.574344E4,6.2672555E4,1.067427E5,7.8743305E4,5.8458984E4,3.0396371E4,2.3433419E5,1.2752467E4,6.3799146E3,3.284029E4,1.3838406E5,8.9459805E4,4.167846E2,8.638542E2,1.379995E5,1.9450771E4,6.5599305E4,7.0967336E4,2.0516282E3,2.1031663E3,9.5668304E2,2.3224382E3,8.657196E4,1.7659812E4,4.720175E3,2.1407588E3,9.093117E4,4.812265E3,4.4108453E4,1.8564104E4,6.258835E4,4.415435E4,5.6572957E4,2.2170346E4,4.941045E4,9.048537E3,2.147579E4,8.920583E3,2.1854328E5,1.5790907E4,1.0648203E4,2.1042634E3,4.626885E3,1.75303E3,2.1142523E4,1.1697765E4,1.24256625E5,1.4127439E4,8.873103E4,7.28778E2,3.2443878E2,9.234581E1,1.0993039E2,7.5392377E2,1.2421866E5,1.3780844E4,1.2288759E4,7.162012E3,5.527194E4,1.0327366E4,6.811297E4,2.854363E3,8.7677444E1,1.9639508E3,1.2530415E2,1.977862E3,6.6990875E2,2.8677432E2,1.6990027E3,6.234355E2,7.693091E4,9.64105E3,1.0934117E4,6.7256953E3,3.514947E3,1.2052279E3,1.6600195E3,4.8073932E2,6.929585E4,2.163532E4,4.0247385E3,7.875265E2,4.0147164E4,3.9612898E3,1.3037147E4,5.5269575E3,6.204164E4,5.4671094E2,3.1429838E4,1.2724514E4,3.489126E4,2.1681695E4,6.922517E3,1.5247829E4,4.747208E4,1.9383691E3,7.6253926E3,1.4231443E3,1.4065472E4,7.4103164E3,6.806127E3,2.114456E3],"tree_param":{"num_deleted":"0","num_feature":"5","num_nodes":"127","size_leaf_vector":"1"}},{"base_weights":[-5.6248484E-3,-6.0337275E-1,8.366579E-1,-8.2144415E-1,-2.0182098E-1,4.723962E-1,1.164548E0,-8.9956903E-1,-6.1280805E-1,-3.5218954E-1,-4.0024985E-2,2.9815885E-1,6.3164943E-1,1.3439783E0,7.6574105E-1,-9.522706E-1,-7.9428434E-1,-6.199648E-1,8.235331E-1,-3.6103523E-1,9.0289205E-1,-5.9602033E-2,9.777807E-1,2.7169815E-1,1.3295839E0,6.017916E-1,1.2560679E0,1.1518604E0,1.6442491E0,6.4434624E-1,1.020557E0,-9.5906633E-1,-8.744388E-1,-7.9643565E-1,6.9887775E-1,-6.0558254E-1,-8.955918E-1,3.5194516E-1,1.373049E0,-3.2813057E-1,-6.4485437E-1,4.5236248E-1,1.1642485E0,1.5047453E-2,-4.1246372E-1,6.8819463E-1,1.4320585E0,3.6082587E-1,-4.1824896E-2,2.2873309E0,1.227212E0,7.04249E-1,3.223206E-1,1.4634274E0,8.515151E-1,1.0402862E0,1.3064932E0,1.7637118E0,1.3856847E0,6.7446154E-1,-2.060017E-1,1.4963937E0,9.434421E-1,-4.7788855E-2,-4.9010884E-2,-4.4962715E-2,-4.2547163E-2,-4.03577E-2,-3.390405E-2,6.000185E-2,1.670621E-2,-3.115674E-2,-2.0059943E-2,-4.997202E-2,-2.1170352E-2,2.065904E-2,-5.2178353E-2,7.642068E-2,1.7703263E-2,-1.9878656E-2,-1.135702E-2,-3.951647E-2,-6.5171854E-3,1.5228042E-2,9.043044E-2,7.77061E-2,3.446631E-2,-1.1129723E-3,1.6162781E-2,-2.983288E-2,-2.339995E-3,6.6417575E-2,2.589035E-2,1.1423524E-1,6.4403996E-2,1.5445493E-2,3.5056014E-2,-1.1035166E-2,1.9112227E-2,1.1792969E-1,7.1966484E-2,4.9220473E-2,7.868978E-2,2.8195033E-2,4.079936E-2,9.8452516E-2,1.4625757E-2,6.1381467E-2,8.796432E-2,7.391446E-2,3.899355E-2,5.3130515E-2,3.8304843E-2,6.716471E-2,4.700036E-2,8.348342E-2,9.905227E-2,5.949821E-2,7.375729E-2,2.6650075E-2,4.4711437E-2,-2.6998267E-2,1.0555453E-3,6.0977187E-2,9.080894E-2,3.4455832E-2,5.3294063E-2],"categories":[],"categories_nodes":[],"categories_segments":[],"categories_sizes":[],"default_left":[0,0,0,0,0,0,0,0,0,0,0,0,0,0,0,0,0,0,0,0,0,0,0,0,0,0,0,0,0,0,0,0,0,0,0,0,0,0,0,0,0,0,0,0,0,0,0,0,0,0,0,0,0,0,0,0,0,0,0,0,0,0,0,0,0,0,0,0,0,0,0,0,0,0,0,0,0,0,0,0,0,0,0,0,0,0,0,0,0,0,0,0,0,0,0,0,0,0,0,0,0,0,0,0,0,0,0,0,0,0,0,0,0,0,0,0,0,0,0,0,0,0,0,0,0,0,0],"id":8,"left_children":[1,3,5,7,9,11,13,15,17,19,21,23,25,27,29,31,33,35,37,39,41,43,45,47,49,51,53,55,57,59,61,63,65,67,69,71,73,75,77,79,81,83,85,87,89,91,93,95,97,99,101,103,105,107,109,111,113,115,117,119,121,123,125,-1,-1,-1,-1,-1,-1,-1,-1,-1,-1,-1,-1,-1,-1,-1,-1,-1,-1,-1,-1,-1,-1,-1,-1,-1,-1,-1,-1,-1,-1,-1,-1,-1,-1,-1,-1,-1,-1,-1,-1,-1,-1,-1,-1,-1,-1,-1,-1,-1,-1,-1,-1,-1,-1,-1,-1,-1,-1,-1,-1,-1,-1,-1,-1],"loss_changes":[6.8123856E5,6.930247E4,6.708228E4,8.359344E3,6.7765176E3,7.382742E3,2.1150406E4,2.0697812E3,1.4368984E3,1.6030938E3,2.6735068E3,3.4674053E3,2.590957E3,1.17583125E4,2.8366602E3,1.306875E2,4.0042188E2,5.506328E2,1.791596E2,1.3385938E3,1.1847571E2,3.467535E3,3.321162E2,3.4617686E3,3.0877344E2,3.7986484E3,5.308457E2,2.1435781E3,2.4544219E3,1.5911777E3,1.0845664E3,1.4984375E1,1.08828125E1,1.5714844E2,3.2434914E1,4.7382422E2,3.3759473E2,3.2425854E1,5.0089172E1,9.0083984E2,1.1145718E3,7.415414E1,1.1723999E2,1.2493536E3,1.5481675E3,1.6818921E2,1.1795569E2,1.7039473E3,2.0802947E3,1.5080322E1,2.4023145E2,1.5219609E3,1.7463599E3,2.9029297E2,9.5474E1,4.412578E2,7.014531E2,1.1085625E3,4.384453E2,1.8649531E3,1.6125021E2,3.6304395E2,7.9241016E2,0E0,0E0,0E0,0E0,0E0,0E0,0E0,0E0,0E0,0E0,0E0,0E0,0E0,0E0,0E0,0E0,0E0,0E0,0E0,0E0,0E0,0E0,0E0,0E0,0E0,0E0,0E0,0E0,0E0,0E0,0E0,0E0,0E0,0E0,0E0,0E0,0E0,0E0,0E0,0E0,0E0,0E0,0E0,0E0,0E0,0E0,0E0,0E0,0E0,0E0,0E0,0E0,0E0,0E0,0E0,0E0,0E0,0E0,0E0,0E0,0E0,0E0,0E0,0E0],"parents":[2147483647,0,0,1,1,2,2,3,3,4,4,5,5,6,6,7,7,8,8,9,9,10,10,11,11,12,12,13,13,14,14,15,15,16,16,17,17,18,18,19,19,20,20,21,21,22,22,23,23,24,24,25,25,26,26,27,27,28,28,29,29,30,30,31,31,32,32,33,33,34,34,35,35,36,36,37,37,38,38,39,39,40,40,41,41,42,42,43,43,44,44,45,45,46,46,47,47,48,48,49,49,50,50,51,51,52,52,53,53,54,54,55,55,56,56,57,57,58,58,59,59,60,60,61,61,62,62],"right_children":[2,4,6,8,10,12,14,16,18,20,22,24,26,28,30,32,34,36,38,40,42,44,46,48,50,52,54,56,58,60,62,64,66,68,70,72,74,76,78,80,82,84,86,88,90,92,94,96,98,100,102,104,106,108,110,112,114,116,118,120,122,124,126,-1,-1,-1,-1,-1,-1,-1,-1,-1,-1,-1,-1,-1,-1,-1,-1,-1,-1,-1,-1,-1,-1,-1,-1,-1,-1,-1,-1,-1,-1,-1,-1,-1,-1,-1,-1,-1,-1,-1,-1,-1,-1,-1,-1,-1,-1,-1,-1,-1,-1,-1,-1,-1,-1,-1,-1,-1,-1,-1,-1,-1,-1,-1,-1],"split_conditions":[6.037736E-3,1.8867925E-3,2.0377358E-2,1.1320754E-3,3.3962263E-3,1.0566038E-2,7.343709E-2,7.54717E-4,5E-1,5E-1,3.6380345E-1,3.1622776E-1,2.3570226E-1,6E-2,1.5430336E-1,3.324175E-1,6.666667E-1,4.9507376E-2,6.666667E-1,6.482037E-2,5.669467E-1,6.2876366E-2,5E-1,7.018624E-2,2.5666668E-4,6.195782E-2,1.2519562E-2,3.5471696E-2,2.5666668E-4,3.6718195E2,1.8257694E-2,6.990833E-3,5.1193405E1,4.366725E-1,1.5728611E-2,4.064014E-1,2.981424E-1,1.9110939E2,6.667994E-1,2.6415095E-3,2.6726124E-1,3.6515389E-3,2.608242E-3,1.0561805E-1,1.9050018E-1,6.990833E-3,9.602778E-4,6.14375E-2,1.8181819E-1,6.259781E-3,4.0089187E-1,1.4084507E-2,2.5666668E-4,3.086067E-1,2.8219444E-3,5.21286E-2,5.21286E-2,1.3875848E-1,2.7484167E-2,8.57425E-2,3.773585E-2,8.3060555E-2,3.773585E-2,-4.7788855E-2,-4.9010884E-2,-4.4962715E-2,-4.2547163E-2,-4.03577E-2,-3.390405E-2,6.000185E-2,1.670621E-2,-3.115674E-2,-2.0059943E-2,-4.997202E-2,-2.1170352E-2,2.065904E-2,-5.2178353E-2,7.642068E-2,1.7703263E-2,-1.9878656E-2,-1.135702E-2,-3.951647E-2,-6.5171854E-3,1.5228042E-2,9.043044E-2,7.77061E-2,3.446631E-2,-1.1129723E-3,1.6162781E-2,-2.983288E-2,-2.339995E-3,6.6417575E-2,2.589035E-2,1.1423524E-1,6.4403996E-2,1.5445493E-2,3.5056014E-2,-1.1035166E-2,1.9112227E-2,1.1792969E-1,7.1966484E-2,4.9220473E-2,7.868978E-2,2.8195033E-2,4.079936E-2,9.8452516E-2,1.4625757E-2,6.1381467E-2,8.796432E-2,7.391446E-2,3.899355E-2,5.3130515E-2,3.8304843E-2,6.716471E-2,4.700036E-2,8.348342E-2,9.905227E-2,5.949821E-2,7.375729E-2,2.6650075E-2,4.4711437E-2,-2.6998267E-2,1.0555453E-3,6.0977187E-2,9.080894E-2,3.4455832E-2,5.3294063E-2],"split_indices":[1,1,1,1,1,1,0,1,0,0,0,0,0,1,0,4,0,0,0,0,0,0,0,0,4,0,2,1,4,4,2,4,4,4,4,4,0,4,4,1,0,2,2,4,0,4,4,4,0,2,0,2,4,0,4,0,0,2,4,4,1,4,1,0,0,0,0,0,0,0,0,0,0,0,0,0,0,0,0,0,0,0,0,0,0,0,0,0,0,0,0,0,0,0,0,0,0,0,0,0,0,0,0,0,0,0,0,0,0,0,0,0,0,0,0,0,0,0,0,0,0,0,0,0,0,0,0],"split_type":[0,0,0,0,0,0,0,0,0,0,0,0,0,0,0,0,0,0,0,0,0,0,0,0,0,0,0,0,0,0,0,0,0,0,0,0,0,0,0,0,0,0,0,0,0,0,0,0,0,0,0,0,0,0,0,0,0,0,0,0,0,0,0,0,0,0,0,0,0,0,0,0,0,0,0,0,0,0,0,0,0,0,0,0,0,0,0,0,0,0,0,0,0,0,0,0,0,0,0,0,0,0,0,0,0,0,0,0,0,0,0,0,0,0,0,0,0,0,0,0,0,0,0,0,0,0,0],"sum_hessian":[1.3530774E6,7.9142344E5,5.6165394E5,5.128876E5,2.7853588E5,2.6607106E5,2.9558288E5,3.7315462E5,1.3973297E5,1.4436553E5,1.3417034E5,1.2705949E5,1.3901158E5,2.038602E5,9.172267E4,2.4867105E5,1.2448357E5,1.3904075E5,6.9221344E2,1.4335588E5,1.0096455E3,1.3163925E5,2.5310823E3,1.2388261E5,3.1768853E3,1.3266967E5,6.341904E3,1.24321914E5,7.95383E4,6.212821E4,2.959446E4,2.2869212E5,1.997893E4,1.24304945E5,1.7862775E2,1.3214845E5,6.8923022E3,3.7340347E2,3.1880994E2,1.2846447E5,1.4891414E4,3.7167618E2,6.379693E2,1.0865397E5,2.2985281E4,1.5472683E3,9.8381396E2,9.646077E4,2.7421832E4,3.0471964E2,2.8721658E3,9.707816E4,3.5591523E4,4.1910835E3,2.1508206E3,7.221992E4,5.2101992E4,5.439893E4,2.5139365E4,6.000338E4,2.1248333E3,4.1246973E3,2.5469764E4,1.979545E5,3.0737625E4,9.698411E3,1.028052E4,1.13977195E5,1.0327746E4,7.42798E1,1.04347946E2,1.2169533E5,1.0453114E4,5.648827E3,1.2434753E3,3.5838147E2,1.5021997E1,2.7619806E2,4.2611897E1,7.612006E4,5.2344402E4,1.1608607E4,3.2828062E3,3.3625607E2,3.5420113E1,3.4910742E2,2.888619E2,9.6922914E4,1.1731058E4,1.5285146E4,7.7001357E3,3.238284E2,1.2234398E3,1.399799E2,8.4383405E2,8.369413E4,1.276664E4,1.928685E4,8.134983E3,2.79454E2,2.526562E1,1.6912117E3,1.1809541E3,4.3032883E4,5.4045273E4,6.315897E2,3.4959934E4,2.335138E3,1.8559453E3,2.1861835E2,1.9322021E3,6.677992E4,5.4400044E3,4.734512E4,4.7568706E3,3.79752E4,1.642373E4,7.890678E3,1.7248686E4,3.6507562E4,2.3495818E4,8.59533E2,1.2653003E3,2.2133398E3,1.9113572E3,8.279196E3,1.7190566E4],"tree_param":{"num_deleted":"0","num_feature":"5","num_nodes":"127","size_leaf_vector":"1"}},{"base_weights":[-4.5315926E-3,-5.85038E-1,7.8331935E-1,-8.040815E-1,-1.9096285E-1,4.4538617E-1,1.0857106E0,-9.3760276E-1,-6.797826E-1,-3.139538E-1,-2.153273E-3,3.0533567E-1,6.2567353E-1,1.2561417E0,7.2485197E-1,-9.42314E-1,-8.273561E-1,-7.755817E-1,-5.9508026E-1,-3.2554445E-1,5.782246E-1,-2.1542486E-2,9.844869E-1,2.750256E-1,1.063435E0,5.9575474E-1,1.1205138E0,1.0666969E0,1.5301065E0,5.632249E-1,1.1560467E0,-4.7134355E-2,-4.5451973E-2,-8.22646E-1,-5.380688E-2,-7.7777195E-1,6.2620693E-1,-6.01942E-1,7.577611E-1,-2.8801724E-1,-6.462931E-1,2.9966113E-1,1.0790279E0,5.3941477E-2,-3.6399493E-1,6.8486327E-1,1.3258486E0,3.6474472E-1,-5.4906875E-2,8.5456073E-1,1.5251702E0,6.960367E-1,3.1317568E-1,1.3128603E0,6.600507E-1,9.559336E-1,1.192969E0,1.6410028E0,1.2874417E0,5.0017786E-1,1.0712862E0,1.5840366E0,1.0568444E0,-4.1626375E-2,-1.9937394E-2,-3.8599294E-2,-4.9811475E-2,1.9650824E-2,5.63347E-2,-2.9387627E-2,-4.384413E-2,1.605438E-2,6.307413E-2,-1.9064939E-2,-9.598742E-3,-3.796625E-2,-1.11349495E-2,2.4540147E-2,-3.9955443E-3,8.11453E-2,1.3312784E-2,-3.299714E-4,6.8088844E-3,-2.6572052E-2,6.24857E-4,2.0584501E-2,4.105261E-2,7.6168805E-2,4.366787E-2,1.27065405E-2,2.385647E-2,-2.9910995E-2,2.0325375E-3,1.1601303E-3,4.6278935E-2,6.8831526E-2,9.951819E-2,3.349219E-2,5.759079E-2,4.895236E-3,3.310172E-2,5.448979E-2,7.9448275E-2,2.054769E-2,4.083667E-2,4.8191004E-2,6.0341945E-3,6.2994495E-2,5.224299E-2,7.629295E-2,9.1093E-2,6.0679175E-2,7.148791E-2,1.8662997E-2,3.49394E-2,5.2102488E-2,1.18965365E-1,6.842943E-2,9.5166914E-2,3.0883437E-2,6.1948437E-2],"categories":[],"categories_nodes":[],"categories_segments":[],"categories_sizes":[],"default_left":[0,0,0,0,0,0,0,0,0,0,0,0,0,0,0,0,0,0,0,0,0,0,0,0,0,0,0,0,0,0,0,0,0,0,0,0,0,0,0,0,0,0,0,0,0,0,0,0,0,0,0,0,0,0,0,0,0,0,0,0,0,0,0,0,0,0,0,0,0,0,0,0,0,0,0,0,0,0,0,0,0,0,0,0,0,0,0,0,0,0,0,0,0,0,0,0,0,0,0,0,0,0,0,0,0,0,0,0,0,0,0,0,0,0,0,0,0,0,0,0,0],"id":9,"left_children":[1,3,5,7,9,11,13,15,17,19,21,23,25,27,29,31,33,35,37,39,41,43,45,47,49,51,53,55,57,59,61,-1,-1,63,-1,65,67,69,71,73,75,77,79,81,83,85,87,89,91,93,95,97,99,101,103,105,107,109,111,113,115,117,119,-1,-1,-1,-1,-1,-1,-1,-1,-1,-1,-1,-1,-1,-1,-1,-1,-1,-1,-1,-1,-1,-1,-1,-1,-1,-1,-1,-1,-1,-1,-1,-1,-1,-1,-1,-1,-1,-1,-1,-1,-1,-1,-1,-1,-1,-1,-1,-1,-1,-1,-1,-1,-1,-1,-1,-1,-1,-1],"loss_changes":[6.150294E5,6.683406E4,5.8297344E4,8.258625E3,6.423537E3,6.8023984E3,1.8516E4,1.238125E2,2.0908594E3,1.732334E3,2.0873767E3,3.4838809E3,1.743168E3,1.06119375E4,6.730629E3,2E0,1.0645508E1,3.718047E2,1.2702656E3,1.9901719E3,2.9941302E2,2.7662256E3,2.1418286E2,4.315958E3,5.60875E2,3.1473398E3,5.9381836E2,1.6897969E3,2.2475312E3,2.2498281E3,1.1163203E3,0E0,0E0,4.0141113E1,0E0,1.5185938E2,2.1641129E1,5.304531E2,1.5153546E2,1.3261953E3,8.2906934E2,1.0030638E2,3.3886755E2,4.365529E2,1.2184568E3,4.1404602E1,8.64353E1,1.4248896E3,1.618435E3,2.3707275E2,1.22626465E2,9.7791797E2,2.1849502E3,2.8989502E2,7.6956604E1,4.2417188E2,5.5860156E2,1.1919688E3,2.7392578E2,1.5751943E3,2.9407715E2,3.381211E2,1.7093125E3,0E0,0E0,0E0,0E0,0E0,0E0,0E0,0E0,0E0,0E0,0E0,0E0,0E0,0E0,0E0,0E0,0E0,0E0,0E0,0E0,0E0,0E0,0E0,0E0,0E0,0E0,0E0,0E0,0E0,0E0,0E0,0E0,0E0,0E0,0E0,0E0,0E0,0E0,0E0,0E0,0E0,0E0,0E0,0E0,0E0,0E0,0E0,0E0,0E0,0E0,0E0,0E0,0E0,0E0,0E0,0E0,0E0,0E0],"parents":[2147483647,0,0,1,1,2,2,3,3,4,4,5,5,6,6,7,7,8,8,9,9,10,10,11,11,12,12,13,13,14,14,15,15,16,16,17,17,18,18,19,19,20,20,21,21,22,22,23,23,24,24,25,25,26,26,27,27,28,28,29,29,30,30,33,33,35,35,36,36,37,37,38,38,39,39,40,40,41,41,42,42,43,43,44,44,45,45,46,46,47,47,48,48,49,49,50,50,51,51,52,52,53,53,54,54,55,55,56,56,57,57,58,58,59,59,60,60,61,61,62,62],"right_children":[2,4,6,8,10,12,14,16,18,20,22,24,26,28,30,32,34,36,38,40,42,44,46,48,50,52,54,56,58,60,62,-1,-1,64,-1,66,68,70,72,74,76,78,80,82,84,86,88,90,92,94,96,98,100,102,104,106,108,110,112,114,116,118,120,-1,-1,-1,-1,-1,-1,-1,-1,-1,-1,-1,-1,-1,-1,-1,-1,-1,-1,-1,-1,-1,-1,-1,-1,-1,-1,-1,-1,-1,-1,-1,-1,-1,-1,-1,-1,-1,-1,-1,-1,-1,-1,-1,-1,-1,-1,-1,-1,-1,-1,-1,-1,-1,-1,-1,-1,-1,-1],"split_conditions":[6.037736E-3,1.8867925E-3,2.0377358E-2,7.54717E-4,3.773585E-3,1.1698113E-2,6.93542E-2,1.2E1,1.1320754E-3,4.0089187E-1,3.6380345E-1,2.6726124E-1,2.1628623E-1,5.7358492E-2,1E1,8E0,1.382E3,6.666667E-1,5E-1,6.579517E-2,5.669467E-1,6.091449E-2,4.6291006E-1,7.018624E-2,3.8490018E-1,6.195782E-2,1.4084507E-2,3.3207547E-2,1E0,2.1628623E-1,2.0865936E-2,-4.7134355E-2,-4.5451973E-2,1.047E3,-5.380688E-2,5.981486E-2,4.8E1,4.9507376E-2,6.666667E-1,2.6415095E-3,2.5E-1,4.3E1,1.24E2,4.90566E-3,2E-1,4.528302E-3,1.38E2,8.868023E-3,4.6948357E-3,3.1298904E-3,5.669467E-1,1.3786002E-2,5E0,1.2E1,1.5849056E-2,1.1E2,1E0,1.1371935E-1,1.2490566E-1,3E0,3.8867924E-1,2.6792454E-2,3.773585E-2,-4.1626375E-2,-1.9937394E-2,-3.8599294E-2,-4.9811475E-2,1.9650824E-2,5.63347E-2,-2.9387627E-2,-4.384413E-2,1.605438E-2,6.307413E-2,-1.9064939E-2,-9.598742E-3,-3.796625E-2,-1.11349495E-2,2.4540147E-2,-3.9955443E-3,8.11453E-2,1.3312784E-2,-3.299714E-4,6.8088844E-3,-2.6572052E-2,6.24857E-4,2.0584501E-2,4.105261E-2,7.6168805E-2,4.366787E-2,1.27065405E-2,2.385647E-2,-2.9910995E-2,2.0325375E-3,1.1601303E-3,4.6278935E-2,6.8831526E-2,9.951819E-2,3.349219E-2,5.759079E-2,4.895236E-3,3.310172E-2,5.448979E-2,7.9448275E-2,2.054769E-2,4.083667E-2,4.8191004E-2,6.0341945E-3,6.2994495E-2,5.224299E-2,7.629295E-2,9.1093E-2,6.0679175E-2,7.148791E-2,1.8662997E-2,3.49394E-2,5.2102488E-2,1.18965365E-1,6.842943E-2,9.5166914E-2,3.0883437E-2,6.1948437E-2],"split_indices":[1,1,1,1,1,1,0,3,1,0,0,0,0,1,3,3,3,0,0,0,0,0,0,0,0,0,2,1,3,0,2,0,0,3,0,0,3,0,0,1,0,3,3,1,0,1,3,2,2,2,0,0,3,3,1,3,3,2,1,3,1,1,1,0,0,0,0,0,0,0,0,0,0,0,0,0,0,0,0,0,0,0,0,0,0,0,0,0,0,0,0,0,0,0,0,0,0,0,0,0,0,0,0,0,0,0,0,0,0,0,0,0,0,0,0,0,0,0,0,0,0],"split_type":[0,0,0,0,0,0,0,0,0,0,0,0,0,0,0,0,0,0,0,0,0,0,0,0,0,0,0,0,0,0,0,0,0,0,0,0,0,0,0,0,0,0,0,0,0,0,0,0,0,0,0,0,0,0,0,0,0,0,0,0,0,0,0,0,0,0,0,0,0,0,0,0,0,0,0,0,0,0,0,0,0,0,0,0,0,0,0,0,0,0,0,0,0,0,0,0,0,0,0,0,0,0,0,0,0,0,0,0,0,0,0,0,0,0,0,0,0,0,0,0,0],"sum_hessian":[1.344758E6,7.7426344E5,5.7049456E5,4.976485E5,2.7661494E5,2.694155E5,3.010791E5,2.3992048E5,2.5772802E5,1.675027E5,1.0911224E5,1.5162956E5,1.1778593E5,2.0449498E5,9.658409E4,2.3008064E5,9.839852E3,1.2093795E5,1.3679006E5,1.6535514E5,2.1475632E3,1.0701027E5,2.1019617E3,1.4580153E5,5.828027E3,1.1107252E5,6.713405E3,1.2089906E5,8.359593E4,7.025306E4,2.6331031E4,2.2750277E5,2.5778792E3,9.661246E3,1.7860556E2,1.2074973E5,1.8822252E2,1.3610031E5,6.897588E2,1.480369E5,1.7318236E4,1.3810023E3,7.66561E2,8.768372E4,1.9326555E4,1.121017E3,9.8094476E2,1.14629914E5,3.117162E4,4.0147388E3,1.8132878E3,8.197845E4,2.909407E4,4.7340337E3,1.9793715E3,6.4409168E4,5.6489895E4,5.7371684E4,2.6224248E4,6.2499293E4,7.7537686E3,4.9519214E3,2.137911E4,9.440222E3,2.2102414E2,1.17638484E5,3.11124E3,1.2961613E2,5.8606388E1,1.2942397E5,6.676339E3,3.7034555E2,3.1941327E2,7.509636E4,7.2940555E4,1.3669794E4,3.6484424E3,9.182862E2,4.627162E2,4.5865125E2,3.0790973E2,5.0504258E4,3.717946E4,1.3376778E4,5.949778E3,3.7428464E2,7.4673236E2,6.81208E2,2.9973676E2,5.7771727E4,5.6858188E4,4.661637E3,2.6509982E4,3.1606854E2,3.6986704E3,1.377425E3,4.3586282E2,7.752563E4,4.4528184E3,1.7992613E4,1.1101458E4,2.6212666E3,2.1127668E3,7.6568866E2,1.2136827E3,6.3806547E4,6.026182E2,3.8904145E4,1.7585748E4,3.5059953E4,2.2311732E4,1.7270738E4,8.95351E3,3.8133625E4,2.436567E4,7.5860054E3,1.6776297E2,2.9599736E3,1.9919478E3,6.2682393E3,1.5110871E4],"tree_param":{"num_deleted":"0","num_feature":"5","num_nodes":"121","size_leaf_vector":"1"}},{"base_weights":[-4.8958273E-3,-5.954894E-1,6.997419E-1,-8.244954E-1,-2.6913348E-1,3.638867E-1,9.999683E-1,-9.232194E-1,-7.073969E-1,-4.0377674E-1,-9.521701E-2,2.0562531E-1,5.222254E-1,1.2309424E0,7.8637666E-1,-9.3060845E-1,-8.3907247E-1,-7.5873744E-1,-6.2985593E-1,-4.6926114E-1,-3.0806914E-1,-1.6295126E-1,-7.554681E-3,-6.743341E-2,2.381745E-1,6.020876E-1,4.312564E-1,9.861954E-1,1.4990609E0,6.255792E-1,9.4526803E-1,-9.356501E-1,-7.8163755E-1,-8.3275396E-1,-9.548051E-1,-7.695798E-1,-6.3983476E-1,-6.4239365E-1,-5.143501E-1,-4.834928E-1,-3.274925E-1,-3.0132562E-1,-6.051817E-1,1.3086961E-1,-1.7125115E-1,6.9951974E-2,-1.6845343E-1,-2.9485694E-1,4.702881E-1,1.7985305E-1,3.4259018E-1,4.0602964E-1,7.498664E-1,6.35504E-1,3.3393157E-1,9.624685E-1,1.9313111E0,1.3723365E0,1.6762102E0,5.0346404E-1,7.567767E-1,7.971914E-1,1.153976E0,-4.6437856E-2,-4.8876114E-2,-2.7316853E-2,-4.4513736E-2,-4.249833E-2,-4.0258925E-2,-5.0994467E-2,-4.536388E-2,-3.807917E-2,-4.0582303E-2,-2.3367386E-2,-3.3582263E-2,-3.1580668E-2,-3.4815487E-2,-1.8210177E-3,-2.7078277E-2,-2.603278E-2,-2.181287E-2,5.8003105E-3,-1.8899115E-2,-1.7440617E-2,-1.3089262E-2,-2.1162238E-2,-3.482481E-2,-1.9344129E-2,9.244891E-2,-1.1390938E-2,-6.7203715E-3,8.3008263E-4,7.987809E-3,-1.5725678E-2,-5.468246E-3,-1.886051E-2,5.546706E-4,1.2563694E-1,1.6569562E-2,1.1590456E-2,4.574373E-3,1.992819E-2,1.2978527E-2,1.72165E-2,1.11592375E-1,3.439652E-2,4.608127E-2,1.56403E-2,4.6711218E-2,9.498446E-3,2.0618381E-2,3.6273472E-2,5.355081E-2,1.0894425E-1,8.452218E-2,6.506818E-2,7.270672E-2,7.978223E-2,9.126751E-2,2.4676848E-2,4.276338E-2,3.512853E-2,4.5215186E-2,3.375179E-2,5.0138235E-2,5.4159433E-2,7.888357E-2],"categories":[],"categories_nodes":[],"categories_segments":[],"categories_sizes":[],"default_left":[0,0,0,0,0,0,0,0,0,0,0,0,0,0,0,0,0,0,0,0,0,0,0,0,0,0,0,0,0,0,0,0,0,0,0,0,0,0,0,0,0,0,0,0,0,0,0,0,0,0,0,0,0,0,0,0,0,0,0,0,0,0,0,0,0,0,0,0,0,0,0,0,0,0,0,0,0,0,0,0,0,0,0,0,0,0,0,0,0,0,0,0,0,0,0,0,0,0,0,0,0,0,0,0,0,0,0,0,0,0,0,0,0,0,0,0,0,0,0,0,0,0,0,0,0,0,0],"id":10,"left_children":[1,3,5,7,9,11,13,15,17,19,21,23,25,27,29,31,33,35,37,39,41,43,45,47,49,51,53,55,57,59,61,63,65,67,69,71,73,75,77,79,81,83,85,87,89,91,93,95,97,99,101,103,105,107,109,111,113,115,117,119,121,123,125,-1,-1,-1,-1,-1,-1,-1,-1,-1,-1,-1,-1,-1,-1,-1,-1,-1,-1,-1,-1,-1,-1,-1,-1,-1,-1,-1,-1,-1,-1,-1,-1,-1,-1,-1,-1,-1,-1,-1,-1,-1,-1,-1,-1,-1,-1,-1,-1,-1,-1,-1,-1,-1,-1,-1,-1,-1,-1,-1,-1,-1,-1,-1,-1],"loss_changes":[5.558549E5,5.430778E4,6.1411062E4,4.9357812E3,7.0165137E3,7.2034805E3,1.58638125E4,1.4325E2,7.771406E2,1.0583359E3,7.7637E2,1.2778193E3,1.0436992E3,1.0137016E4,4.2681562E3,1.5923438E2,1.2888672E1,1.5100781E2,1.1236328E2,2.021543E2,1.3729199E2,1.7989856E2,7.107581E2,1.872795E3,7.822036E2,2.2166504E3,1.3352344E3,1.8094531E3,1.6528438E3,1.3300859E3,2.5961719E3,5.8546875E1,1.7788086E2,7.741211E0,2.0501099E0,3.5609375E1,5.3602783E1,4.0359375E1,9.915576E1,1.5973438E2,2.0495532E2,1.25885254E2,2.498706E1,1.8037516E3,1.4947437E2,1.842871E2,1.5987988E2,2.711703E2,1.2904988E3,3.7839478E2,2.1381885E2,3.7042407E3,4.6350195E2,2.0895664E3,5.137251E2,2.0263438E3,1.1421924E2,2.4765625E2,3.6646094E2,1.4979883E2,3.1948828E2,1.2338613E3,1.0442812E3,0E0,0E0,0E0,0E0,0E0,0E0,0E0,0E0,0E0,0E0,0E0,0E0,0E0,0E0,0E0,0E0,0E0,0E0,0E0,0E0,0E0,0E0,0E0,0E0,0E0,0E0,0E0,0E0,0E0,0E0,0E0,0E0,0E0,0E0,0E0,0E0,0E0,0E0,0E0,0E0,0E0,0E0,0E0,0E0,0E0,0E0,0E0,0E0,0E0,0E0,0E0,0E0,0E0,0E0,0E0,0E0,0E0,0E0,0E0,0E0,0E0,0E0,0E0,0E0],"parents":[2147483647,0,0,1,1,2,2,3,3,4,4,5,5,6,6,7,7,8,8,9,9,10,10,11,11,12,12,13,13,14,14,15,15,16,16,17,17,18,18,19,19,20,20,21,21,22,22,23,23,24,24,25,25,26,26,27,27,28,28,29,29,30,30,31,31,32,32,33,33,34,34,35,35,36,36,37,37,38,38,39,39,40,40,41,41,42,42,43,43,44,44,45,45,46,46,47,47,48,48,49,49,50,50,51,51,52,52,53,53,54,54,55,55,56,56,57,57,58,58,59,59,60,60,61,61,62,62],"right_children":[2,4,6,8,10,12,14,16,18,20,22,24,26,28,30,32,34,36,38,40,42,44,46,48,50,52,54,56,58,60,62,64,66,68,70,72,74,76,78,80,82,84,86,88,90,92,94,96,98,100,102,104,106,108,110,112,114,116,118,120,122,124,126,-1,-1,-1,-1,-1,-1,-1,-1,-1,-1,-1,-1,-1,-1,-1,-1,-1,-1,-1,-1,-1,-1,-1,-1,-1,-1,-1,-1,-1,-1,-1,-1,-1,-1,-1,-1,-1,-1,-1,-1,-1,-1,-1,-1,-1,-1,-1,-1,-1,-1,-1,-1,-1,-1,-1,-1,-1,-1,-1,-1,-1,-1,-1,-1],"split_conditions":[5.283019E-3,1.509434E-3,1.8867925E-2,7.54717E-4,3.018868E-3,9.81132E-3,2.5666668E-4,3.324175E-1,1.1320754E-3,2.264151E-3,4.6948357E-3,4.173187E-3,2.5666668E-4,4.277517E-2,5.993889E-2,1.3E1,6.8E1,4.366725E-1,2.2096889E-1,4.366725E-1,1.74E2,1.5649452E-3,1E0,5E0,7.924528E-3,1.304121E-2,1.0954617E-2,1E0,9.024517E-2,4.5660377E-2,4E0,1.1588889E-3,9.979445E-3,1.4973233E2,8.094556E-1,5.6436113E-3,1.0432968E-3,4.7322223E-3,1.0432968E-3,1.8867925E-3,1.5649452E-3,3.1298904E-3,2.2287779E-2,3E0,3.6515389E-3,5.7381326E-3,4.1509434E-3,8.861889E-2,2.5666668E-4,2.1363888E-3,2.1363888E-3,1E0,1.8257694E-2,5.993889E-2,1.3207547E-2,2.295253E-2,2.1387585E-2,6.0511217E-2,1.8570684E-1,4.35E2,1.2490566E-1,6.264151E-2,1.2490566E-1,-4.6437856E-2,-4.8876114E-2,-2.7316853E-2,-4.4513736E-2,-4.249833E-2,-4.0258925E-2,-5.0994467E-2,-4.536388E-2,-3.807917E-2,-4.0582303E-2,-2.3367386E-2,-3.3582263E-2,-3.1580668E-2,-3.4815487E-2,-1.8210177E-3,-2.7078277E-2,-2.603278E-2,-2.181287E-2,5.8003105E-3,-1.8899115E-2,-1.7440617E-2,-1.3089262E-2,-2.1162238E-2,-3.482481E-2,-1.9344129E-2,9.244891E-2,-1.1390938E-2,-6.7203715E-3,8.3008263E-4,7.987809E-3,-1.5725678E-2,-5.468246E-3,-1.886051E-2,5.546706E-4,1.2563694E-1,1.6569562E-2,1.1590456E-2,4.574373E-3,1.992819E-2,1.2978527E-2,1.72165E-2,1.11592375E-1,3.439652E-2,4.608127E-2,1.56403E-2,4.6711218E-2,9.498446E-3,2.0618381E-2,3.6273472E-2,5.355081E-2,1.0894425E-1,8.452218E-2,6.506818E-2,7.270672E-2,7.978223E-2,9.126751E-2,2.4676848E-2,4.276338E-2,3.512853E-2,4.5215186E-2,3.375179E-2,5.0138235E-2,5.4159433E-2,7.888357E-2],"split_indices":[1,1,1,1,1,1,4,4,1,1,2,2,4,2,4,3,3,4,4,4,3,2,3,3,1,2,2,3,2,1,3,4,4,4,4,4,2,4,2,1,2,2,4,3,2,2,1,4,4,4,4,3,2,4,1,2,2,2,2,3,1,1,1,0,0,0,0,0,0,0,0,0,0,0,0,0,0,0,0,0,0,0,0,0,0,0,0,0,0,0,0,0,0,0,0,0,0,0,0,0,0,0,0,0,0,0,0,0,0,0,0,0,0,0,0,0,0,0,0,0,0,0,0,0,0,0,0],"split_type":[0,0,0,0,0,0,0,0,0,0,0,0,0,0,0,0,0,0,0,0,0,0,0,0,0,0,0,0,0,0,0,0,0,0,0,0,0,0,0,0,0,0,0,0,0,0,0,0,0,0,0,0,0,0,0,0,0,0,0,0,0,0,0,0,0,0,0,0,0,0,0,0,0,0,0,0,0,0,0,0,0,0,0,0,0,0,0,0,0,0,0,0,0,0,0,0,0,0,0,0,0,0,0,0,0,0,0,0,0,0,0,0,0,0,0,0,0,0,0,0,0,0,0,0,0,0,0],"sum_hessian":[1.3356916E6,7.2664925E5,6.0904244E5,4.2701122E5,2.9963803E5,2.8746516E5,3.2157728E5,2.3167905E5,1.9533219E5,1.688871E5,1.3075093E5,1.437688E5,1.4369634E5,1.5449952E5,1.6707777E5,2.1296797E5,1.8711086E4,1.1751552E5,7.7816664E4,1.0027422E5,6.8612875E4,7.375874E4,5.699219E4,1.5312176E4,1.2845662E5,7.651644E4,6.717991E4,8.07725E4,7.3727016E4,8.304323E4,8.403453E4,2.0599123E5,6.976734E3,1.77502E4,9.608863E2,1.0769009E5,9.825433E3,7.019292E4,7.62374E3,9.112418E4,9.150045E3,6.70921E4,1.5207684E3,2.0258981E3,7.173284E4,3.8464156E4,1.8528033E4,1.0761266E4,4.55091E3,8.242231E4,4.6034305E4,3.2887887E4,4.3628555E4,2.1678828E4,4.550108E4,7.879636E4,1.976142E3,4.2985773E4,3.0741244E4,4.301285E4,4.0030375E4,4.916042E4,3.4874113E4,1.7689405E5,2.9097182E4,2.2055967E3,4.771137E3,1.0910189E4,6.8400093E3,3.9690488E2,5.639814E2,9.050488E4,1.7185207E4,1.5323275E3,8.293105E3,5.850736E4,1.1685561E4,4.1086563E2,7.2128745E3,5.0994152E4,4.0130023E4,9.350788E2,8.214966E3,3.047944E4,3.6612664E4,5.100898E2,1.01067865E3,1.5573618E3,4.6853632E2,2.8291139E4,4.3441707E4,2.4130215E4,1.4333942E4,5.3353438E3,1.3192688E4,8.478782E3,2.2824834E3,2.8869006E2,4.26222E3,5.1903273E4,3.051904E4,2.749368E4,1.8540625E4,3.1813986E4,1.073898E3,3.2069389E4,1.1559167E4,1.0422156E4,1.1256673E4,1.6048624E4,2.9452455E4,2.4754963E4,5.4041395E4,9.7053723E2,1.00560474E3,2.3024848E4,1.9960926E4,1.996683E4,1.0774414E4,4.1834773E4,1.1780793E3,2.9278355E4,1.0752019E4,3.0839365E4,1.8321057E4,2.9884781E4,4.9893296E3],"tree_param":{"num_deleted":"0","num_feature":"5","num_nodes":"127","size_leaf_vector":"1"}},{"base_weights":[-6.1614844E-3,-5.794428E-1,6.5572137E-1,-8.087046E-1,-2.597398E-1,3.2388446E-1,9.187853E-1,-9.096743E-1,-6.8994963E-1,-4.1926786E-1,-1.2581725E-1,1.9252388E-1,4.723269E-1,1.0624051E0,5.975467E-1,-9.1677576E-1,-8.2044446E-1,-6.945534E-1,4.6559006E-1,-4.2754093E-1,9.2718625E-1,-1.4105266E-1,6.542421E-1,1.6677722E-1,9.39961E-1,4.4894686E-1,1.0881039E0,8.6727154E-1,1.314713E0,4.737576E-1,8.4633905E-1,-9.137562E-1,-9.351216E-1,-8.4419096E-1,-7.8520644E-1,-7.451523E-1,-6.1830115E-1,-1.8529044E-3,9.410837E-1,-4.0700024E-1,-6.890988E-1,6.5154785E-1,1.3799309E0,-8.536997E-2,-4.7813734E-1,9.516905E-1,3.7838757E-1,2.5160167E-1,-1.6734251E-1,1.9565586E0,8.5841304E-1,5.319064E-1,2.0953386E-1,1.8033557E0,9.960372E-1,7.817876E-1,9.919905E-1,1.4143925E0,1.1035465E0,5.062505E-1,-2.0473614E-1,1.1939324E0,7.549692E-1,-4.57888E-2,-4.3491583E-2,-4.7150668E-2,-4.373495E-2,-4.2488765E-2,-4.144753E-2,-4.024112E-2,-3.8718328E-2,-3.6916196E-2,-5.110025E-2,-3.0218398E-2,-4.6286203E-2,2.6139004E-2,-8.752107E-3,5.6138333E-2,-3.8445666E-3,-2.1337656E-2,-9.125214E-3,-4.2242944E-2,-9.424331E-3,4.677438E-2,6.337131E-3,8.626172E-2,5.7924934E-2,-8.564398E-3,5.631751E-4,-3.0307269E-2,-4.3190476E-3,3.417553E-2,6.558226E-2,8.349413E-3,4.024845E-2,1.0456937E-2,2.9640554E-2,-3.4850005E-2,-2.1200874E-3,1.01374045E-1,5.1803317E-2,3.501253E-2,6.2069904E-2,2.4619212E-2,3.9045136E-2,2.9553242E-3,2.756134E-2,9.2754036E-2,4.4646055E-2,5.1503118E-2,-4.7924593E-2,3.720228E-2,4.53885E-2,5.0898332E-2,3.5968516E-2,6.415448E-2,7.92896E-2,4.602281E-2,5.9098464E-2,9.240597E-2,2.4491834E-2,2.5402464E-3,-3.0488444E-2,5.5945832E-2,9.6392006E-2,2.6796153E-2,4.3584432E-2],"categories":[],"categories_nodes":[],"categories_segments":[],"categories_sizes":[],"default_left":[0,0,0,0,0,0,0,0,0,0,0,0,0,0,0,0,0,0,0,0,0,0,0,0,0,0,0,0,0,0,0,0,0,0,0,0,0,0,0,0,0,0,0,0,0,0,0,0,0,0,0,0,0,0,0,0,0,0,0,0,0,0,0,0,0,0,0,0,0,0,0,0,0,0,0,0,0,0,0,0,0,0,0,0,0,0,0,0,0,0,0,0,0,0,0,0,0,0,0,0,0,0,0,0,0,0,0,0,0,0,0,0,0,0,0,0,0,0,0,0,0,0,0,0,0,0,0],"id":11,"left_children":[1,3,5,7,9,11,13,15,17,19,21,23,25,27,29,31,33,35,37,39,41,43,45,47,49,51,53,55,57,59,61,63,65,67,69,71,73,75,77,79,81,83,85,87,89,91,93,95,97,99,101,103,105,107,109,111,113,115,117,119,121,123,125,-1,-1,-1,-1,-1,-1,-1,-1,-1,-1,-1,-1,-1,-1,-1,-1,-1,-1,-1,-1,-1,-1,-1,-1,-1,-1,-1,-1,-1,-1,-1,-1,-1,-1,-1,-1,-1,-1,-1,-1,-1,-1,-1,-1,-1,-1,-1,-1,-1,-1,-1,-1,-1,-1,-1,-1,-1,-1,-1,-1,-1,-1,-1,-1],"loss_changes":[5.0344575E5,5.211189E4,5.3756375E4,4.9642188E3,6.3436133E3,5.3098438E3,1.58471875E4,1.410625E2,1.01253906E3,1.5098652E3,1.9184839E3,2.7800186E3,1.8400508E3,1.16855625E4,3.2680977E3,1.0640625E1,1.31484375E1,7.307656E2,1.6795824E2,7.2330664E2,1.0241016E2,2.971738E3,2.5338525E2,3.9582231E3,3.9712305E2,2.4462031E3,3.06104E2,1.4263281E3,2.1774062E3,1.5625078E3,1.1189219E3,1.4984375E1,1.3125E1,1.3378906E-1,7.9296875E-1,2.1460547E2,3.2327734E2,3.4804985E1,6.9368774E1,5.5368555E2,7.644087E2,7.6840515E1,2.1886292E1,1.1281768E3,1.1255659E3,1.4268018E2,1.447056E2,1.6136807E3,1.8712814E3,2.1169556E1,2.6899414E2,8.997715E2,1.629234E3,2.3395996E1,2.7662598E2,3.7697656E2,3.8473438E2,1.5805156E3,4.7560938E2,1.4886836E3,3.3533032E2,4.0180566E2,7.134336E2,0E0,0E0,0E0,0E0,0E0,0E0,0E0,0E0,0E0,0E0,0E0,0E0,0E0,0E0,0E0,0E0,0E0,0E0,0E0,0E0,0E0,0E0,0E0,0E0,0E0,0E0,0E0,0E0,0E0,0E0,0E0,0E0,0E0,0E0,0E0,0E0,0E0,0E0,0E0,0E0,0E0,0E0,0E0,0E0,0E0,0E0,0E0,0E0,0E0,0E0,0E0,0E0,0E0,0E0,0E0,0E0,0E0,0E0,0E0,0E0,0E0,0E0,0E0,0E0],"parents":[2147483647,0,0,1,1,2,2,3,3,4,4,5,5,6,6,7,7,8,8,9,9,10,10,11,11,12,12,13,13,14,14,15,15,16,16,17,17,18,18,19,19,20,20,21,21,22,22,23,23,24,24,25,25,26,26,27,27,28,28,29,29,30,30,31,31,32,32,33,33,34,34,35,35,36,36,37,37,38,38,39,39,40,40,41,41,42,42,43,43,44,44,45,45,46,46,47,47,48,48,49,49,50,50,51,51,52,52,53,53,54,54,55,55,56,56,57,57,58,58,59,59,60,60,61,61,62,62],"right_children":[2,4,6,8,10,12,14,16,18,20,22,24,26,28,30,32,34,36,38,40,42,44,46,48,50,52,54,56,58,60,62,64,66,68,70,72,74,76,78,80,82,84,86,88,90,92,94,96,98,100,102,104,106,108,110,112,114,116,118,120,122,124,126,-1,-1,-1,-1,-1,-1,-1,-1,-1,-1,-1,-1,-1,-1,-1,-1,-1,-1,-1,-1,-1,-1,-1,-1,-1,-1,-1,-1,-1,-1,-1,-1,-1,-1,-1,-1,-1,-1,-1,-1,-1,-1,-1,-1,-1,-1,-1,-1,-1,-1,-1,-1,-1,-1,-1,-1,-1,-1,-1,-1,-1,-1,-1,-1],"split_conditions":[5.283019E-3,1.509434E-3,1.7358491E-2,7.54717E-4,2.6415095E-3,9.81132E-3,7.343709E-2,6.0902196E-1,5E-1,5E-1,3.6380345E-1,2.8867513E-1,2.581989E-1,4.754717E-2,1.5430336E-1,6.990833E-3,1.4973233E2,1.1320754E-3,6.666667E-1,6.482037E-2,6.666667E-1,6.2876366E-2,3.1253334E-2,7.422696E-2,2.5666668E-4,6.670374E-2,1.5841667E-3,3.018868E-2,2.5666668E-4,2.669611E2,1.8257694E-2,1.7222223E-5,1.9965333E-1,5.1193405E1,3.3841452E2,6.482037E-2,7.500586E-2,1.1178333E-2,6.0902196E-1,4.366725E-1,2.6726124E-1,7.320944E-2,1.5090833E-2,3.773585E-3,2.236068E-1,5E-1,4.1509434E-3,1.329189E-1,4.173187E-3,6.259781E-3,4.1391867E-1,6.5006666E-2,1.6064386E-1,1.4084507E-2,3.6718195E2,2.7125718E-2,5.21286E-2,9.024517E-2,2.4728056E-2,1.7222223E-5,6.87507E2,3.2075472E-2,3.773585E-2,-4.57888E-2,-4.3491583E-2,-4.7150668E-2,-4.373495E-2,-4.2488765E-2,-4.144753E-2,-4.024112E-2,-3.8718328E-2,-3.6916196E-2,-5.110025E-2,-3.0218398E-2,-4.6286203E-2,2.6139004E-2,-8.752107E-3,5.6138333E-2,-3.8445666E-3,-2.1337656E-2,-9.125214E-3,-4.2242944E-2,-9.424331E-3,4.677438E-2,6.337131E-3,8.626172E-2,5.7924934E-2,-8.564398E-3,5.631751E-4,-3.0307269E-2,-4.3190476E-3,3.417553E-2,6.558226E-2,8.349413E-3,4.024845E-2,1.0456937E-2,2.9640554E-2,-3.4850005E-2,-2.1200874E-3,1.01374045E-1,5.1803317E-2,3.501253E-2,6.2069904E-2,2.4619212E-2,3.9045136E-2,2.9553242E-3,2.756134E-2,9.2754036E-2,4.4646055E-2,5.1503118E-2,-4.7924593E-2,3.720228E-2,4.53885E-2,5.0898332E-2,3.5968516E-2,6.415448E-2,7.92896E-2,4.602281E-2,5.9098464E-2,9.240597E-2,2.4491834E-2,2.5402464E-3,-3.0488444E-2,5.5945832E-2,9.6392006E-2,2.6796153E-2,4.3584432E-2],"split_indices":[1,1,1,1,1,1,0,4,0,0,0,0,0,1,0,4,4,1,0,0,0,0,4,0,4,0,4,1,4,4,2,4,4,4,4,0,0,4,4,4,0,4,4,1,0,0,1,4,2,2,0,4,0,2,4,2,0,2,4,4,4,1,1,0,0,0,0,0,0,0,0,0,0,0,0,0,0,0,0,0,0,0,0,0,0,0,0,0,0,0,0,0,0,0,0,0,0,0,0,0,0,0,0,0,0,0,0,0,0,0,0,0,0,0,0,0,0,0,0,0,0,0,0,0,0,0,0],"split_type":[0,0,0,0,0,0,0,0,0,0,0,0,0,0,0,0,0,0,0,0,0,0,0,0,0,0,0,0,0,0,0,0,0,0,0,0,0,0,0,0,0,0,0,0,0,0,0,0,0,0,0,0,0,0,0,0,0,0,0,0,0,0,0,0,0,0,0,0,0,0,0,0,0,0,0,0,0,0,0,0,0,0,0,0,0,0,0,0,0,0,0,0,0,0,0,0,0,0,0,0,0,0,0,0,0,0,0,0,0,0,0,0,0,0,0,0,0,0,0,0,0,0,0,0,0,0,0],"sum_hessian":[1.3267928E6,7.109836E5,6.158092E5,4.1405772E5,2.969259E5,2.7231053E5,3.4349866E5,2.2378294E5,1.9027478E5,1.355076E5,1.6141831E5,1.444687E5,1.2784183E5,2.3737181E5,1.06126836E5,2.0727723E5,1.650569E4,1.8952012E5,7.5465485E2,1.3468075E5,8.268395E2,1.5832683E5,3.0914763E3,1.3965916E5,4.809558E3,1.231671E5,4.6747227E3,1.3385417E5,1.0351765E5,7.086845E4,3.5258387E4,1.7802661E5,2.925063E4,9.846974E3,6.6587163E3,1.1391822E5,7.560191E4,3.810513E2,3.7360355E2,1.2487649E5,9.804253E3,5.1545874E2,3.1138074E2,1.3588189E5,2.2444941E4,1.4863379E3,1.6051385E3,1.1138229E5,2.8276863E4,3.5544907E2,4.454109E3,9.14703E4,3.169681E4,5.309862E2,4.1437363E3,7.9423516E4,5.443065E4,7.031861E4,3.3199035E4,6.762992E4,3.238529E3,7.3364946E3,2.792189E4,1.7018155E5,7.845072E3,2.5858652E4,3.3919773E3,7.166319E3,2.6806545E3,2.34392E3,4.3147964E3,1.111797E5,2.738519E3,7.232684E4,3.275058E3,9.4070366E1,2.8698096E2,3.1693558E2,5.6667973E1,1.1477665E5,1.0099844E4,7.4771353E3,2.3271177E3,3.3398013E2,1.814786E2,1.1900771E2,1.9237303E2,7.192856E4,6.395333E4,1.691677E4,5.528172E3,8.5341223E2,6.3292566E2,1.0741952E3,5.309433E2,9.905649E4,1.2325798E4,5.396226E3,2.2880637E4,3.289049E2,2.6544165E1,3.1542979E3,1.2998109E3,7.894298E4,1.252732E4,2.2008799E4,9.688011E3,5.01459E2,2.9527206E1,4.0733E3,7.0436584E1,6.1120035E4,1.830348E4,4.9693016E4,4.7376304E3,3.98214E4,3.0497215E4,9.959584E3,2.3239453E4,8.1591016E2,6.6814016E4,1.9862496E3,1.2522794E3,6.6584336E3,6.780613E2,9.7082E3,1.8213691E4],"tree_param":{"num_deleted":"0","num_feature":"5","num_nodes":"127","size_leaf_vector":"1"}},{"base_weights":[-6.585912E-3,-5.7705474E-1,6.001998E-1,-7.92143E-1,-2.659283E-1,2.8945485E-1,8.609847E-1,-8.954709E-1,-6.717614E-1,-4.0392557E-1,-1.3776597E-1,1.2889272E-1,4.0669894E-1,1.0033902E0,5.7763255E-1,-9.004743E-1,-7.793237E-1,-6.756462E-1,5.576234E-1,-4.1321376E-1,6.912586E-1,-1.497709E-1,6.412894E-1,1.045548E-1,9.3109816E-1,3.7921345E-1,9.298546E-1,8.05278E-1,1.2284197E0,4.2052278E-1,9.313567E-1,-4.5042735E-2,-4.33358E-2,-7.746762E-1,-5.144326E-2,-7.274455E-1,-5.980318E-1,6.799617E-2,8.167614E-1,-3.9195073E-1,-6.9543767E-1,3.122313E-1,1.0650383E0,-9.939945E-2,-4.600607E-1,8.680564E-1,1.5594713E-1,1.806977E-1,-2.0951183E-1,7.1850336E-1,1.2833111E0,4.5796564E-1,1.199657E-1,7.725629E-1,1.301833E0,7.210909E-1,9.0486115E-1,1.317361E0,1.0227042E0,3.6696166E-1,8.6396873E-1,8.065624E-1,1.2239134E0,-3.916045E-2,-2.0984462E-2,-3.6049273E-2,-4.9143147E-2,-2.924104E-2,-4.4224106E-2,-6.4509967E-3,1.2720175E-2,2.9019598E-2,5.79328E-2,-2.1649832E-2,-1.3790335E-2,-4.2471886E-2,-1.3689734E-2,2.6983676E-2,-8.280355E-5,3.889702E-2,6.445448E-2,-8.176847E-3,-4.0902957E-4,-2.883528E-2,-1.679921E-4,2.823839E-2,8.023936E-2,4.368729E-3,9.125081E-2,6.4174593E-3,1.4199816E-2,-3.685822E-2,-4.752029E-3,1.9054953E-2,3.966764E-2,6.0023483E-2,9.045633E-2,1.7007148E-2,2.7247516E-2,-4.574201E-3,1.8971454E-2,3.3236537E-2,6.10115E-2,7.177074E-2,4.6418436E-2,3.3904854E-2,5.655059E-2,4.958431E-2,3.403451E-2,5.89419E-2,7.471796E-2,4.8687335E-2,5.7984617E-2,1.4273415E-2,3.090739E-2,4.2039447E-2,1.0283448E-1,5.7382345E-2,3.6429748E-2,5.9245367E-2,1.0122434E-1],"categories":[],"categories_nodes":[],"categories_segments":[],"categories_sizes":[],"default_left":[0,0,0,0,0,0,0,0,0,0,0,0,0,0,0,0,0,0,0,0,0,0,0,0,0,0,0,0,0,0,0,0,0,0,0,0,0,0,0,0,0,0,0,0,0,0,0,0,0,0,0,0,0,0,0,0,0,0,0,0,0,0,0,0,0,0,0,0,0,0,0,0,0,0,0,0,0,0,0,0,0,0,0,0,0,0,0,0,0,0,0,0,0,0,0,0,0,0,0,0,0,0,0,0,0,0,0,0,0,0,0,0,0,0,0,0,0,0,0,0,0],"id":12,"left_children":[1,3,5,7,9,11,13,15,17,19,21,23,25,27,29,31,33,35,37,39,41,43,45,47,49,51,53,55,57,59,61,-1,-1,63,-1,65,67,69,71,73,75,77,79,81,83,85,87,89,91,93,95,97,99,101,103,105,107,109,111,113,115,117,119,-1,-1,-1,-1,-1,-1,-1,-1,-1,-1,-1,-1,-1,-1,-1,-1,-1,-1,-1,-1,-1,-1,-1,-1,-1,-1,-1,-1,-1,-1,-1,-1,-1,-1,-1,-1,-1,-1,-1,-1,-1,-1,-1,-1,-1,-1,-1,-1,-1,-1,-1,-1,-1,-1,-1,-1,-1,-1],"loss_changes":[4.5609372E5,4.5446797E4,5.174075E4,4.994047E3,4.909461E3,5.484334E3,1.4007109E4,1.24859375E2,8.8615625E2,1.3599805E3,1.3461699E3,2.4004878E3,2.420834E3,1.0298719E4,6.4525E3,1.875E0,9.560059E0,7.428594E2,7.414108E1,7.951133E2,1.589732E2,2.2153633E3,2.4027692E2,2.8538364E3,2.7016504E2,3.2661133E3,4.9071338E2,1.0294219E3,1.97775E3,1.9094102E3,1.3027949E3,0E0,0E0,2.6240234E1,0E0,1.822461E2,2.7954688E2,7.5054307E0,3.0222504E1,5.874883E2,6.0267334E2,3.9960495E1,3.538794E1,7.1346094E2,1.0545762E3,3.3170044E2,7.959352E1,5.193579E2,1.4064849E3,5.6770874E1,5.7131104E1,1.257375E3,2.0450933E3,2.844336E2,1.23194336E2,1.1727422E3,1.0948008E3,1.8496953E3,2.178711E2,1.4683691E3,2.3781104E2,6.649492E2,3.309873E2,0E0,0E0,0E0,0E0,0E0,0E0,0E0,0E0,0E0,0E0,0E0,0E0,0E0,0E0,0E0,0E0,0E0,0E0,0E0,0E0,0E0,0E0,0E0,0E0,0E0,0E0,0E0,0E0,0E0,0E0,0E0,0E0,0E0,0E0,0E0,0E0,0E0,0E0,0E0,0E0,0E0,0E0,0E0,0E0,0E0,0E0,0E0,0E0,0E0,0E0,0E0,0E0,0E0,0E0,0E0,0E0,0E0,0E0],"parents":[2147483647,0,0,1,1,2,2,3,3,4,4,5,5,6,6,7,7,8,8,9,9,10,10,11,11,12,12,13,13,14,14,15,15,16,16,17,17,18,18,19,19,20,20,21,21,22,22,23,23,24,24,25,25,26,26,27,27,28,28,29,29,30,30,33,33,35,35,36,36,37,37,38,38,39,39,40,40,41,41,42,42,43,43,44,44,45,45,46,46,47,47,48,48,49,49,50,50,51,51,52,52,53,53,54,54,55,55,56,56,57,57,58,58,59,59,60,60,61,61,62,62],"right_children":[2,4,6,8,10,12,14,16,