{"learner":{"attributes":{"best_iteration":"299","best_score":"0.8751014257631986","scikit_learn":"{\"_estimator_type\": \"classifier\"}"},"feature_names":[],"feature_types":[],"gradient_booster":{"model":{"cats":{"enc":[],"feature_segments":[],"sorted_idx":[]},"gbtree_model_param":{"num_parallel_tree":"1","num_trees":"300"},"iteration_indptr":[0,1,2,3,4,5,6,7,8,9,10,11,12,13,14,15,16,17,18,19,20,21,22,23,24,25,26,27,28,29,30,31,32,33,34,35,36,37,38,39,40,41,42,43,44,45,46,47,48,49,50,51,52,53,54,55,56,57,58,59,60,61,62,63,64,65,66,67,68,69,70,71,72,73,74,75,76,77,78,79,80,81,82,83,84,85,86,87,88,89,90,91,92,93,94,95,96,97,98,99,100,101,102,103,104,105,106,107,108,109,110,111,112,113,114,115,116,117,118,119,120,121,122,123,124,125,126,127,128,129,130,131,132,133,134,135,136,137,138,139,140,141,142,143,144,145,146,147,148,149,150,151,152,153,154,155,156,157,158,159,160,161,162,163,164,165,166,167,168,169,170,171,172,173,174,175,176,177,178,179,180,181,182,183,184,185,186,187,188,189,190,191,192,193,194,195,196,197,198,199,200,201,202,203,204,205,206,207,208,209,210,211,212,213,214,215,216,217,218,219,220,221,222,223,224,225,226,227,228,229,230,231,232,233,234,235,236,237,238,239,240,241,242,243,244,245,246,247,248,249,250,251,252,253,254,255,256,257,258,259,260,261,262,263,264,265,266,267,268,269,270,271,272,273,274,275,276,277,278,279,280,281,282,283,284,285,286,287,288,289,290,291,292,293,294,295,296,297,298,299,300],"tree_info":[0,0,0,0,0,0,0,0,0,0,0,0,0,0,0,0,0,0,0,0,0,0,0,0,0,0,0,0,0,0,0,0,0,0,0,0,0,0,0,0,0,0,0,0,0,0,0,0,0,0,0,0,0,0,0,0,0,0,0,0,0,0,0,0,0,0,0,0,0,0,0,0,0,0,0,0,0,0,0,0,0,0,0,0,0,0,0,0,0,0,0,0,0,0,0,0,0,0,0,0,0,0,0,0,0,0,0,0,0,0,0,0,0,0,0,0,0,0,0,0,0,0,0,0,0,0,0,0,0,0,0,0,0,0,0,0,0,0,0,0,0,0,0,0,0,0,0,0,0,0,0,0,0,0,0,0,0,0,0,0,0,0,0,0,0,0,0,0,0,0,0,0,0,0,0,0,0,0,0,0,0,0,0,0,0,0,0,0,0,0,0,0,0,0,0,0,0,0,0,0,0,0,0,0,0,0,0,0,0,0,0,0,0,0,0,0,0,0,0,0,0,0,0,0,0,0,0,0,0,0,0,0,0,0,0,0,0,0,0,0,0,0,0,0,0,0,0,0,0,0,0,0,0,0,0,0,0,0,0,0,0,0,0,0,0,0,0,0,0,0,0,0,0,0,0,0,0,0,0,0,0,0,0,0,0,0,0,0,0,0,0,0,0,0,0,0,0,0,0,0],"trees":[{"base_weights":[1.2881661E-4,-6.8370116E-1,1.8609464E0,-9.77741E-1,-6.362108E-2,-3.784628E-1,2.3908217E0,-1.096342E0,-7.1414113E-1,-8.96633E-1,5.9783345E-1,-4.293839E-1,1.3713174E0,1.8325704E0,3.083102E0,-6.1540734E-2,-9.7956514E-1,-1.0480373E0,-2.6755452E-1,-7.8016466E-1,-1.0854331E0,2.8338894E-1,9.368691E-1,-4.491685E-1,1.6416934E0,2.558329E0,-5.5329794E-1,1.520901E0,2.1347966E0,3.6656692E0,2.5160534E0,-1.1264358E0,-7.0514226E-1,-9.9904513E-1,-1.1423888E0,-3.595458E-1,1.5711208E-1,-8.646091E-1,-6.90989E-1,-1.1007609E0,-3.105265E-1,1.3169697E-1,5.712207E-1,8.498227E-1,1.2702023E0,-2.949421E-1,-7.223771E-1,1.1027236E0,2.401619E0,2.6995444E0,-6.020164E-2,-9.203953E-1,-1.5803108E-1,1.3723532E0,1.6683413E0,2.3433325E0,1.9130954E0,3.2595534E0,4.2482567E0,2.2475178E0,2.794667E0,-1.1103399E0,-1.1668857E0,-7.702859E-1,-5.1885223E-1,-1.0252446E0,-9.5436776E-1,-1.1560396E0,-7.3520786E-1,-4.6056128E-1,-2.137145E-1,2.1419678E0,1.19774684E-1,-8.8853985E-1,-7.9142296E-1,-7.2977334E-1,-6.1924326E-1,-1.1612762E0,-1.0115061E0,-7.3730314E-1,4.7498703E-1,-8.135752E-2,2.3899654E-1,3.0669851E0,5.2765673E-1,6.9769335E-1,1.0063136E0,3.5742333E0,1.2014588E0,-4.018065E-1,1.679402E-1,-9.503945E-1,-5.754692E-1,6.8864167E-1,1.8754419E0,1.5458369E0,2.8459013E0,2.3994632E0,3.1882024E0,-9.677669E-1,3.0483048E0,-1.638124E-2,-1.1816163E0,1.3059158E0,1.6806357E0,1.6294502E0,1.8989064E0,2.1399765E0,2.584671E0,1.7045245E0,2.1629593E0,3.0588233E0,3.535999E0,3.9998455E0,4.717927E0,2.088247E0,2.523506E0,2.647354E0,3.3374748E0,-5.554555E-2,-4.3860357E-2,-5.9414227E-2,-5.6373566E-2,-4.0736288E-2,-3.829397E-2,-2.885494E-2,-1.7038647E-2,-5.1270165E-2,3.0281996E-2,-4.780686E-2,-3.1297833E-3,-5.9448846E-2,-5.4069966E-2,6.6420245E-3,-3.7572455E-2,-2.449394E-2,-3.5062549E-3,-1.2206705E-2,1.4678656E-2,5.5092026E-2,1.4905654E-1,-2.1020943E-2,1.0032183E-2,-4.5315664E-2,-4.319903E-2,-3.951196E-2,-5.9585657E-2,-3.651973E-2,1.19126044E-1,-3.0986339E-2,4.5089822E-2,-5.8692355E-2,-4.427538E-2,-5.2881777E-2,-4.446711E-2,-4.163382E-2,-4.5644115E-3,9.815219E-3,9.2306815E-2,4.525453E-3,-4.150338E-3,6.0689626E-3,1.5777998E-2,1.730955E-1,1.0882094E-1,1.9195197E-2,3.8117368E-2,3.2947984E-2,5.347089E-2,4.827669E-2,6.4420246E-2,1.9351326E-1,1.330394E-1,5.224858E-2,6.888254E-2,-2.8085096E-2,-1.44424755E-2,3.9899647E-3,4.51858E-2,-4.8519503E-2,-3.640825E-3,-4.0411364E-2,-2.034252E-2,4.2905402E-4,3.855854E-2,1.0147597E-1,2.7319098E-2,1.9232987E-1,6.049492E-2,1.0810608E-1,1.6367626E-1,1.4584076E-1,9.9004224E-2,1.7870684E-1,1.1654717E-1,-4.916218E-2,2.9823378E-2,1.6628254E-2,1.8532875E-1,-3.2261044E-3,9.597867E-2,-6.0150933E-2,-7.5666136E-3,6.787893E-2,5.8991034E-2,7.7580065E-2,9.5977984E-2,8.5549034E-2,7.436677E-2,2.0054531E-1,9.071357E-2,1.05641305E-1,1.7079967E-1,1.2813528E-1,1.7358395E-1,9.0404116E-2,7.864978E-2,9.8044485E-2,1.2275546E-1,1.5197192E-1,2.0597105E-1,1.9130956E-1,1.7502232E-1,1.9445091E-1,2.0691855E-1,2.240132E-1,2.4494532E-1,1.1014751E-1,9.850362E-2,1.2209103E-1,1.5345076E-1,1.2820242E-1,1.7515181E-1,1.546662E-1,1.9231799E-1],"categories":[],"categories_nodes":[],"categories_segments":[],"categories_sizes":[],"default_left":[0,0,0,0,0,0,0,0,0,0,0,0,0,0,0,0,0,0,0,0,0,0,0,0,0,0,0,0,0,0,0,0,0,0,0,0,0,0,0,0,0,0,0,0,0,0,0,0,0,0,0,0,0,0,0,0,0,0,0,0,0,0,0,0,0,0,0,0,0,0,0,0,0,0,0,0,0,0,0,0,0,0,0,0,0,0,0,0,0,0,0,0,0,0,0,0,0,0,0,0,0,0,0,0,0,0,0,0,0,0,0,0,0,0,0,0,0,0,0,0,0,0,0,0,0,0,0,0,0,0,0,0,0,0,0,0,0,0,0,0,0,0,0,0,0,0,0,0,0,0,0,0,0,0,0,0,0,0,0,0,0,0,0,0,0,0,0,0,0,0,0,0,0,0,0,0,0,0,0,0,0,0,0,0,0,0,0,0,0,0,0,0,0,0,0,0,0,0,0,0,0,0,0,0,0,0,0,0,0,0,0,0,0,0,0,0,0,0,0,0,0,0,0,0,0,0,0,0,0,0,0,0,0,0,0],"id":0,"left_children":[1,3,5,7,9,11,13,15,17,19,21,23,25,27,29,-1,31,33,35,37,39,41,43,45,47,49,51,53,55,57,59,61,63,65,67,69,71,73,75,77,79,81,83,85,87,89,91,93,95,97,-1,99,101,103,105,107,109,111,113,115,117,119,121,123,125,127,129,131,133,135,137,139,141,143,145,147,149,151,153,155,157,159,161,163,165,167,169,171,173,175,177,179,181,183,185,187,189,191,193,195,197,199,201,203,205,207,209,211,213,215,217,219,221,223,225,227,229,231,233,-1,-1,-1,-1,-1,-1,-1,-1,-1,-1,-1,-1,-1,-1,-1,-1,-1,-1,-1,-1,-1,-1,-1,-1,-1,-1,-1,-1,-1,-1,-1,-1,-1,-1,-1,-1,-1,-1,-1,-1,-1,-1,-1,-1,-1,-1,-1,-1,-1,-1,-1,-1,-1,-1,-1,-1,-1,-1,-1,-1,-1,-1,-1,-1,-1,-1,-1,-1,-1,-1,-1,-1,-1,-1,-1,-1,-1,-1,-1,-1,-1,-1,-1,-1,-1,-1,-1,-1,-1,-1,-1,-1,-1,-1,-1,-1,-1,-1,-1,-1,-1,-1,-1,-1,-1,-1,-1,-1,-1,-1,-1,-1,-1,-1,-1,-1],"loss_changes":[1.7695071E6,1.8540881E5,4.4343388E5,2.15645E4,1.8023266E5,6.371676E3,1.16782375E5,7.4695E3,3.1918062E4,3.1826562E3,1.9437074E4,2.8478389E3,4.621379E3,1.57550625E4,4.4554875E4,0E0,1.0261984E4,5.650156E2,3.577497E3,6.736992E2,6.557031E2,4.130098E3,2.5444922E3,2.8998516E3,2.6672717E2,6.679121E2,1.11912125E2,1.801625E3,3.9221562E3,1.5728875E4,5.108625E3,1.0671875E2,1.0768984E3,9.3390625E1,2.3179297E2,1.1087266E3,1.2081492E3,7.983984E1,1.2074805E2,2.913672E2,3.5997247E2,1.4162085E3,3.5479385E3,1.6555078E3,2.8726914E3,2.1762703E3,8.3130176E2,1.2241977E2,9.9039185E1,1.6920215E2,0E0,7.8188385E1,5.4073036E1,8.3822656E2,3.6751562E2,2.1421094E3,2.1419531E3,2.1650938E3,3.1694688E3,1.5251719E3,2.6737812E3,1.4828125E1,3.845703E1,1.22578125E1,2.383999E2,1.3769531E1,4.699414E1,9.8265625E1,1.9279053E1,5.0896582E2,4.7542798E2,2.5944446E2,6.9929205E2,1.4341797E1,4.432617E0,5.639258E1,1.1804199E1,1.1083203E2,1.2242578E2,4.277423E1,1.4417485E2,5.8890686E0,3.7097363E2,1.8937695E2,1.0822783E3,5.072539E2,3.9321484E2,1.3186865E2,4.8491602E2,6.4539795E2,5.3511676E2,1.7064844E2,5.925122E2,1.4210709E1,2.6396759E1,6.889766E1,4.4939087E1,1.5721924E2,1.424707E2,1.0178955E1,7.6369286E0,3.0761633E1,8.176842E-1,2.1834375E2,2.2120508E2,4.073125E2,1.057959E3,8.1575E2,3.8090625E2,3.028672E2,1.1007734E3,4.5465625E2,1.5671875E2,2.5840625E2,3.844375E2,2.949922E2,5.600078E2,1.8723438E3,8.773672E2,0E0,0E0,0E0,0E0,0E0,0E0,0E0,0E0,0E0,0E0,0E0,0E0,0E0,0E0,0E0,0E0,0E0,0E0,0E0,0E0,0E0,0E0,0E0,0E0,0E0,0E0,0E0,0E0,0E0,0E0,0E0,0E0,0E0,0E0,0E0,0E0,0E0,0E0,0E0,0E0,0E0,0E0,0E0,0E0,0E0,0E0,0E0,0E0,0E0,0E0,0E0,0E0,0E0,0E0,0E0,0E0,0E0,0E0,0E0,0E0,0E0,0E0,0E0,0E0,0E0,0E0,0E0,0E0,0E0,0E0,0E0,0E0,0E0,0E0,0E0,0E0,0E0,0E0,0E0,0E0,0E0,0E0,0E0,0E0,0E0,0E0,0E0,0E0,0E0,0E0,0E0,0E0,0E0,0E0,0E0,0E0,0E0,0E0,0E0,0E0,0E0,0E0,0E0,0E0,0E0,0E0,0E0,0E0,0E0,0E0,0E0,0E0,0E0,0E0,0E0,0E0],"parents":[2147483647,0,0,1,1,2,2,3,3,4,4,5,5,6,6,7,7,8,8,9,9,10,10,11,11,12,12,13,13,14,14,16,16,17,17,18,18,19,19,20,20,21,21,22,22,23,23,24,24,25,25,26,26,27,27,28,28,29,29,30,30,31,31,32,32,33,33,34,34,35,35,36,36,37,37,38,38,39,39,40,40,41,41,42,42,43,43,44,44,45,45,46,46,47,47,48,48,49,49,51,51,52,52,53,53,54,54,55,55,56,56,57,57,58,58,59,59,60,60,61,61,62,62,63,63,64,64,65,65,66,66,67,67,68,68,69,69,70,70,71,71,72,72,73,73,74,74,75,75,76,76,77,77,78,78,79,79,80,80,81,81,82,82,83,83,84,84,85,85,86,86,87,87,88,88,89,89,90,90,91,91,92,92,93,93,94,94,95,95,96,96,97,97,98,98,99,99,100,100,101,101,102,102,103,103,104,104,105,105,106,106,107,107,108,108,109,109,110,110,111,111,112,112,113,113,114,114,115,115,116,116,117,117,118,118],"right_children":[2,4,6,8,10,12,14,16,18,20,22,24,26,28,30,-1,32,34,36,38,40,42,44,46,48,50,52,54,56,58,60,62,64,66,68,70,72,74,76,78,80,82,84,86,88,90,92,94,96,98,-1,100,102,104,106,108,110,112,114,116,118,120,122,124,126,128,130,132,134,136,138,140,142,144,146,148,150,152,154,156,158,160,162,164,166,168,170,172,174,176,178,180,182,184,186,188,190,192,194,196,198,200,202,204,206,208,210,212,214,216,218,220,222,224,226,228,230,232,234,-1,-1,-1,-1,-1,-1,-1,-1,-1,-1,-1,-1,-1,-1,-1,-1,-1,-1,-1,-1,-1,-1,-1,-1,-1,-1,-1,-1,-1,-1,-1,-1,-1,-1,-1,-1,-1,-1,-1,-1,-1,-1,-1,-1,-1,-1,-1,-1,-1,-1,-1,-1,-1,-1,-1,-1,-1,-1,-1,-1,-1,-1,-1,-1,-1,-1,-1,-1,-1,-1,-1,-1,-1,-1,-1,-1,-1,-1,-1,-1,-1,-1,-1,-1,-1,-1,-1,-1,-1,-1,-1,-1,-1,-1,-1,-1,-1,-1,-1,-1,-1,-1,-1,-1,-1,-1,-1,-1,-1,-1,-1,-1,-1,-1,-1,-1],"split_conditions":[7.824726E-3,2.0865935E-3,9.2250924E-4,1.0432968E-3,9.2250924E-4,1.1319771E-1,2.7647365E-2,5.216484E-4,4.4247787E-3,1.7222223E-5,4.173187E-3,4.35E2,1E0,1.4084507E-2,2.5666668E-4,-6.1540734E-2,5.5350554E-3,2.5666668E-4,2E0,3.6515389E-3,4.92E2,1E0,3E0,2.5666668E-4,1.9300992E-2,3.082942E-1,8.861889E-2,1.0432968E-2,7.561111E-4,6.624935E-2,6.14375E-2,3.0072222E-3,1E0,1.5649452E-3,9.2250924E-4,1.5649452E-3,2.5666668E-4,3.1298904E-3,5.7381326E-3,1.094475E-1,4.173187E-3,2.608242E-3,2.5666668E-4,5.7381326E-3,2.5666668E-4,2.921231E-2,3.0592779E-2,1.047E3,4.4070832E-2,1.7110068E-1,-6.020164E-2,1.382E3,3.082942E-1,1.094475E-1,6E0,1.982264E-2,7.554889E-2,4.3296818E-2,1.4397496E-1,7.042254E-2,1.2E1,1.55E2,2.9198056E-1,9.444444E-1,7E0,1.047E3,1.7E1,4.366725E-1,1.3E1,5.508389E-2,2.0986389E-1,1.5649452E-3,1.8276762E-2,2.608242E-3,3E0,5.66E2,1.38E2,1.1E2,4.6948357E-3,1.382E3,1.382E3,2.5E-1,3.1298904E-3,1.7222223E-5,1.5061639E-1,1.3857472E-1,6.5006666E-2,1.7222223E-5,6.320472E-2,1.1476265E-2,7.981221E-2,1.55E2,1.3562859E-2,5.092778E-3,1.7214397E-2,2.5666668E-4,7.64E2,1.2571727E-1,2.1178925E-1,7.64E2,1.7110068E-1,1.74E2,1.24E2,2.4827777E-3,5E0,1.385E-3,2.5666668E-4,2E0,1E0,1E0,4E0,1E0,7.692308E-1,9.441836E-2,2.1178925E-1,8.75E-1,2.1178925E-1,1.7110068E-1,7.981221E-2,-5.554555E-2,-4.3860357E-2,-5.9414227E-2,-5.6373566E-2,-4.0736288E-2,-3.829397E-2,-2.885494E-2,-1.7038647E-2,-5.1270165E-2,3.0281996E-2,-4.780686E-2,-3.1297833E-3,-5.9448846E-2,-5.4069966E-2,6.6420245E-3,-3.7572455E-2,-2.449394E-2,-3.5062549E-3,-1.2206705E-2,1.4678656E-2,5.5092026E-2,1.4905654E-1,-2.1020943E-2,1.0032183E-2,-4.5315664E-2,-4.319903E-2,-3.951196E-2,-5.9585657E-2,-3.651973E-2,1.19126044E-1,-3.0986339E-2,4.5089822E-2,-5.8692355E-2,-4.427538E-2,-5.2881777E-2,-4.446711E-2,-4.163382E-2,-4.5644115E-3,9.815219E-3,9.2306815E-2,4.525453E-3,-4.150338E-3,6.0689626E-3,1.5777998E-2,1.730955E-1,1.0882094E-1,1.9195197E-2,3.8117368E-2,3.2947984E-2,5.347089E-2,4.827669E-2,6.4420246E-2,1.9351326E-1,1.330394E-1,5.224858E-2,6.888254E-2,-2.8085096E-2,-1.44424755E-2,3.9899647E-3,4.51858E-2,-4.8519503E-2,-3.640825E-3,-4.0411364E-2,-2.034252E-2,4.2905402E-4,3.855854E-2,1.0147597E-1,2.7319098E-2,1.9232987E-1,6.049492E-2,1.0810608E-1,1.6367626E-1,1.4584076E-1,9.9004224E-2,1.7870684E-1,1.1654717E-1,-4.916218E-2,2.9823378E-2,1.6628254E-2,1.8532875E-1,-3.2261044E-3,9.597867E-2,-6.0150933E-2,-7.5666136E-3,6.787893E-2,5.8991034E-2,7.7580065E-2,9.5977984E-2,8.5549034E-2,7.436677E-2,2.0054531E-1,9.071357E-2,1.05641305E-1,1.7079967E-1,1.2813528E-1,1.7358395E-1,9.0404116E-2,7.864978E-2,9.8044485E-2,1.2275546E-1,1.5197192E-1,2.0597105E-1,1.9130956E-1,1.7502232E-1,1.9445091E-1,2.0691855E-1,2.240132E-1,2.4494532E-1,1.1014751E-1,9.850362E-2,1.2209103E-1,1.5345076E-1,1.2820242E-1,1.7515181E-1,1.546662E-1,1.9231799E-1],"split_indices":[2,2,4,2,4,2,2,2,4,5,2,3,3,2,5,0,4,5,3,2,3,3,3,5,2,2,5,2,5,2,5,5,3,2,4,2,5,2,2,5,2,2,5,2,5,2,5,3,5,2,0,3,2,5,3,2,5,2,2,2,3,3,5,4,3,3,3,5,3,5,5,2,4,2,3,3,3,3,2,3,3,4,2,5,5,5,5,5,5,2,2,3,2,5,2,5,3,2,2,3,2,3,3,5,3,5,5,3,3,4,3,3,4,2,2,4,2,2,2,0,0,0,0,0,0,0,0,0,0,0,0,0,0,0,0,0,0,0,0,0,0,0,0,0,0,0,0,0,0,0,0,0,0,0,0,0,0,0,0,0,0,0,0,0,0,0,0,0,0,0,0,0,0,0,0,0,0,0,0,0,0,0,0,0,0,0,0,0,0,0,0,0,0,0,0,0,0,0,0,0,0,0,0,0,0,0,0,0,0,0,0,0,0,0,0,0,0,0,0,0,0,0,0,0,0,0,0,0,0,0,0,0,0,0,0],"split_type":[0,0,0,0,0,0,0,0,0,0,0,0,0,0,0,0,0,0,0,0,0,0,0,0,0,0,0,0,0,0,0,0,0,0,0,0,0,0,0,0,0,0,0,0,0,0,0,0,0,0,0,0,0,0,0,0,0,0,0,0,0,0,0,0,0,0,0,0,0,0,0,0,0,0,0,0,0,0,0,0,0,0,0,0,0,0,0,0,0,0,0,0,0,0,0,0,0,0,0,0,0,0,0,0,0,0,0,0,0,0,0,0,0,0,0,0,0,0,0,0,0,0,0,0,0,0,0,0,0,0,0,0,0,0,0,0,0,0,0,0,0,0,0,0,0,0,0,0,0,0,0,0,0,0,0,0,0,0,0,0,0,0,0,0,0,0,0,0,0,0,0,0,0,0,0,0,0,0,0,0,0,0,0,0,0,0,0,0,0,0,0,0,0,0,0,0,0,0,0,0,0,0,0,0,0,0,0,0,0,0,0,0,0,0,0,0,0,0,0,0,0,0,0,0,0,0,0,0,0,0,0,0,0,0,0],"sum_hessian":[1.3905921E6,1.016895E6,3.7369706E5,6.897957E5,3.2709934E5,7.1503305E4,3.0219378E5,4.757427E5,2.1405298E5,1.4477481E5,1.8232452E5,6.948204E4,2.0212723E3,1.6729312E5,1.3490066E5,2.2111311E5,2.5462958E5,1.22478805E5,9.157418E4,8.954239E4,5.5232414E4,9.459374E4,8.773077E4,6.882534E4,6.5669257E2,1.2500013E3,7.7127094E2,8.2362805E4,8.493031E4,6.6537125E4,6.836352E4,1.6585906E5,8.8770516E4,8.062555E4,4.1853258E4,7.526946E4,1.6304717E4,4.598676E4,4.355563E4,5.416068E4,1.0717345E3,6.1947746E4,3.2646E4,6.9567516E4,1.8163264E4,4.3993223E4,2.4832121E4,3.8563547E2,2.710571E2,1.2050537E3,4.4947636E1,3.9919595E2,3.72075E2,4.103247E4,4.133034E4,4.3759645E4,4.1170664E4,3.921049E4,2.7326639E4,3.481598E4,3.3547543E4,1.1866755E5,4.719151E4,6.576875E4,2.3001762E4,5.0808656E4,2.981689E4,4.049386E4,1.3593993E3,4.4466164E4,3.08033E4,3.000064E2,1.600471E4,3.4646703E4,1.134006E4,2.8266273E4,1.5289357E4,3.226966E4,2.1891021E4,6.9447906E2,3.772554E2,2.0748895E4,4.119885E4,5.588743E2,3.2087127E4,3.5278105E4,3.4289406E4,5.2474457E2,1.763852E4,3.574175E4,8.251472E3,9.727887E3,1.5104233E4,2.5231622E2,1.3331926E2,9.416148E1,1.7689561E2,7.5024457E2,4.548091E2,3.9523447E2,3.9614866E0,3.2773682E2,4.4338177E1,3.376177E4,7.270699E3,3.537196E4,5.9583804E3,2.3753986E4,2.0005658E4,2.24438E4,1.8726861E4,2.2723086E4,1.6487402E4,1.787956E4,9.447079E3,2.2081479E4,1.2734503E4,2.639112E4,7.1564253E3,1.1837379E5,2.9375946E2,3.0566982E4,1.6624531E4,5.91648E3,5.985227E4,1.7330895E4,5.6708677E3,5.0804082E4,4.5709457E0,2.9757771E4,5.911757E1,2.8085416E4,1.2408442E4,2.4835472E1,1.3345638E3,4.1360203E4,3.1059578E3,2.906116E4,1.7421399E3,1.3499527E2,1.6501115E2,2.0834373E3,1.3921273E4,2.0079404E4,1.45673E4,1.1309587E4,3.0472973E1,2.8261396E4,4.8756757E0,1.5285091E4,4.2662163E0,3.0859676E4,1.4099845E3,1.5885104E4,6.0059185E3,6.048885E2,8.959054E1,3.1448108E2,6.2774326E1,1.9670303E2,2.0552191E4,1.6245294E4,2.4953557E4,3.8517838E2,1.7369594E2,1.9900375E4,1.2186751E4,3.1951521E4,3.326582E3,2.9962398E4,4.32701E3,3.9386316E2,1.3088142E2,9.345299E3,8.29322E3,1.4794934E4,2.0946816E4,7.3697363E3,8.817355E2,9.511072E3,2.168152E2,6.343711E3,8.760522E3,2.7425676E1,2.2489053E2,1.18996956E2,1.4322297E1,1.0665541E1,8.349595E1,7.039257E1,1.0650304E2,3.3322195E2,4.1702264E2,3.1143378E2,1.4337534E2,3.9173007E2,3.504392E0,1.0665541E0,2.8949325E0,3.2072803E2,7.008784E0,4.327162E1,1.0665541E0,2.3942463E4,9.819306E3,4.725901E3,2.544798E3,2.2470008E4,1.2901952E4,2.2778548E2,5.7305947E3,2.3261697E4,4.9229086E2,1.9526014E4,4.796446E2,1.2549989E4,9.8938125E3,1.1074641E4,7.6522207E3,2.2319016E4,4.0407162E2,1.7878494E3,1.4699553E4,9.948969E3,7.9305913E3,4.0951106E3,5.3519683E3,1.119638E4,1.0885099E4,1.1080734E4,1.6537682E3,2.4053385E4,2.3377341E3,4.8409365E3,2.3154888E3],"tree_param":{"num_deleted":"0","num_feature":"6","num_nodes":"235","size_leaf_vector":"1"}},{"base_weights":[-2.705472E-3,-6.976524E-1,1.6462704E0,-9.635457E-1,-8.125137E-2,-4.5238596E-1,2.1294737E0,-1.1023905E0,-7.214083E-1,-8.461377E-1,5.1658833E-1,-7.849423E-1,-2.0260213E-1,1.5912684E0,2.6359982E0,-6.08519E-2,-9.923414E-1,-1.0224444E0,-3.269644E-1,-9.21192E-1,-6.692243E-1,2.347541E-1,8.0861187E-1,-8.067752E-1,1.4926867E0,-2.7363762E-1,1.2152778E0,1.3547673E0,1.8822018E0,2.9523761E0,1.9529527E0,-1.1164018E0,-7.587493E-1,-1.0237437E0,1.4470366E0,-3.3467343E-1,3.0471773E0,-9.279177E-1,4.2903757E-1,-6.8015635E-1,1.2831601E0,2.1076466E-1,2.9586086E0,7.5787854E-1,2.7404199E0,-1.033433E0,-6.515044E-1,-9.185585E-2,2.576043E0,-3.276578E-1,5.6956816E-1,2.2142446E0,-4.42319E-1,1.297876E0,3.125226E0,1.83762E0,2.8101225E0,2.6077197E0,3.4007354E0,1.8069386E0,2.705721E0,-5.5856045E-2,-1.0014906E0,-6.040064E-1,-7.7810675E-1,-1.051032E0,-9.8205984E-1,6.270961E-1,1.7311615E-1,-4.9173075E-1,-2.1348324E-1,2.6806517E0,3.5585825E0,-8.8906217E-1,-1.1317351E0,1.8557857E-1,3.1947415E0,-7.2465974E-1,-5.147726E-1,7.7567804E-1,2.525474E0,6.577454E-2,3.4597614E-1,2.189548E0,3.9767435E0,5.8598804E-1,8.7352586E-1,2.1788402E0,3.6813226E0,-1.0532991E0,-6.4779586E-1,-4.5364794E-1,-8.802188E-1,-5.9672534E-1,1.820811E-1,2.7615173E0,-3.6995235E-1,-4.4117078E-1,-9.449005E-2,3.6313713E-1,1.2160279E0,1.6713305E0,3.873765E0,-1.198684E0,1.24582484E-1,1.3886987E0,9.910956E-1,3.6351225E0,2.6198683E0,2.0096595E0,1.3765777E0,3.532882E0,2.2303073E0,2.4701526E0,2.8140914E0,3.2116468E0,3.6933181E0,2.7243102E0,1.6486832E0,2.6143813E0,3.6966763E0,-4.9480762E-2,-5.593385E-2,-4.3867208E-2,-2.8898826E-2,-3.5587296E-2,-3.9169114E-2,-5.2304316E-2,-5.9406903E-2,-4.8625175E-2,-5.7216145E-2,1.4647627E-2,4.807335E-2,-1.86753E-2,-2.5942547E-2,-1.1061172E-2,4.739156E-2,1.6309564E-1,1.2884699E-1,1.3660592E-1,1.849124E-1,-4.7130752E-2,-4.1660815E-2,-5.8397867E-2,-5.228555E-3,-9.556147E-3,5.5258077E-2,8.813899E-2,2.1886237E-1,-3.5206337E-2,-4.863635E-2,-2.1749204E-2,-2.9517418E-2,-1.4678287E-2,8.238029E-2,9.999531E-2,1.8848181E-1,3.0754758E-2,2.0383375E-3,4.8950147E-2,1.6025318E-2,8.2221344E-2,1.342114E-1,1.725118E-1,2.2118692E-1,5.263085E-2,2.7499294E-2,4.687837E-2,2.7748987E-2,9.670785E-2,1.4020915E-1,1.5811412E-1,2.0841472E-1,-5.288563E-2,-2.236047E-2,-5.2994676E-2,-8.217936E-3,-2.6129356E-2,-1.1480397E-2,-4.6141185E-2,1.9239105E-2,-5.394457E-2,2.6014147E-2,9.809288E-2,1.6531073E-1,-5.2249163E-2,2.2178572E-2,-1.5420201E-2,-3.769168E-2,3.722027E-2,-1.0137063E-2,7.417783E-3,3.2903604E-2,7.920462E-2,-1.7599503E-2,1.2966432E-1,-1.871408E-2,1.9635771E-1,1.525364E-1,-6.2246498E-2,-5.219881E-2,5.1313926E-2,-4.9320456E-2,6.368109E-2,7.781735E-2,3.8209002E-2,8.228173E-2,1.5834425E-1,2.1362653E-1,1.1241957E-1,1.4479403E-1,8.9807175E-2,1.0462209E-1,9.709086E-2,5.6676786E-2,1.63684E-1,1.9159421E-1,1.2404783E-1,8.602404E-2,1.5490751E-1,1.22584105E-1,1.4211626E-1,1.1132602E-1,1.6424249E-1,1.4753756E-1,1.7682877E-1,1.9663669E-1,1.5881282E-1,1.2960547E-1,1.303273E-1,7.921343E-2,1.8299878E-1,1.2642273E-1,1.6750911E-1,2.0939255E-1],"categories":[],"categories_nodes":[],"categories_segments":[],"categories_sizes":[],"default_left":[0,0,0,0,0,0,0,0,0,0,0,0,0,0,0,0,0,0,0,0,0,0,0,0,0,0,0,0,0,0,0,0,0,0,0,0,0,0,0,0,0,0,0,0,0,0,0,0,0,0,0,0,0,0,0,0,0,0,0,0,0,0,0,0,0,0,0,0,0,0,0,0,0,0,0,0,0,0,0,0,0,0,0,0,0,0,0,0,0,0,0,0,0,0,0,0,0,0,0,0,0,0,0,0,0,0,0,0,0,0,0,0,0,0,0,0,0,0,0,0,0,0,0,0,0,0,0,0,0,0,0,0,0,0,0,0,0,0,0,0,0,0,0,0,0,0,0,0,0,0,0,0,0,0,0,0,0,0,0,0,0,0,0,0,0,0,0,0,0,0,0,0,0,0,0,0,0,0,0,0,0,0,0,0,0,0,0,0,0,0,0,0,0,0,0,0,0,0,0,0,0,0,0,0,0,0,0,0,0,0,0,0,0,0,0,0,0,0,0,0,0,0,0,0,0,0,0,0,0,0,0,0,0,0,0],"id":1,"left_children":[1,3,5,7,9,11,13,15,17,19,21,23,25,27,29,-1,31,33,35,37,39,41,43,45,47,49,51,53,55,57,59,61,63,65,67,69,71,73,75,77,79,81,83,85,87,89,91,93,95,97,99,101,103,105,107,109,111,113,115,117,119,-1,121,123,125,127,129,131,-1,133,135,137,139,141,143,145,147,149,151,153,155,157,159,161,163,165,167,169,171,173,175,177,179,181,-1,183,185,187,189,191,193,195,197,199,201,203,205,207,209,211,213,215,217,219,221,223,225,227,229,231,233,-1,-1,-1,-1,-1,-1,-1,-1,-1,-1,-1,-1,-1,-1,-1,-1,-1,-1,-1,-1,-1,-1,-1,-1,-1,-1,-1,-1,-1,-1,-1,-1,-1,-1,-1,-1,-1,-1,-1,-1,-1,-1,-1,-1,-1,-1,-1,-1,-1,-1,-1,-1,-1,-1,-1,-1,-1,-1,-1,-1,-1,-1,-1,-1,-1,-1,-1,-1,-1,-1,-1,-1,-1,-1,-1,-1,-1,-1,-1,-1,-1,-1,-1,-1,-1,-1,-1,-1,-1,-1,-1,-1,-1,-1,-1,-1,-1,-1,-1,-1,-1,-1,-1,-1,-1,-1,-1,-1,-1,-1,-1,-1,-1,-1],"loss_changes":[1.5935031E6,1.6033503E5,4.1808788E5,2.2976625E4,1.3481447E5,6.409379E3,9.1355125E4,5.4791875E3,2.9575805E4,1.7167656E3,1.3619121E4,1.6469922E3,4.438603E3,1.1177281E4,3.7302E4,0E0,6.4220625E3,4.5476562E2,2.80542E3,8.250703E2,8.232461E2,5.501981E3,7.962965E3,1.1530605E3,5.402741E2,1.9116516E3,3.4825266E3,9.023719E3,3.0087031E3,1.822375E4,6.0024375E3,1.084375E1,2.2982812E2,1.595625E2,1.2126805E2,2.0473574E3,3.654663E1,7.1460156E2,3.0293542E2,2.8163867E2,1.3351797E2,1.6364688E3,5.668828E2,1.5737148E3,1.0906758E3,1.0141016E2,8.8011816E2,2.4478584E2,1.0313428E2,1.0437876E3,3.3677582E2,1.175668E3,3.3951645E2,2.4182344E3,7.0933594E2,5.511203E3,1.3909375E3,1.8870625E3,2.8249375E3,6.641547E3,7.938242E2,0E0,1.5924072E-1,6.034497E1,2.3367188E1,5.6617188E1,8.552734E1,5.7873726E0,0E0,1.5002441E2,5.460073E2,4.7229004E-1,1.3917236E0,2.2620312E2,5.38041E2,1.4410014E2,5.3935913E1,1.5308984E2,4.8754883E1,1.4406686E2,3.2923523E1,5.533496E2,6.961128E2,1.0911316E2,5.889502E1,5.3455566E2,9.651992E2,1.941919E2,1.828916E2,3.342285E1,1.304075E2,1.6104614E2,4.8670898E2,6.2088898E1,0E0,7.01438E1,7.026252E0,1.1008384E3,1.1729263E3,1.213217E2,3.5329193E2,1.8688164E3,2.1982422E0,1.1268921E0,4.5511545E2,1.2906484E3,2.9454922E3,4.0014844E2,1.3751465E2,8.910469E2,2.5934688E3,1.0247656E2,2.3275586E2,4.568125E2,4.3621875E2,5.853125E2,7.4121875E2,3.9409375E2,2.4049922E3,7.212969E2,1.1305957E2,0E0,0E0,0E0,0E0,0E0,0E0,0E0,0E0,0E0,0E0,0E0,0E0,0E0,0E0,0E0,0E0,0E0,0E0,0E0,0E0,0E0,0E0,0E0,0E0,0E0,0E0,0E0,0E0,0E0,0E0,0E0,0E0,0E0,0E0,0E0,0E0,0E0,0E0,0E0,0E0,0E0,0E0,0E0,0E0,0E0,0E0,0E0,0E0,0E0,0E0,0E0,0E0,0E0,0E0,0E0,0E0,0E0,0E0,0E0,0E0,0E0,0E0,0E0,0E0,0E0,0E0,0E0,0E0,0E0,0E0,0E0,0E0,0E0,0E0,0E0,0E0,0E0,0E0,0E0,0E0,0E0,0E0,0E0,0E0,0E0,0E0,0E0,0E0,0E0,0E0,0E0,0E0,0E0,0E0,0E0,0E0,0E0,0E0,0E0,0E0,0E0,0E0,0E0,0E0,0E0,0E0,0E0,0E0,0E0,0E0,0E0,0E0,0E0,0E0],"parents":[2147483647,0,0,1,1,2,2,3,3,4,4,5,5,6,6,7,7,8,8,9,9,10,10,11,11,12,12,13,13,14,14,16,16,17,17,18,18,19,19,20,20,21,21,22,22,23,23,24,24,25,25,26,26,27,27,28,28,29,29,30,30,31,31,32,32,33,33,34,34,35,35,36,36,37,37,38,38,39,39,40,40,41,41,42,42,43,43,44,44,45,45,46,46,47,47,48,48,49,49,50,50,51,51,52,52,53,53,54,54,55,55,56,56,57,57,58,58,59,59,60,60,62,62,63,63,64,64,65,65,66,66,67,67,69,69,70,70,71,71,72,72,73,73,74,74,75,75,76,76,77,77,78,78,79,79,80,80,81,81,82,82,83,83,84,84,85,85,86,86,87,87,88,88,89,89,90,90,91,91,92,92,93,93,95,95,96,96,97,97,98,98,99,99,100,100,101,101,102,102,103,103,104,104,105,105,106,106,107,107,108,108,109,109,110,110,111,111,112,112,113,113,114,114,115,115,116,116,117,117,118,118,119,119,120,120],"right_children":[2,4,6,8,10,12,14,16,18,20,22,24,26,28,30,-1,32,34,36,38,40,42,44,46,48,50,52,54,56,58,60,62,64,66,68,70,72,74,76,78,80,82,84,86,88,90,92,94,96,98,100,102,104,106,108,110,112,114,116,118,120,-1,122,124,126,128,130,132,-1,134,136,138,140,142,144,146,148,150,152,154,156,158,160,162,164,166,168,170,172,174,176,178,180,182,-1,184,186,188,190,192,194,196,198,200,202,204,206,208,210,212,214,216,218,220,222,224,226,228,230,232,234,-1,-1,-1,-1,-1,-1,-1,-1,-1,-1,-1,-1,-1,-1,-1,-1,-1,-1,-1,-1,-1,-1,-1,-1,-1,-1,-1,-1,-1,-1,-1,-1,-1,-1,-1,-1,-1,-1,-1,-1,-1,-1,-1,-1,-1,-1,-1,-1,-1,-1,-1,-1,-1,-1,-1,-1,-1,-1,-1,-1,-1,-1,-1,-1,-1,-1,-1,-1,-1,-1,-1,-1,-1,-1,-1,-1,-1,-1,-1,-1,-1,-1,-1,-1,-1,-1,-1,-1,-1,-1,-1,-1,-1,-1,-1,-1,-1,-1,-1,-1,-1,-1,-1,-1,-1,-1,-1,-1,-1,-1,-1,-1,-1,-1],"split_conditions":[7.1698115E-3,1.8867925E-3,9.2250924E-4,7.54717E-4,3.030303E-3,1.2519562E-2,2.4528302E-2,3.773585E-4,7.322176E-3,4.6948357E-3,3.773585E-3,3.1277162E-1,1.1319771E-1,1.3962264E-2,7.024393E-2,-6.08519E-2,6.4575644E-3,6.666667E-1,6.666667E-1,4.7140452E-1,3.1622776E-1,4.472136E-1,3.0772874E-1,8.346374E-3,5.216484E-3,1.1510231E-1,1.6716981E-1,2.763854E-1,2.236068E-1,6.2264152E-2,1.9397146E-1,2.3364485E-3,5E-1,1.5649452E-3,9.2250924E-4,1.1320754E-3,1.5649452E-3,5.569E-2,9.2250924E-4,7.3030777E-3,5.7381326E-3,2.6415095E-3,5.7735026E-1,4.90566E-3,4.2426407E-1,2.0100756E-1,9.81132E-3,5.7735026E-1,1.1997913E-2,2.921231E-2,2.1320072E-1,1.7110068E-1,2.573585E-1,7.024393E-2,6.7814295E-3,6.604582E-2,1.2519562E-2,4.037736E-2,1.2641509E-1,3.7383176E-2,2.573585E-1,-5.5856045E-2,5.9701493E-3,1.2987013E-2,6E-1,1.2606043E-2,1.2606043E-2,1.1320754E-3,1.7311615E-1,6.666667E-1,4.082483E-1,2.3255814E-2,2.962963E-2,3.1298904E-3,9.2250924E-4,6.666667E-1,2.608242E-3,6.4150942E-3,6.4150942E-3,3.7796447E-1,4.082483E-1,1.5649452E-3,2.0865935E-3,2.6415095E-3,6.666667E-1,3.1298904E-3,7.3323555E-2,6.037736E-3,5.0709254E-1,2.3773585E-2,5.216484E-3,1.0954617E-2,1.7241664E-1,4.173187E-3,1.820811E-1,3.5355338E-1,3.3333334E-1,2.1509433E-2,2.9056603E-2,2.2430882E-2,4.8301887E-2,1.2641509E-1,1.2606043E-2,2.4334814E-2,1.2606043E-2,1.0566038E-2,1.8257418E-1,4.082483E-1,3.1622776E-1,1.6226415E-2,1.4606155E-2,2.948839E-1,1.8257694E-2,1.5127804E-2,5.8722023E-2,1.2606043E-2,2.1178925E-1,9.161373E-2,2.1387585E-2,1.6171101E-2,3.6603773E-1,-4.9480762E-2,-5.593385E-2,-4.3867208E-2,-2.8898826E-2,-3.5587296E-2,-3.9169114E-2,-5.2304316E-2,-5.9406903E-2,-4.8625175E-2,-5.7216145E-2,1.4647627E-2,4.807335E-2,-1.86753E-2,-2.5942547E-2,-1.1061172E-2,4.739156E-2,1.6309564E-1,1.2884699E-1,1.3660592E-1,1.849124E-1,-4.7130752E-2,-4.1660815E-2,-5.8397867E-2,-5.228555E-3,-9.556147E-3,5.5258077E-2,8.813899E-2,2.1886237E-1,-3.5206337E-2,-4.863635E-2,-2.1749204E-2,-2.9517418E-2,-1.4678287E-2,8.238029E-2,9.999531E-2,1.8848181E-1,3.0754758E-2,2.0383375E-3,4.8950147E-2,1.6025318E-2,8.2221344E-2,1.342114E-1,1.725118E-1,2.2118692E-1,5.263085E-2,2.7499294E-2,4.687837E-2,2.7748987E-2,9.670785E-2,1.4020915E-1,1.5811412E-1,2.0841472E-1,-5.288563E-2,-2.236047E-2,-5.2994676E-2,-8.217936E-3,-2.6129356E-2,-1.1480397E-2,-4.6141185E-2,1.9239105E-2,-5.394457E-2,2.6014147E-2,9.809288E-2,1.6531073E-1,-5.2249163E-2,2.2178572E-2,-1.5420201E-2,-3.769168E-2,3.722027E-2,-1.0137063E-2,7.417783E-3,3.2903604E-2,7.920462E-2,-1.7599503E-2,1.2966432E-1,-1.871408E-2,1.9635771E-1,1.525364E-1,-6.2246498E-2,-5.219881E-2,5.1313926E-2,-4.9320456E-2,6.368109E-2,7.781735E-2,3.8209002E-2,8.228173E-2,1.5834425E-1,2.1362653E-1,1.1241957E-1,1.4479403E-1,8.9807175E-2,1.0462209E-1,9.709086E-2,5.6676786E-2,1.63684E-1,1.9159421E-1,1.2404783E-1,8.602404E-2,1.5490751E-1,1.22584105E-1,1.4211626E-1,1.1132602E-1,1.6424249E-1,1.4753756E-1,1.7682877E-1,1.9663669E-1,1.5881282E-1,1.2960547E-1,1.303273E-1,7.921343E-2,1.8299878E-1,1.2642273E-1,1.6750911E-1,2.0939255E-1],"split_indices":[1,1,4,1,4,2,1,1,4,2,1,0,2,1,0,0,4,0,0,0,0,0,0,2,2,0,1,0,0,1,0,4,4,2,4,1,2,0,4,2,2,1,0,1,0,0,1,0,2,2,0,2,1,0,2,0,2,1,1,4,1,0,4,4,4,0,0,1,0,4,0,4,4,2,4,0,2,1,1,0,0,2,2,1,0,2,0,1,0,1,2,2,0,2,0,0,0,1,1,2,1,1,0,0,0,1,0,0,0,1,2,0,2,2,0,0,2,0,2,2,1,0,0,0,0,0,0,0,0,0,0,0,0,0,0,0,0,0,0,0,0,0,0,0,0,0,0,0,0,0,0,0,0,0,0,0,0,0,0,0,0,0,0,0,0,0,0,0,0,0,0,0,0,0,0,0,0,0,0,0,0,0,0,0,0,0,0,0,0,0,0,0,0,0,0,0,0,0,0,0,0,0,0,0,0,0,0,0,0,0,0,0,0,0,0,0,0,0,0,0,0,0,0,0,0,0,0,0,0,0,0,0,0,0,0],"split_type":[0,0,0,0,0,0,0,0,0,0,0,0,0,0,0,0,0,0,0,0,0,0,0,0,0,0,0,0,0,0,0,0,0,0,0,0,0,0,0,0,0,0,0,0,0,0,0,0,0,0,0,0,0,0,0,0,0,0,0,0,0,0,0,0,0,0,0,0,0,0,0,0,0,0,0,0,0,0,0,0,0,0,0,0,0,0,0,0,0,0,0,0,0,0,0,0,0,0,0,0,0,0,0,0,0,0,0,0,0,0,0,0,0,0,0,0,0,0,0,0,0,0,0,0,0,0,0,0,0,0,0,0,0,0,0,0,0,0,0,0,0,0,0,0,0,0,0,0,0,0,0,0,0,0,0,0,0,0,0,0,0,0,0,0,0,0,0,0,0,0,0,0,0,0,0,0,0,0,0,0,0,0,0,0,0,0,0,0,0,0,0,0,0,0,0,0,0,0,0,0,0,0,0,0,0,0,0,0,0,0,0,0,0,0,0,0,0,0,0,0,0,0,0,0,0,0,0,0,0,0,0,0,0,0,0],"sum_hessian":[1.3905491E6,9.7826725E5,4.1228188E5,6.834506E5,2.9481666E5,7.7159875E4,3.35122E5,4.3437212E5,2.4907845E5,1.2933844E5,1.6547822E5,3.309535E4,4.4064523E4,1.6248181E5,1.7264017E5,2.127365E5,2.2163564E5,1.4126483E5,1.0781363E5,9.080909E4,3.8529348E4,8.420913E4,8.1269086E4,3.2781758E4,3.135928E2,4.1962996E4,2.1015303E3,8.962826E4,7.285355E4,1.1798684E5,5.465333E4,1.4475352E5,7.688213E4,1.4119112E5,7.370234E1,1.07568766E5,2.4486517E2,9.035931E4,4.4978308E2,3.8315457E4,2.1388855E2,8.347503E4,7.3410114E2,7.9190766E4,2.0783235E3,1.3324932E4,1.9456826E4,1.2771257E2,1.8588025E2,3.9437062E4,2.5259321E3,1.3110671E3,7.904632E2,8.683952E4,2.7887385E3,6.951662E4,3.3369312E3,6.671185E4,5.1274996E4,4.577732E4,8.876008E3,1.4384461E5,9.0890216E2,8.55176E3,6.8330375E4,8.531546E4,5.587566E4,5.331979E1,2.0382547E1,4.6850043E4,6.0718727E4,1.4627277E2,9.859239E1,7.589595E4,1.44633545E4,4.1437375E2,3.5409336E1,3.0188584E4,8.126874E3,1.5300911E2,6.0879436E1,4.0281652E4,4.3193383E4,4.1999976E2,3.1410138E2,3.1852867E4,4.73379E4,1.3035891E3,7.7473444E2,1.2670478E4,6.544539E2,1.0433762E4,9.023065E3,1.1323961E2,1.44729595E1,1.7492963E2,1.0950619E1,2.6523662E4,1.29134E4,1.9157472E3,6.10185E2,9.89393E2,3.2167413E2,3.3816544E2,4.5229776E2,6.700045E4,1.983907E4,1.3850531E3,1.4036854E3,5.0623086E4,1.8893533E4,1.4831008E3,1.8538302E3,4.0036527E4,2.6675322E4,3.1153371E4,2.0121625E4,6.732767E3,3.9044555E4,8.1302534E3,7.457544E2,8.338471E2,7.5055016E1,7.407282E2,7.8110317E3,5.0420103E3,6.3288363E4,8.235346E4,2.9619983E3,5.277455E4,3.1011125E3,2.7607342E1,2.5712446E1,8.744586E3,3.8105457E4,6.0317516E4,4.012088E2,1.7536537E1,1.2873624E2,1.7225145E1,8.136725E1,3.8735285E4,3.7160668E4,1.3970556E4,4.9279895E2,2.9451828E2,1.19855446E2,1.7141932E1,1.8267403E1,2.7884375E4,2.3042078E3,3.9565422E3,4.170332E3,6.902596E1,8.398314E1,4.4632767E1,1.624667E1,1.7529432E3,3.852871E4,1.6692178E3,4.1524164E4,2.0186989E2,2.1812985E2,1.4822667E2,1.6587471E2,2.2795154E3,2.9573352E4,3.941237E4,7.9255293E3,9.399141E2,3.6367502E2,3.7864676E2,3.9608768E2,1.257814E4,9.233801E1,3.526506E2,3.0180328E2,7.9776357E3,2.456126E3,8.729334E3,2.9373102E2,7.912064E1,3.411897E1,7.2741264E1,1.0218836E2,5.8292313E0,5.1213875E0,1.8619293E4,7.904368E3,1.4752258E3,1.1438175E4,1.1093699E3,8.0637726E2,4.941757E2,1.1600928E2,6.8182654E2,3.075665E2,2.985369E2,2.3137218E1,2.5491742E2,8.3248024E1,2.4970776E2,2.0259E2,3.973451E4,2.726594E4,1.4733446E4,5.1056235E3,8.019283E2,5.831248E2,6.022634E2,8.0142206E2,1.4149837E4,3.647325E4,5.6789893E3,1.3214544E4,8.0082324E2,6.8227765E2,1.240225E3,6.136052E2,1.1391261E3,3.8897402E4,2.5448627E4,1.2266945E3,2.4318447E4,6.8349243E3,1.2169901E4,7.951725E3,1.5185103E3,5.214257E3,2.457741E3,3.6586812E4,6.1424664E2,7.5160063E3,4.4186548E2,3.0388892E2],"tree_param":{"num_deleted":"0","num_feature":"6","num_nodes":"235","size_leaf_vector":"1"}},{"base_weights":[-2.230171E-3,-6.907659E-1,1.4652901E0,-9.815784E-1,-1.6742805E-1,-4.467E-1,1.8845946E0,-6.021121E-2,-8.6864877E-1,-8.512236E-1,3.8166326E-1,-5.613421E-1,-7.641765E-2,1.5110574E0,2.434591E0,-1.0657564E0,-5.5381894E-1,-7.3527324E-1,-1.0443852E0,1.040862E-1,6.905168E-1,-5.856023E-1,7.1271306E-1,1.64409E-1,-4.218452E-1,1.2506831E0,1.8087662E0,2.7021415E0,1.8159353E0,-1.0365932E0,-1.129234E0,-7.364536E-1,-3.8347292E-1,-8.09401E-1,-6.0921246E-1,-1.0679498E0,3.740602E-2,8.030106E-2,2.1258175E0,6.4453727E-1,2.3392897E0,-4.2212522E-1,-8.5211766E-1,-5.1141955E-2,2.1363568E0,-6.1273348E-2,1.1870993E0,-5.354331E-1,1.824589E0,1.2059964E0,2.7737186E0,1.9516279E0,1.5013772E0,2.47106E0,3.0212958E0,1.5900146E0,2.5213614E0,-5.4169405E-2,-9.740261E-1,-1.1308708E0,9.654803E-1,-7.501347E-1,-4.7565836E-1,-3.933326E-1,1.7547165E0,-8.563149E-1,-7.5239515E-1,-6.6188025E-1,-5.836159E-1,-1.0849392E0,-4.897949E-1,-8.130007E-1,5.907183E-1,-6.49008E-2,2.228499E-1,1.4917107E0,3.1441736E0,5.159597E-1,7.851591E-1,1.762652E0,3.041645E0,-5.44499E-1,-3.805526E-1,-9.011055E-1,-3.356606E-1,-5.319067E-1,5.8007586E-1,1.7504722E0,3.085408E0,-1.360302E-1,2.4019597E-1,1.4218869E0,1.7422694E-1,-7.98111E-1,-2.662788E-1,-6.141075E-1,2.608248E0,1.0453163E0,1.3337688E0,2.5154228E0,3.3655787E0,1.9675707E0,5.3690904E-1,1.2311733E0,2.1253374E0,2.3250644E0,2.6156073E0,2.920434E0,3.283021E0,1.0287316E0,1.8019272E0,2.3834076E0,2.844052E0,-4.989302E-2,-4.67511E-2,-5.691397E-2,-4.6972502E-2,2.2539724E-2,1.145752E-1,-3.388808E-2,-3.809562E-2,-3.8627397E-2,-1.8079776E-2,-2.3708636E-2,-1.4189965E-2,4.368111E-2,1.2627393E-1,-4.3814756E-2,-4.1440036E-2,-3.826479E-2,-3.586959E-2,-3.4363277E-2,-3.1624597E-2,-3.001788E-2,-2.6155187E-2,-5.1834106E-2,-5.574723E-2,-3.7729397E-2,-2.0887293E-3,-4.299402E-2,9.833148E-3,-2.584907E-3,6.9205604E-2,-2.5852187E-2,-2.5635734E-3,-2.191594E-2,1.1948172E-2,5.4889947E-2,1.0681862E-1,1.3037091E-1,1.7818068E-1,-5.7682744E-3,2.6831329E-2,4.199471E-2,2.5498185E-2,7.3916726E-2,1.0899965E-1,1.3380668E-1,1.7348911E-1,-3.0289073E-2,-2.6264975E-2,-2.0603854E-2,-1.3873914E-2,-4.754196E-2,-3.408665E-2,-3.6595725E-2,2.6256476E-2,-2.8486213E-2,1.7974935E-1,-8.466121E-3,6.818541E-2,5.1847737E-2,1.12710215E-1,7.565935E-2,1.6610189E-1,-5.942201E-3,-1.6797284E-2,2.3341596E-2,-2.5278052E-2,5.3933527E-2,8.5911304E-2,-6.2018543E-2,7.082202E-2,-3.6657717E-2,-5.179433E-2,-2.683478E-2,1.8481351E-2,-3.9857954E-2,6.7962534E-3,1.4092033E-1,3.386361E-2,5.582515E-2,3.8448326E-2,7.118999E-2,5.345728E-2,1.0841083E-1,1.4254373E-1,1.5915668E-1,1.9325839E-1,9.022217E-2,1.0444956E-1,1.2421254E-2,6.5830246E-2,4.823318E-2,8.315437E-2,9.154134E-2,1.24745466E-1,1.1698987E-1,5.599739E-2,1.3122934E-1,7.496171E-2,1.5091315E-1,1.3547105E-1,1.6803746E-1,1.4781953E-1,2.9947707E-2,8.046772E-2,8.1684515E-2,1.2537341E-1,1.4606844E-1,1.1437283E-1,1.3774543E-1,1.8471949E-1],"categories":[],"categories_nodes":[],"categories_segments":[],"categories_sizes":[],"default_left":[0,0,0,0,0,0,0,0,0,0,0,0,0,0,0,0,0,0,0,0,0,0,0,0,0,0,0,0,0,0,0,0,0,0,0,0,0,0,0,0,0,0,0,0,0,0,0,0,0,0,0,0,0,0,0,0,0,0,0,0,0,0,0,0,0,0,0,0,0,0,0,0,0,0,0,0,0,0,0,0,0,0,0,0,0,0,0,0,0,0,0,0,0,0,0,0,0,0,0,0,0,0,0,0,0,0,0,0,0,0,0,0,0,0,0,0,0,0,0,0,0,0,0,0,0,0,0,0,0,0,0,0,0,0,0,0,0,0,0,0,0,0,0,0,0,0,0,0,0,0,0,0,0,0,0,0,0,0,0,0,0,0,0,0,0,0,0,0,0,0,0,0,0,0,0,0,0,0,0,0,0,0,0,0,0,0,0,0,0,0,0,0,0,0,0,0,0,0,0,0,0,0,0,0,0,0,0,0,0,0,0,0,0,0,0,0,0,0,0,0,0,0,0],"id":2,"left_children":[1,3,5,7,9,11,13,-1,15,17,19,21,23,25,27,29,31,33,35,37,39,41,43,45,47,49,51,53,55,57,59,61,63,65,67,69,71,73,75,77,79,81,83,85,87,89,91,93,95,97,99,101,103,105,107,109,111,-1,113,115,117,119,121,123,125,127,129,131,133,135,137,139,141,143,145,147,149,151,153,155,157,159,161,163,165,167,169,171,173,175,177,179,181,183,185,187,189,191,193,195,197,199,201,203,205,207,209,211,213,215,217,219,221,-1,-1,-1,-1,-1,-1,-1,-1,-1,-1,-1,-1,-1,-1,-1,-1,-1,-1,-1,-1,-1,-1,-1,-1,-1,-1,-1,-1,-1,-1,-1,-1,-1,-1,-1,-1,-1,-1,-1,-1,-1,-1,-1,-1,-1,-1,-1,-1,-1,-1,-1,-1,-1,-1,-1,-1,-1,-1,-1,-1,-1,-1,-1,-1,-1,-1,-1,-1,-1,-1,-1,-1,-1,-1,-1,-1,-1,-1,-1,-1,-1,-1,-1,-1,-1,-1,-1,-1,-1,-1,-1,-1,-1,-1,-1,-1,-1,-1,-1,-1,-1,-1,-1,-1,-1,-1,-1,-1,-1,-1],"loss_changes":[1.4029895E6,1.438344E5,3.554893E5,1.52735E4,1.26750555E5,3.3854658E3,7.4708625E4,0E0,2.5011656E4,3.366625E3,1.6051539E4,1.882709E3,1.5686438E3,1.6785812E4,2.4341188E4,4.5771875E2,4.827875E3,8.7748047E2,1.4376484E3,4.7417344E3,6.7170273E3,2.603373E3,1.2380592E3,2.564465E3,1.9775083E3,7.8599844E3,4.4342188E3,7.565125E3,7.0735625E3,4.9626562E2,2.6860156E2,2.6685938E2,1.693542E3,1.5757812E2,4.6521484E1,5.4159766E2,5.6664136E2,2.0173805E3,7.357217E2,1.5585312E3,9.682783E2,1.8824316E2,5.7449805E2,2.2543593E2,1.4018726E2,2.0518771E2,4.7743213E2,5.211333E2,7.145255E2,2.3030156E3,4.9487305E2,1.5547188E3,5.4033125E3,1.2509062E3,1.1286562E3,3.999336E3,4.7270312E2,0E0,6.6640625E1,1.09484375E2,4.0911217E1,6.0132812E1,1.2622754E2,7.0763184E2,2.4822412E2,1.7111328E1,1.1514648E1,8.049316E0,2.3416016E1,7.647656E1,1.8709949E2,2.2637848E1,3.7189767E2,2.9751892E2,5.240791E2,1.775741E2,8.956299E1,5.877451E2,6.198496E2,1.5370703E2,1.6011133E2,1.0730957E1,8.973999E1,2.2574219E2,6.7229926E2,6.785214E1,1.8886641E2,1.0007434E2,3.723767E1,2.5023819E1,3.0601172E2,1.6398486E2,6.679841E2,5.687207E1,6.267479E2,1.2675098E1,1.1273718E2,9.7733984E2,1.488E3,2.6125E2,7.860547E1,1.34725E3,1.7288017E2,2.5742227E3,1.0499023E3,5.236875E2,2.9604688E2,6.345E2,2.9435938E2,2.3002969E3,2.894336E3,3.8310547E2,2.339414E2,0E0,0E0,0E0,0E0,0E0,0E0,0E0,0E0,0E0,0E0,0E0,0E0,0E0,0E0,0E0,0E0,0E0,0E0,0E0,0E0,0E0,0E0,0E0,0E0,0E0,0E0,0E0,0E0,0E0,0E0,0E0,0E0,0E0,0E0,0E0,0E0,0E0,0E0,0E0,0E0,0E0,0E0,0E0,0E0,0E0,0E0,0E0,0E0,0E0,0E0,0E0,0E0,0E0,0E0,0E0,0E0,0E0,0E0,0E0,0E0,0E0,0E0,0E0,0E0,0E0,0E0,0E0,0E0,0E0,0E0,0E0,0E0,0E0,0E0,0E0,0E0,0E0,0E0,0E0,0E0,0E0,0E0,0E0,0E0,0E0,0E0,0E0,0E0,0E0,0E0,0E0,0E0,0E0,0E0,0E0,0E0,0E0,0E0,0E0,0E0,0E0,0E0,0E0,0E0,0E0,0E0,0E0,0E0,0E0,0E0],"parents":[2147483647,0,0,1,1,2,2,3,3,4,4,5,5,6,6,8,8,9,9,10,10,11,11,12,12,13,13,14,14,15,15,16,16,17,17,18,18,19,19,20,20,21,21,22,22,23,23,24,24,25,25,26,26,27,27,28,28,29,29,30,30,31,31,32,32,33,33,34,34,35,35,36,36,37,37,38,38,39,39,40,40,41,41,42,42,43,43,44,44,45,45,46,46,47,47,48,48,49,49,50,50,51,51,52,52,53,53,54,54,55,55,56,56,58,58,59,59,60,60,61,61,62,62,63,63,64,64,65,65,66,66,67,67,68,68,69,69,70,70,71,71,72,72,73,73,74,74,75,75,76,76,77,77,78,78,79,79,80,80,81,81,82,82,83,83,84,84,85,85,86,86,87,87,88,88,89,89,90,90,91,91,92,92,93,93,94,94,95,95,96,96,97,97,98,98,99,99,100,100,101,101,102,102,103,103,104,104,105,105,106,106,107,107,108,108,109,109,110,110,111,111,112,112],"right_children":[2,4,6,8,10,12,14,-1,16,18,20,22,24,26,28,30,32,34,36,38,40,42,44,46,48,50,52,54,56,58,60,62,64,66,68,70,72,74,76,78,80,82,84,86,88,90,92,94,96,98,100,102,104,106,108,110,112,-1,114,116,118,120,122,124,126,128,130,132,134,136,138,140,142,144,146,148,150,152,154,156,158,160,162,164,166,168,170,172,174,176,178,180,182,184,186,188,190,192,194,196,198,200,202,204,206,208,210,212,214,216,218,220,222,-1,-1,-1,-1,-1,-1,-1,-1,-1,-1,-1,-1,-1,-1,-1,-1,-1,-1,-1,-1,-1,-1,-1,-1,-1,-1,-1,-1,-1,-1,-1,-1,-1,-1,-1,-1,-1,-1,-1,-1,-1,-1,-1,-1,-1,-1,-1,-1,-1,-1,-1,-1,-1,-1,-1,-1,-1,-1,-1,-1,-1,-1,-1,-1,-1,-1,-1,-1,-1,-1,-1,-1,-1,-1,-1,-1,-1,-1,-1,-1,-1,-1,-1,-1,-1,-1,-1,-1,-1,-1,-1,-1,-1,-1,-1,-1,-1,-1,-1,-1,-1,-1,-1,-1,-1,-1,-1,-1,-1,-1],"split_conditions":[6.7924527E-3,1.509434E-3,9.2250924E-4,3.773585E-4,3.030303E-3,2.716981E-2,3.3207547E-2,-6.021121E-2,7.322176E-3,1E0,3.3962263E-3,2.3570226E-1,1E0,1.5471698E-2,7.3323555E-2,1E0,7.54717E-4,3.3962263E-3,3.6514837E-1,4.082483E-1,3.0772874E-1,1E0,9.8E1,8.981132E-2,1.95E2,2.8867513E-1,6.428243E-2,7.773585E-2,1.3E1,7.54717E-4,6.666667E-1,9E0,5.0709254E-1,2.264151E-3,4.1509434E-3,9.2250924E-4,3.8E1,2.264151E-3,5.7735026E-1,4.90566E-3,4.082483E-1,8.679246E-3,1.5466177E-1,7E0,8.82E2,5.9245285E-2,1.6716981E-1,2.254174E-2,7.106691E-2,9.81132E-3,4.082483E-1,1.1E2,1.6222142E-1,4.8301887E-2,1.954717E-1,5.2E-1,3.46E2,-5.4169405E-2,1.1320754E-3,1.1160715E-3,9.2250924E-4,6E-1,2.1212121E-2,1.1320754E-3,6.666667E-1,1.8867925E-3,3.018868E-3,3.773585E-3,6.037736E-3,2E0,4.1509434E-3,6.666667E-1,3.773585E-3,2.7692307E-2,1.724138E-2,6.8421054E-1,6.666667E-1,2.7692307E-2,6.859943E-2,5.283019E-3,5.0709254E-1,7.1698115E-3,1.8490566E-2,1.8490566E-2,1.1E1,6.666667E-1,1.0566038E-2,9.81132E-3,2.581989E-1,5.3207546E-2,7.773585E-2,1.1622641E-1,2.573585E-1,5E0,5E0,8.82E2,2.6572356E-1,7.024393E-2,7.024393E-2,8E0,5.7735026E-1,2.1132076E-2,4.2220034E-2,5E0,7E0,8.7E1,1.55E2,1E0,1.2606043E-2,4E0,1.8490006E-1,8.856149E-2,2.573585E-1,-4.989302E-2,-4.67511E-2,-5.691397E-2,-4.6972502E-2,2.2539724E-2,1.145752E-1,-3.388808E-2,-3.809562E-2,-3.8627397E-2,-1.8079776E-2,-2.3708636E-2,-1.4189965E-2,4.368111E-2,1.2627393E-1,-4.3814756E-2,-4.1440036E-2,-3.826479E-2,-3.586959E-2,-3.4363277E-2,-3.1624597E-2,-3.001788E-2,-2.6155187E-2,-5.1834106E-2,-5.574723E-2,-3.7729397E-2,-2.0887293E-3,-4.299402E-2,9.833148E-3,-2.584907E-3,6.9205604E-2,-2.5852187E-2,-2.5635734E-3,-2.191594E-2,1.1948172E-2,5.4889947E-2,1.0681862E-1,1.3037091E-1,1.7818068E-1,-5.7682744E-3,2.6831329E-2,4.199471E-2,2.5498185E-2,7.3916726E-2,1.0899965E-1,1.3380668E-1,1.7348911E-1,-3.0289073E-2,-2.6264975E-2,-2.0603854E-2,-1.3873914E-2,-4.754196E-2,-3.408665E-2,-3.6595725E-2,2.6256476E-2,-2.8486213E-2,1.7974935E-1,-8.466121E-3,6.818541E-2,5.1847737E-2,1.12710215E-1,7.565935E-2,1.6610189E-1,-5.942201E-3,-1.6797284E-2,2.3341596E-2,-2.5278052E-2,5.3933527E-2,8.5911304E-2,-6.2018543E-2,7.082202E-2,-3.6657717E-2,-5.179433E-2,-2.683478E-2,1.8481351E-2,-3.9857954E-2,6.7962534E-3,1.4092033E-1,3.386361E-2,5.582515E-2,3.8448326E-2,7.118999E-2,5.345728E-2,1.0841083E-1,1.4254373E-1,1.5915668E-1,1.9325839E-1,9.022217E-2,1.0444956E-1,1.2421254E-2,6.5830246E-2,4.823318E-2,8.315437E-2,9.154134E-2,1.24745466E-1,1.1698987E-1,5.599739E-2,1.3122934E-1,7.496171E-2,1.5091315E-1,1.3547105E-1,1.6803746E-1,1.4781953E-1,2.9947707E-2,8.046772E-2,8.1684515E-2,1.2537341E-1,1.4606844E-1,1.1437283E-1,1.3774543E-1,1.8471949E-1],"split_indices":[1,1,4,1,4,1,1,0,4,3,1,0,3,1,0,3,1,1,0,0,0,3,3,1,3,0,0,1,3,1,0,3,0,1,1,4,3,1,0,1,0,1,0,3,3,1,1,0,0,1,0,3,0,1,1,4,3,0,1,4,4,4,4,1,0,1,1,1,1,3,1,0,1,4,4,4,0,4,0,1,0,1,1,1,3,0,1,1,0,1,1,1,1,3,3,3,0,0,0,3,0,1,0,3,3,3,3,3,0,3,0,0,1,0,0,0,0,0,0,0,0,0,0,0,0,0,0,0,0,0,0,0,0,0,0,0,0,0,0,0,0,0,0,0,0,0,0,0,0,0,0,0,0,0,0,0,0,0,0,0,0,0,0,0,0,0,0,0,0,0,0,0,0,0,0,0,0,0,0,0,0,0,0,0,0,0,0,0,0,0,0,0,0,0,0,0,0,0,0,0,0,0,0,0,0,0,0,0,0,0,0,0,0,0,0,0,0,0,0,0,0,0,0],"split_type":[0,0,0,0,0,0,0,0,0,0,0,0,0,0,0,0,0,0,0,0,0,0,0,0,0,0,0,0,0,0,0,0,0,0,0,0,0,0,0,0,0,0,0,0,0,0,0,0,0,0,0,0,0,0,0,0,0,0,0,0,0,0,0,0,0,0,0,0,0,0,0,0,0,0,0,0,0,0,0,0,0,0,0,0,0,0,0,0,0,0,0,0,0,0,0,0,0,0,0,0,0,0,0,0,0,0,0,0,0,0,0,0,0,0,0,0,0,0,0,0,0,0,0,0,0,0,0,0,0,0,0,0,0,0,0,0,0,0,0,0,0,0,0,0,0,0,0,0,0,0,0,0,0,0,0,0,0,0,0,0,0,0,0,0,0,0,0,0,0,0,0,0,0,0,0,0,0,0,0,0,0,0,0,0,0,0,0,0,0,0,0,0,0,0,0,0,0,0,0,0,0,0,0,0,0,0,0,0,0,0,0,0,0,0,0,0,0,0,0,0,0,0,0],"sum_hessian":[1.3884915E6,9.4507756E5,4.434139E5,6.074976E5,3.3757994E5,7.9752E4,3.636619E5,2.044351E5,4.030625E5,1.5034788E5,1.8723208E5,6.0897258E4,1.8854742E4,2.165756E5,1.4708631E5,2.4787275E5,1.5518975E5,9.39542E4,5.6393668E4,9.8609625E4,8.862245E4,5.975987E4,1.1373893E3,1.1109735E4,7.745008E3,1.155348E5,1.010408E5,1.0267783E5,4.4408492E4,1.6985466E5,7.801809E4,7.489189E4,8.029786E4,5.9160535E4,3.4793668E4,5.5191453E4,1.2022144E3,9.746403E4,1.1455989E3,8.621943E4,2.4030227E3,3.7041613E4,2.2718256E4,7.408506E2,3.9653876E2,9.102073E3,2.0076615E3,7.3729653E3,3.720424E2,1.12243305E5,3.29149E3,6.897755E4,3.206325E4,5.956151E4,4.3116316E4,3.36386E4,1.0769891E4,9.7166266E4,7.268839E4,7.795763E4,6.0458008E1,7.1157164E4,3.734726E3,7.99301E4,3.6776065E2,3.2445195E4,2.671534E4,1.137121E4,2.3422457E4,5.3615055E4,1.5763993E3,4.7369904E2,7.285154E2,4.828298E4,4.9181047E4,7.0751215E2,4.380868E2,4.504093E4,4.1178496E4,1.3215403E3,1.0814824E3,9.389739E3,2.7651875E4,2.074936E4,1.968897E3,4.2063376E2,3.2021683E2,2.839351E2,1.1260367E2,7.293914E3,1.8081594E3,1.6295271E3,3.7813434E2,3.7303806E3,3.642585E3,9.053126E1,2.815111E2,4.9723176E4,6.2520133E4,2.295119E3,9.963712E2,6.82085E4,7.6905035E2,2.2376254E4,9.686995E3,2.964075E4,2.992076E4,3.1131312E4,1.1985003E4,9.221064E3,2.441754E4,7.5503994E3,3.2194912E3,4.5102742E4,2.7585645E4,7.504814E4,2.9094937E3,4.4518467E1,1.5939542E1,9.967254E3,6.1189914E4,1.0349983E3,2.6997278E3,4.598669E4,3.3943406E4,1.7259389E2,1.9516676E2,1.8778104E4,1.3667092E4,1.950561E4,7.2097314E3,6.0891245E3,5.282086E3,1.833959E4,5.0828667E3,2.0569285E4,3.304577E4,9.903748E2,5.8602454E2,4.528224E2,2.0876657E1,4.0307645E2,3.2543893E2,1.4117659E3,4.6871215E4,1.1694663E3,4.8011582E4,4.4084357E2,2.6666858E2,1.9533456E2,2.4275221E2,1.4275629E3,4.3613367E4,3.4345324E4,6.833173E3,7.887434E2,5.327969E2,5.873216E2,4.9416086E2,2.2326943E3,7.157045E3,2.1173215E4,6.4786587E3,1.6911936E4,3.8374229E3,1.3483506E3,6.2054645E2,4.176683E2,2.9654334E0,1.6408452E2,1.5613231E2,1.1876604E2,1.6516905E2,1.5697914E1,9.6905754E1,6.717982E3,5.7593207E2,1.387018E3,4.2114145E2,7.57194E2,8.723331E2,1.7680045E2,2.0133388E2,2.9331677E3,7.972129E2,2.555867E3,1.0867179E3,7.272042E1,1.781084E1,2.534655E2,2.8045622E1,3.953585E4,1.0187322E4,4.6645754E4,1.5874378E4,1.1314678E3,1.1636511E3,7.352403E2,2.611309E2,2.9112285E4,3.909621E4,5.6231494E2,2.0673543E2,1.3839759E4,8.536496E3,5.394274E3,4.292721E3,2.928182E4,3.589296E2,2.9680668E4,2.4009064E2,2.1261057E4,9.870255E3,9.673678E3,2.3113257E3,5.3000186E3,3.9210461E3,1.971887E4,4.6986685E3,1.1383986E3,6.412001E3,2.9178447E3,3.016466E2],"tree_param":{"num_deleted":"0","num_feature":"6","num_nodes":"223","size_leaf_vector":"1"}},{"base_weights":[-3.9200247E-3,-6.996351E-1,1.2852372E0,-9.647301E-1,-1.9887106E-1,-4.597707E-1,1.6655166E0,-5.9614506E-2,-8.506866E-1,-8.423121E-1,3.119029E-1,-7.371643E-1,-1.8032385E-1,1.1972861E0,2.0340807E0,-1.0504473E0,-5.3749883E-1,-8.9407724E-1,-6.321959E-1,4.9117792E-2,5.608773E-1,-7.583637E-1,1.0273585E0,-2.4780957E-1,1.0741552E0,1.1472559E0,2.1505752E0,2.2268012E0,1.5482148E0,-1.0865682E0,-1.0039448E0,-7.192533E-1,-3.7021685E-1,-8.9855486E-1,5.0569266E-1,-6.410432E-1,1.423095E0,2.9295363E-2,1.9834462E0,5.2672845E-1,2.401082E0,-9.583519E-1,-6.120774E-1,-4.9482334E-1,1.8094305E0,-2.9773912E-1,5.033771E-1,1.8869597E0,-4.1250363E-1,9.7796994E-1,1.3946931E0,1.8847381E0,2.627957E0,1.9912498E0,2.5951743E0,1.3875952E0,2.0715942E0,-5.4371614E-2,-9.6809673E-1,-1.0050883E0,8.733543E-1,-5.5959225E-1,-7.389869E-1,-3.771256E-1,2.2441819E0,-8.6755437E-1,-1.1128714E0,1.5945502E-1,1.3719352E0,-6.9354635E-1,-5.167547E-1,1.0628068E0,2.3877172E0,-6.960834E-2,1.6530062E-1,1.3678398E0,2.6070135E0,4.18879E-1,6.735539E-1,1.9411261E0,2.9288893E0,-7.509804E-1,-9.989692E-1,-4.644684E-1,-8.56052E-1,-9.4271386E-1,2.6635659E0,1.1619283E0,2.467776E0,-4.0368465E-1,-8.449374E-2,3.2810235E-1,1.0302583E0,2.154343E0,-2.9354733E-1,-1.1693782E0,1.19553536E-1,1.0563424E0,6.496199E-1,1.5146174E0,1.059862E0,1.5110362E0,2.0393677E0,2.8790233E0,2.277015E0,1.8370001E0,2.1383169E0,2.4665723E0,2.79514E0,2.089347E0,1.2656621E0,2.7036939E0,1.9895271E0,-5.0805807E-2,-4.7048956E-2,-4.996739E-2,-5.7471454E-2,1.509796E-2,1.0625233E-1,-2.862521E-2,1.4375544E-2,-3.3804838E-2,-3.7218586E-2,-2.277842E-2,-1.3583051E-2,9.820779E-2,1.230994E-1,-4.5538332E-2,-3.947183E-2,-5.7142343E-2,-1.5881954E-2,1.0747907E-3,1.23102605E-1,4.5874935E-2,1.0147834E-1,-3.1548955E-2,-3.901178E-2,-2.6073465E-2,5.894805E-2,-1.7105943E-2,6.828265E-2,8.841465E-2,1.6509008E-1,3.2798085E-2,-4.1616834E-3,2.923727E-2,6.5823332E-3,5.1416673E-2,1.0089046E-1,1.06081426E-1,1.4919114E-1,5.7287093E-2,1.9895533E-2,5.6001194E-2,3.1645864E-2,8.692743E-2,1.1190011E-1,1.3089472E-1,1.6136032E-1,-5.2723892E-2,-2.834839E-2,-5.0176073E-2,2.296467E-2,-2.4976103E-2,-3.9049357E-3,-4.6197634E-2,9.913968E-4,-2.8663417E-3,-5.4023214E-2,7.83124E-2,1.6227123E-1,-2.0704417E-2,8.76334E-2,1.2693308E-1,-3.7384424E-2,-1.3413581E-2,-3.623289E-2,3.524311E-2,-9.428516E-3,5.9416047E-3,3.0384824E-2,6.743272E-2,-1.802459E-2,7.6969884E-2,1.4248116E-1,-4.305418E-2,1.2952822E-1,-6.1341196E-2,-5.1659357E-2,3.6486693E-2,-5.4558326E-2,7.950974E-2,5.140094E-2,2.5355948E-2,5.0332215E-2,8.659152E-2,7.2615795E-2,8.236906E-2,4.119738E-2,8.305368E-2,5.6226015E-2,1.11139916E-1,7.363134E-2,1.2871256E-1,1.592569E-1,1.2050388E-1,8.9472935E-2,1.0672774E-1,9.066687E-2,1.0842339E-1,8.874886E-2,1.2642728E-1,1.137568E-1,1.3645494E-1,1.5308686E-1,9.25154E-2,1.1146798E-1,5.0233096E-2,6.981145E-2,1.3177516E-1,1.9719921E-1,8.6819135E-2,1.0892192E-1],"categories":[],"categories_nodes":[],"categories_segments":[],"categories_sizes":[],"default_left":[0,0,0,0,0,0,0,0,0,0,0,0,0,0,0,0,0,0,0,0,0,0,0,0,0,0,0,0,0,0,0,0,0,0,0,0,0,0,0,0,0,0,0,0,0,0,0,0,0,0,0,0,0,0,0,0,0,0,0,0,0,0,0,0,0,0,0,0,0,0,0,0,0,0,0,0,0,0,0,0,0,0,0,0,0,0,0,0,0,0,0,0,0,0,0,0,0,0,0,0,0,0,0,0,0,0,0,0,0,0,0,0,0,0,0,0,0,0,0,0,0,0,0,0,0,0,0,0,0,0,0,0,0,0,0,0,0,0,0,0,0,0,0,0,0,0,0,0,0,0,0,0,0,0,0,0,0,0,0,0,0,0,0,0,0,0,0,0,0,0,0,0,0,0,0,0,0,0,0,0,0,0,0,0,0,0,0,0,0,0,0,0,0,0,0,0,0,0,0,0,0,0,0,0,0,0,0,0,0,0,0,0,0,0,0,0,0,0,0,0,0,0,0],"id":3,"left_children":[1,3,5,7,9,11,13,-1,15,17,19,21,23,25,27,29,31,33,35,37,39,41,43,45,47,49,51,53,55,57,59,61,63,65,67,69,71,73,75,77,79,81,83,85,87,89,91,93,95,97,99,101,103,105,107,109,111,-1,113,115,117,119,121,123,125,127,129,131,133,135,137,139,141,143,145,147,149,151,153,155,157,159,161,163,165,167,169,171,173,175,177,179,181,183,185,187,189,191,193,195,197,199,201,203,205,207,209,211,213,215,217,219,221,-1,-1,-1,-1,-1,-1,-1,-1,-1,-1,-1,-1,-1,-1,-1,-1,-1,-1,-1,-1,-1,-1,-1,-1,-1,-1,-1,-1,-1,-1,-1,-1,-1,-1,-1,-1,-1,-1,-1,-1,-1,-1,-1,-1,-1,-1,-1,-1,-1,-1,-1,-1,-1,-1,-1,-1,-1,-1,-1,-1,-1,-1,-1,-1,-1,-1,-1,-1,-1,-1,-1,-1,-1,-1,-1,-1,-1,-1,-1,-1,-1,-1,-1,-1,-1,-1,-1,-1,-1,-1,-1,-1,-1,-1,-1,-1,-1,-1,-1,-1,-1,-1,-1,-1,-1,-1,-1,-1,-1,-1],"loss_changes":[1.241448E6,1.193435E5,3.2195212E5,1.52540625E4,1.0227223E5,6.729242E3,6.874275E4,0E0,2.4498031E4,1.49725E3,1.1350039E4,1.6304336E3,3.6615493E3,8.3656875E3,2.0868E4,4.0046875E2,4.6363594E3,6.929375E2,4.9594336E2,3.2360613E3,5.5965703E3,1.2588359E3,6.170988E2,1.5394229E3,2.668769E3,6.9816875E3,1.1052188E3,1.38428125E4,5.3190625E3,1.2734375E1,2.2530469E2,2.2986328E2,1.4352236E3,7.307578E2,1.0563575E2,1.7653613E2,3.812381E1,1.123796E3,3.2507007E2,1.3846133E3,3.8824414E2,1.5241797E2,8.950762E2,2.5214372E2,1.4298535E2,8.693904E2,2.3590967E2,8.3300635E2,3.147589E2,2.5466953E3,2.7176719E3,3.2181836E2,2.6891406E2,2.2045E3,1.59375E3,4.1425703E3,7.656836E2,0E0,3.242798E-1,8.5421875E1,4.5257828E1,8.814575E1,2.1523438E1,6.551338E2,7.9385986E0,3.2408594E2,3.313086E2,8.040588E1,2.8218323E1,1.0285742E2,6.5005615E1,3.747682E1,1.1721405E1,4.7824805E2,4.9644922E2,9.345422E1,7.1254395E1,7.6806055E2,6.7121484E2,4.843286E1,6.1469727E1,1.6596289E2,1.01384766E2,2.0981299E2,5.5739453E2,1.8877487E1,9.0772705E0,1.630824E2,4.0365112E1,1.1172437E3,1.0496045E3,1.1233185E2,2.8305206E2,5.394004E2,2.5892633E2,1.2563171E0,3.403878E2,1.2067031E3,9.7007324E2,6.7221094E2,2.4743906E3,9.378516E1,4.0986133E2,1.6148535E2,8.058838E1,3.3073438E2,5.420156E2,4.4376562E2,4.2045312E2,2.3583984E2,1.4051719E3,1.3383301E2,6.255508E2,0E0,0E0,0E0,0E0,0E0,0E0,0E0,0E0,0E0,0E0,0E0,0E0,0E0,0E0,0E0,0E0,0E0,0E0,0E0,0E0,0E0,0E0,0E0,0E0,0E0,0E0,0E0,0E0,0E0,0E0,0E0,0E0,0E0,0E0,0E0,0E0,0E0,0E0,0E0,0E0,0E0,0E0,0E0,0E0,0E0,0E0,0E0,0E0,0E0,0E0,0E0,0E0,0E0,0E0,0E0,0E0,0E0,0E0,0E0,0E0,0E0,0E0,0E0,0E0,0E0,0E0,0E0,0E0,0E0,0E0,0E0,0E0,0E0,0E0,0E0,0E0,0E0,0E0,0E0,0E0,0E0,0E0,0E0,0E0,0E0,0E0,0E0,0E0,0E0,0E0,0E0,0E0,0E0,0E0,0E0,0E0,0E0,0E0,0E0,0E0,0E0,0E0,0E0,0E0,0E0,0E0,0E0,0E0,0E0,0E0],"parents":[2147483647,0,0,1,1,2,2,3,3,4,4,5,5,6,6,8,8,9,9,10,10,11,11,12,12,13,13,14,14,15,15,16,16,17,17,18,18,19,19,20,20,21,21,22,22,23,23,24,24,25,25,26,26,27,27,28,28,29,29,30,30,31,31,32,32,33,33,34,34,35,35,36,36,37,37,38,38,39,39,40,40,41,41,42,42,43,43,44,44,45,45,46,46,47,47,48,48,49,49,50,50,51,51,52,52,53,53,54,54,55,55,56,56,58,58,59,59,60,60,61,61,62,62,63,63,64,64,65,65,66,66,67,67,68,68,69,69,70,70,71,71,72,72,73,73,74,74,75,75,76,76,77,77,78,78,79,79,80,80,81,81,82,82,83,83,84,84,85,85,86,86,87,87,88,88,89,89,90,90,91,91,92,92,93,93,94,94,95,95,96,96,97,97,98,98,99,99,100,100,101,101,102,102,103,103,104,104,105,105,106,106,107,107,108,108,109,109,110,110,111,111,112,112],"right_children":[2,4,6,8,10,12,14,-1,16,18,20,22,24,26,28,30,32,34,36,38,40,42,44,46,48,50,52,54,56,58,60,62,64,66,68,70,72,74,76,78,80,82,84,86,88,90,92,94,96,98,100,102,104,106,108,110,112,-1,114,116,118,120,122,124,126,128,130,132,134,136,138,140,142,144,146,148,150,152,154,156,158,160,162,164,166,168,170,172,174,176,178,180,182,184,186,188,190,192,194,196,198,200,202,204,206,208,210,212,214,216,218,220,222,-1,-1,-1,-1,-1,-1,-1,-1,-1,-1,-1,-1,-1,-1,-1,-1,-1,-1,-1,-1,-1,-1,-1,-1,-1,-1,-1,-1,-1,-1,-1,-1,-1,-1,-1,-1,-1,-1,-1,-1,-1,-1,-1,-1,-1,-1,-1,-1,-1,-1,-1,-1,-1,-1,-1,-1,-1,-1,-1,-1,-1,-1,-1,-1,-1,-1,-1,-1,-1,-1,-1,-1,-1,-1,-1,-1,-1,-1,-1,-1,-1,-1,-1,-1,-1,-1,-1,-1,-1,-1,-1,-1,-1,-1,-1,-1,-1,-1,-1,-1,-1,-1,-1,-1,-1,-1,-1,-1,-1,-1],"split_conditions":[6.037736E-3,1.509434E-3,9.2250924E-4,3.773585E-4,3.030303E-3,1.2519562E-2,2.0377358E-2,-5.9614506E-2,7.322176E-3,4.6948357E-3,3.018868E-3,3.0772874E-1,1.1319771E-1,2.3570226E-1,7.8506865E-2,7.54717E-4,7.54717E-4,5.0709254E-1,3.4815532E-1,4.472136E-1,3.6514837E-1,7.824726E-3,4.173187E-3,1.1433239E-1,1.6716981E-1,1.2452831E-2,3.3333334E-1,6.2264152E-2,1.7768915E-1,2.3364485E-3,6.666667E-1,4.6153846E-1,6.666667E-1,4.9346376E-2,3.773585E-3,6.259781E-3,5.7381326E-3,2.264151E-3,5.7735026E-1,4.528302E-3,4.7140452E-1,6.4150942E-3,9.81132E-3,5.7735026E-1,3.6514837E-1,2.921231E-2,2.1320072E-1,1.2606043E-2,2.1178925E-1,7.024393E-2,6.604582E-2,8.679246E-3,6.7814295E-3,3.3207547E-2,1.2641509E-1,3.482587E-2,1.6171101E-2,-5.4371614E-2,3.7700282E-3,6.78356E-2,9.2250924E-4,4.3667296E-1,6.25E-1,1.1320754E-3,1.1320754E-3,3.1298904E-3,9.2250924E-4,9.2250924E-4,6.666667E-1,4.528302E-3,2.6874194E-1,3.7796447E-1,4.2426407E-1,1.0432968E-3,2.0865935E-3,7.692308E-1,6.666667E-1,2.0865935E-3,3.6515389E-3,7.5E-1,5.7735026E-1,5.7381326E-3,3.018868E-2,1.1476265E-2,1.2991396E-1,6.4150942E-3,6.666667E-1,5.7381326E-3,1.8113207E-2,2.1509433E-2,2.9056603E-2,2.2430882E-2,4.8301887E-2,1.4397496E-1,1.7110068E-1,2.4334814E-2,3.082942E-1,4.6948357E-3,1.6666667E-1,7.1428573E-1,1.2519562E-2,7.824726E-3,1.3562859E-2,4.2426407E-1,1.2519562E-2,1.5649453E-2,5.8722023E-2,1.2606043E-2,3.6603773E-1,3.8490567E-2,5.2E-1,5.0709254E-1,5.4545456E-1,-5.0805807E-2,-4.7048956E-2,-4.996739E-2,-5.7471454E-2,1.509796E-2,1.0625233E-1,-2.862521E-2,1.4375544E-2,-3.3804838E-2,-3.7218586E-2,-2.277842E-2,-1.3583051E-2,9.820779E-2,1.230994E-1,-4.5538332E-2,-3.947183E-2,-5.7142343E-2,-1.5881954E-2,1.0747907E-3,1.23102605E-1,4.5874935E-2,1.0147834E-1,-3.1548955E-2,-3.901178E-2,-2.6073465E-2,5.894805E-2,-1.7105943E-2,6.828265E-2,8.841465E-2,1.6509008E-1,3.2798085E-2,-4.1616834E-3,2.923727E-2,6.5823332E-3,5.1416673E-2,1.0089046E-1,1.06081426E-1,1.4919114E-1,5.7287093E-2,1.9895533E-2,5.6001194E-2,3.1645864E-2,8.692743E-2,1.1190011E-1,1.3089472E-1,1.6136032E-1,-5.2723892E-2,-2.834839E-2,-5.0176073E-2,2.296467E-2,-2.4976103E-2,-3.9049357E-3,-4.6197634E-2,9.913968E-4,-2.8663417E-3,-5.4023214E-2,7.83124E-2,1.6227123E-1,-2.0704417E-2,8.76334E-2,1.2693308E-1,-3.7384424E-2,-1.3413581E-2,-3.623289E-2,3.524311E-2,-9.428516E-3,5.9416047E-3,3.0384824E-2,6.743272E-2,-1.802459E-2,7.6969884E-2,1.4248116E-1,-4.305418E-2,1.2952822E-1,-6.1341196E-2,-5.1659357E-2,3.6486693E-2,-5.4558326E-2,7.950974E-2,5.140094E-2,2.5355948E-2,5.0332215E-2,8.659152E-2,7.2615795E-2,8.236906E-2,4.119738E-2,8.305368E-2,5.6226015E-2,1.11139916E-1,7.363134E-2,1.2871256E-1,1.592569E-1,1.2050388E-1,8.9472935E-2,1.0672774E-1,9.066687E-2,1.0842339E-1,8.874886E-2,1.2642728E-1,1.137568E-1,1.3645494E-1,1.5308686E-1,9.25154E-2,1.1146798E-1,5.0233096E-2,6.981145E-2,1.3177516E-1,1.9719921E-1,8.6819135E-2,1.0892192E-1],"split_indices":[1,1,4,1,4,2,1,0,4,2,1,0,2,0,0,1,1,0,0,0,0,2,2,0,1,1,0,1,0,4,0,4,0,0,1,2,2,1,0,1,0,1,1,0,0,2,0,0,2,0,0,1,2,1,1,4,2,0,4,0,4,4,4,1,1,2,4,4,0,1,0,0,0,2,2,4,0,2,2,4,0,2,1,2,0,1,0,2,1,1,1,2,1,2,2,0,2,2,0,4,2,2,2,0,2,2,0,0,1,1,4,0,4,0,0,0,0,0,0,0,0,0,0,0,0,0,0,0,0,0,0,0,0,0,0,0,0,0,0,0,0,0,0,0,0,0,0,0,0,0,0,0,0,0,0,0,0,0,0,0,0,0,0,0,0,0,0,0,0,0,0,0,0,0,0,0,0,0,0,0,0,0,0,0,0,0,0,0,0,0,0,0,0,0,0,0,0,0,0,0,0,0,0,0,0,0,0,0,0,0,0,0,0,0,0,0,0,0,0,0,0,0,0],"split_type":[0,0,0,0,0,0,0,0,0,0,0,0,0,0,0,0,0,0,0,0,0,0,0,0,0,0,0,0,0,0,0,0,0,0,0,0,0,0,0,0,0,0,0,0,0,0,0,0,0,0,0,0,0,0,0,0,0,0,0,0,0,0,0,0,0,0,0,0,0,0,0,0,0,0,0,0,0,0,0,0,0,0,0,0,0,0,0,0,0,0,0,0,0,0,0,0,0,0,0,0,0,0,0,0,0,0,0,0,0,0,0,0,0,0,0,0,0,0,0,0,0,0,0,0,0,0,0,0,0,0,0,0,0,0,0,0,0,0,0,0,0,0,0,0,0,0,0,0,0,0,0,0,0,0,0,0,0,0,0,0,0,0,0,0,0,0,0,0,0,0,0,0,0,0,0,0,0,0,0,0,0,0,0,0,0,0,0,0,0,0,0,0,0,0,0,0,0,0,0,0,0,0,0,0,0,0,0,0,0,0,0,0,0,0,0,0,0,0,0,0,0,0,0],"sum_hessian":[1.3841738E6,8.9900906E5,4.851647E5,5.878248E5,3.1118428E5,8.6810875E4,3.983538E5,1.962408E5,3.91584E5,1.3770788E5,1.734764E5,4.3564664E4,4.324621E4,1.7545586E5,2.2289797E5,2.3908555E5,1.5249844E5,1.1048503E5,2.7222846E4,8.439801E4,8.90784E4,4.3048043E4,5.1661975E2,4.1039273E4,2.2069382E3,1.6670888E5,8.74697E3,1.5959172E5,6.3306246E4,1.3455081E5,1.0453474E5,7.308603E4,7.9412414E4,1.101331E5,3.5193567E2,2.710685E4,1.159973E2,8.354291E4,8.5510803E2,8.7456734E4,1.621658E3,1.818363E4,2.4864412E4,1.7546724E2,3.411525E2,3.8482066E4,2.5572056E3,1.4266652E3,7.8027313E2,9.8989484E4,6.77194E4,5.621503E3,3.1254666E3,9.734933E4,6.224239E4,4.844319E4,1.4863053E4,1.3356853E5,9.8227606E2,1.0447156E5,6.3176186E1,8.042787E3,6.5043242E4,7.920397E4,2.084459E2,9.62201E4,1.3912994E4,2.5228235E2,9.965332E1,1.9053502E4,8.053346E3,8.598393E1,3.0013365E1,4.8369125E4,3.5173777E4,4.319077E2,4.232003E2,5.0422863E4,3.703387E4,8.690259E2,7.526321E2,2.9814316E3,1.5202198E4,1.5493479E4,9.370935E3,1.5428906E2,2.1178177E1,1.733866E2,1.677659E2,2.5708541E4,1.2773526E4,1.9200844E3,6.3712115E2,1.270841E3,1.5582411E2,3.215939E2,4.5867923E2,7.991315E4,1.9076332E4,4.9858406E4,1.7860994E4,1.6484281E3,3.9730747E3,1.8177981E3,1.3076685E3,4.7520953E4,4.9828375E4,3.7888715E4,2.4353674E4,7.168835E3,4.1274355E4,1.704291E3,1.3158762E4,3.413489E2,6.409272E2,1.0048316E5,3.9884077E3,4.4227608E1,1.8948578E1,7.9223545E3,1.2043255E2,5.1398823E3,5.990336E4,4.541885E4,3.3785113E4,9.557989E1,1.1286602E2,6.194404E4,3.4276066E4,1.3407189E4,5.058052E2,2.3897366E2,1.3308678E1,6.0347286E1,3.930603E1,1.1071215E4,7.9822876E3,8.0317085E3,2.1637909E1,1.5224884E1,7.075905E1,1.9639359E1,1.0374007E1,8.907024E2,4.747842E4,2.6113196E3,3.2562459E4,2.854088E2,1.4649892E2,1.8785124E2,2.3534906E2,1.4122974E3,4.9010566E4,3.0873142E3,3.394656E4,5.206259E2,3.484E2,3.7327213E2,3.7935995E2,1.1235676E3,1.857864E3,1.51552E4,4.6998043E1,1.4204475E4,1.2890039E3,8.6966875E3,6.742469E2,2.096342E1,1.3332564E2,8.617803E0,1.2560374E1,4.7353275E1,1.2603333E2,1.6435316E2,3.4127214E0,1.8081926E4,7.626615E3,1.4873247E3,1.1286201E4,1.0989607E3,8.211236E2,5.1845685E2,1.1866434E2,6.7608606E2,5.9475494E2,1.3078888E2,2.5035227E1,2.2055518E2,1.0103873E2,3.052408E2,1.534384E2,4.0234036E3,7.588975E4,1.3636105E4,5.440227E3,1.1107088E4,3.875132E4,5.115475E3,1.2745519E4,1.1850996E3,4.633285E2,2.9993782E3,9.7369653E2,9.156113E2,9.021868E2,1.0242028E3,2.8346567E2,3.4940967E3,4.4026855E4,4.6005742E4,3.822636E3,2.8613518E4,9.275198E3,1.9527562E4,4.826111E3,2.6532524E3,4.5155825E3,1.3765706E4,2.750865E4,1.6184348E3,8.585624E1,5.627718E3,7.5310435E3],"tree_param":{"num_deleted":"0","num_feature":"6","num_nodes":"223","size_leaf_vector":"1"}},{"base_weights":[-5.59875E-3,-6.8178344E-1,1.1811969E0,-9.477069E-1,-1.9128078E-1,6.76797E-1,1.6238198E0,-5.905805E-2,-8.321022E-1,-3.883651E-1,1.8976793E-2,6.2301797E-1,1.6328957E0,1.3420938E0,1.9090745E0,-9.3896216E-1,-7.124717E-1,-4.026579E-1,1.0958763E0,-1.1130167E-2,1.3170526E0,4.0009624E-1,8.408779E-1,1.3571292E0,2.1468189E0,1.3194743E0,1.8393053E0,2.1733544E0,1.6480404E0,-9.415575E-1,-8.6554855E-1,-7.16436E-1,1.7369878E0,-4.7263515E-1,-3.003079E-1,6.057663E-1,1.9784087E0,3.7670866E-2,-3.2227212E-1,9.2025745E-1,1.9502361E0,4.4944936E-1,1.2790951E-1,7.326031E-1,9.751987E-1,1.0906503E0,1.710918E0,1.9837675E0,2.5901177E0,1.4459853E0,1.1799209E0,2.2206736E0,1.6074585E0,2.007621E0,2.5337157E0,1.5440333E0,2.0061572E0,-4.651718E-2,-9.7341233E-1,-8.5842365E-1,-5.5700447E-2,-7.6981777E-1,-6.3722163E-1,1.4411584E0,2.1607192E0,-4.588535E-1,-7.365485E-1,-2.7099267E-1,-6.0049945E-1,-2.078239E-1,6.9639707E-1,1.5225282E0,2.329636E0,-7.559284E-2,1.4141074E-1,-7.202743E-1,-1.2546736E-1,5.408706E-1,1.1795638E0,1.7731822E0,2.50494E0,3.9497823E-1,6.447658E-1,-6.8051416E-1,2.4143678E-1,7.157046E-1,1.057116E0,9.5866996E-1,1.4102806E0,1.7955472E-1,1.1987126E0,1.5034938E0,2.2904303E0,1.6969619E0,2.174625E0,2.4133542E0,2.897885E0,1.2436688E0,1.640822E0,1.0851095E0,1.4801937E0,2.1575677E0,3.090667E0,1.4726998E0,2.0084226E0,1.8542832E0,2.1177187E0,2.4328084E0,2.6985757E0,1.7928286E0,1.2658886E0,2.885183E-1,2.0792024E0,-4.8915695E-2,-4.5749296E-2,-4.3529537E-2,-2.6159612E-2,-3.8245592E-2,-4.890124E-2,-3.1983685E-2,3.1132216E-2,5.5634815E-2,8.654563E-2,8.712093E-2,1.2470924E-1,-2.5202548E-2,-2.0007623E-2,-4.4323597E-2,-1.3304802E-2,-1.3065628E-2,-4.2242765E-2,-3.633629E-2,1.8128986E-3,4.48494E-3,-4.7784097E-2,3.875021E-2,2.6764476E-3,4.1030835E-2,9.830364E-2,1.2566407E-1,6.17535E-2,-3.2066777E-3,-2.8173849E-2,7.6154666E-3,-2.1688517E-2,-4.329618E-2,-1.7115308E-2,-1.5862485E-2,1.6040748E-2,3.595678E-2,-3.3105512E-3,4.594294E-2,8.066061E-2,7.558425E-2,1.0480171E-1,1.4563368E-1,8.60929E-2,1.8836835E-2,4.9709193E-2,3.9918598E-2,8.827346E-3,-4.524478E-2,-1.4873262E-2,4.648523E-3,2.4555214E-2,3.8068686E-2,2.2753483E-2,4.0255003E-2,7.0520304E-2,5.0801765E-2,3.6149886E-2,5.732459E-2,1.0219379E-1,-1.6575327E-2,2.8810486E-2,4.894067E-2,7.854027E-2,8.222137E-2,5.1646214E-2,1.0437884E-1,1.2950628E-1,7.459036E-2,1.0447308E-1,1.1255985E-1,6.704172E-2,9.5339864E-2,1.2501296E-1,1.489859E-1,1.1576674E-1,5.7617392E-2,6.933587E-2,7.8687035E-2,9.474423E-2,6.446698E-2,4.1183334E-2,1.44877955E-2,8.369442E-2,1.0316513E-1,1.4045176E-1,1.6866355E-1,1.260951E-1,7.11423E-2,1.1318958E-1,1.1581545E-1,8.143895E-2,8.915629E-2,1.01090096E-1,1.3318941E-1,1.0532948E-1,1.558312E-1,1.21010534E-1,1.3150628E-1,1.3855389E-1,8.416865E-2,9.9779464E-2,5.1896688E-2,8.2590126E-2,3.637401E-2,-1.3750738E-2,1.1512448E-1,9.672098E-2],"categories":[],"categories_nodes":[],"categories_segments":[],"categories_sizes":[],"default_left":[0,0,0,0,0,0,0,0,0,0,0,0,0,0,0,0,0,0,0,0,0,0,0,0,0,0,0,0,0,0,0,0,0,0,0,0,0,0,0,0,0,0,0,0,0,0,0,0,0,0,0,0,0,0,0,0,0,0,0,0,0,0,0,0,0,0,0,0,0,0,0,0,0,0,0,0,0,0,0,0,0,0,0,0,0,0,0,0,0,0,0,0,0,0,0,0,0,0,0,0,0,0,0,0,0,0,0,0,0,0,0,0,0,0,0,0,0,0,0,0,0,0,0,0,0,0,0,0,0,0,0,0,0,0,0,0,0,0,0,0,0,0,0,0,0,0,0,0,0,0,0,0,0,0,0,0,0,0,0,0,0,0,0,0,0,0,0,0,0,0,0,0,0,0,0,0,0,0,0,0,0,0,0,0,0,0,0,0,0,0,0,0,0,0,0,0,0,0,0,0,0,0,0,0,0,0,0,0,0,0,0,0,0,0,0,0,0,0,0,0,0],"id":4,"left_children":[1,3,5,7,9,11,13,-1,15,17,19,21,23,25,27,29,31,33,35,37,39,41,43,45,47,49,51,53,55,57,59,61,63,65,67,69,71,73,75,77,79,81,83,85,87,89,91,93,95,97,99,101,103,105,107,109,111,-1,113,115,-1,117,119,121,123,125,127,129,131,133,135,137,139,141,143,145,147,149,151,153,155,157,159,161,163,165,167,169,171,173,175,177,179,181,183,185,187,189,191,193,195,197,199,201,203,205,207,209,211,213,215,217,219,-1,-1,-1,-1,-1,-1,-1,-1,-1,-1,-1,-1,-1,-1,-1,-1,-1,-1,-1,-1,-1,-1,-1,-1,-1,-1,-1,-1,-1,-1,-1,-1,-1,-1,-1,-1,-1,-1,-1,-1,-1,-1,-1,-1,-1,-1,-1,-1,-1,-1,-1,-1,-1,-1,-1,-1,-1,-1,-1,-1,-1,-1,-1,-1,-1,-1,-1,-1,-1,-1,-1,-1,-1,-1,-1,-1,-1,-1,-1,-1,-1,-1,-1,-1,-1,-1,-1,-1,-1,-1,-1,-1,-1,-1,-1,-1,-1,-1,-1,-1,-1,-1,-1,-1,-1,-1,-1,-1],"loss_changes":[1.1060505E6,1.1452456E5,1.1168519E5,1.536475E4,1.2790783E4,1.2021156E4,2.140975E4,0E0,4.8672188E3,3.380371E3,5.8365605E3,1.0750297E4,1.7616172E3,1.5052344E3,9.129469E3,3.7484375E1,1.7458438E3,1.1300977E3,6.562135E2,2.2162773E3,8.487461E2,1.469707E3,1.6274688E3,7.6229297E2,3.090039E2,2.262125E3,5.119629E2,3.9237188E3,2.4778281E3,6.8484375E1,1.1222656E1,7.580156E2,3.3312805E1,3.4055273E2,5.6378564E2,7.23067E1,8.327637E1,1.4825234E3,1.5499854E3,2.0428503E2,1.2355713E2,9.8511914E2,1.5415853E3,3.391797E2,3.579453E2,4.552334E2,4.149287E2,1.7047168E2,5.6407227E1,2.648875E3,1.7343047E3,1.1421484E2,1.9316895E2,7.568594E2,3.38125E2,3.5699922E3,1.879832E3,0E0,1.35859375E1,2.6841309E1,0E0,1.08703125E2,2.2350586E2,1.4646271E1,1.2039551E1,2.361289E2,3.2771997E2,3.2410596E2,4.5820825E2,2.208274E1,4.446817E1,7.274896E1,5.8082275E1,3.371889E2,4.1288843E2,3.6014966E2,1.1335433E3,9.1770294E1,1.3830737E2,8.052759E1,9.489514E1,7.912451E2,1.4523564E3,1.7750568E2,5.4586926E2,7.010254E2,2.718567E2,6.500586E2,3.0292896E2,9.986002E1,3.3682422E2,1.6847607E2,5.024951E1,9.961841E1,1.1872461E2,2.8083984E1,1.3131836E1,4.294414E2,5.808203E2,2.4735625E3,3.3728887E3,1.2047754E2,1.50563965E1,1.040708E2,1.0262915E2,2.2099219E2,1.5376562E2,1.0325781E2,3.1707031E1,6.013281E2,2.142707E3,1.5172263E2,4.6030078E2,0E0,0E0,0E0,0E0,0E0,0E0,0E0,0E0,0E0,0E0,0E0,0E0,0E0,0E0,0E0,0E0,0E0,0E0,0E0,0E0,0E0,0E0,0E0,0E0,0E0,0E0,0E0,0E0,0E0,0E0,0E0,0E0,0E0,0E0,0E0,0E0,0E0,0E0,0E0,0E0,0E0,0E0,0E0,0E0,0E0,0E0,0E0,0E0,0E0,0E0,0E0,0E0,0E0,0E0,0E0,0E0,0E0,0E0,0E0,0E0,0E0,0E0,0E0,0E0,0E0,0E0,0E0,0E0,0E0,0E0,0E0,0E0,0E0,0E0,0E0,0E0,0E0,0E0,0E0,0E0,0E0,0E0,0E0,0E0,0E0,0E0,0E0,0E0,0E0,0E0,0E0,0E0,0E0,0E0,0E0,0E0,0E0,0E0,0E0,0E0,0E0,0E0,0E0,0E0,0E0,0E0,0E0,0E0],"parents":[2147483647,0,0,1,1,2,2,3,3,4,4,5,5,6,6,8,8,9,9,10,10,11,11,12,12,13,13,14,14,15,15,16,16,17,17,18,18,19,19,20,20,21,21,22,22,23,23,24,24,25,25,26,26,27,27,28,28,29,29,30,30,31,31,32,32,33,33,34,34,35,35,36,36,37,37,38,38,39,39,40,40,41,41,42,42,43,43,44,44,45,45,46,46,47,47,48,48,49,49,50,50,51,51,52,52,53,53,54,54,55,55,56,56,58,58,59,59,61,61,62,62,63,63,64,64,65,65,66,66,67,67,68,68,69,69,70,70,71,71,72,72,73,73,74,74,75,75,76,76,77,77,78,78,79,79,80,80,81,81,82,82,83,83,84,84,85,85,86,86,87,87,88,88,89,89,90,90,91,91,92,92,93,93,94,94,95,95,96,96,97,97,98,98,99,99,100,100,101,101,102,102,103,103,104,104,105,105,106,106,107,107,108,108,109,109,110,110,111,111,112,112],"right_children":[2,4,6,8,10,12,14,-1,16,18,20,22,24,26,28,30,32,34,36,38,40,42,44,46,48,50,52,54,56,58,60,62,64,66,68,70,72,74,76,78,80,82,84,86,88,90,92,94,96,98,100,102,104,106,108,110,112,-1,114,116,-1,118,120,122,124,126,128,130,132,134,136,138,140,142,144,146,148,150,152,154,156,158,160,162,164,166,168,170,172,174,176,178,180,182,184,186,188,190,192,194,196,198,200,202,204,206,208,210,212,214,216,218,220,-1,-1,-1,-1,-1,-1,-1,-1,-1,-1,-1,-1,-1,-1,-1,-1,-1,-1,-1,-1,-1,-1,-1,-1,-1,-1,-1,-1,-1,-1,-1,-1,-1,-1,-1,-1,-1,-1,-1,-1,-1,-1,-1,-1,-1,-1,-1,-1,-1,-1,-1,-1,-1,-1,-1,-1,-1,-1,-1,-1,-1,-1,-1,-1,-1,-1,-1,-1,-1,-1,-1,-1,-1,-1,-1,-1,-1,-1,-1,-1,-1,-1,-1,-1,-1,-1,-1,-1,-1,-1,-1,-1,-1,-1,-1,-1,-1,-1,-1,-1,-1,-1,-1,-1,-1,-1,-1,-1],"split_conditions":[6.037736E-3,1.509434E-3,1.962264E-2,3.773585E-4,3.018868E-3,2.1628623E-1,4.5660377E-2,-5.905805E-2,7.54717E-4,3.8729835E-1,3.1622776E-1,1.0566038E-2,3.1622776E-1,2.0412415E-1,1E0,2.9E1,6.666667E-1,2.264151E-3,5.7735026E-1,6.428243E-2,4.472136E-1,7.493805E-2,1.4716981E-2,1.1698113E-2,4.472136E-1,1E0,1.8257694E-2,1.1319771E-1,9E0,1E0,1.382E3,1.1320754E-3,2.7E1,4.8112523E-2,6.428243E-2,1.5649452E-3,6.666667E-1,4.1509434E-3,3.6515389E-3,3.6515389E-3,6.666667E-1,1.0432968E-2,4.173187E-3,1.611646E-1,1.7149858E-1,3.6515389E-3,3.2E1,6E0,5.7735026E-1,2.7647365E-2,8E0,4.472136E-1,3.735849E-2,5.894627E-2,2.1178925E-1,8.206099E-2,1.5954288E-2,-4.651718E-2,1.1E1,1.047E3,-5.5700447E-2,6.5155834E-2,5.0709254E-1,1.1320754E-3,1.1320754E-3,1.8867925E-3,2.4253562E-1,1.24E2,2.6572356E-1,9.8E1,3.46E2,2.0865935E-3,2.608242E-3,5.4E1,8.7E1,1.9889806E-1,1.8973666E-1,1.38E2,3.7796447E-1,4.528302E-3,1.38E2,1.8405255E-2,1E0,6E0,5E0,7.704169E-2,6E0,6.692745E-2,1.5E1,8E0,1E1,1.5649453E-2,3.89E2,1.2452831E-2,1.2519562E-2,3E0,3.07E2,2.347418E-2,4.173187E-2,7.7849895E-2,1.5954288E-2,4.92E2,8.868023E-3,6.58E2,3.2863848E-2,6.2264152E-2,5.0566036E-2,9.735849E-2,3.6603773E-1,1.0641509E-1,1.470871E-1,2E1,9.161373E-2,-4.8915695E-2,-4.5749296E-2,-4.3529537E-2,-2.6159612E-2,-3.8245592E-2,-4.890124E-2,-3.1983685E-2,3.1132216E-2,5.5634815E-2,8.654563E-2,8.712093E-2,1.2470924E-1,-2.5202548E-2,-2.0007623E-2,-4.4323597E-2,-1.3304802E-2,-1.3065628E-2,-4.2242765E-2,-3.633629E-2,1.8128986E-3,4.48494E-3,-4.7784097E-2,3.875021E-2,2.6764476E-3,4.1030835E-2,9.830364E-2,1.2566407E-1,6.17535E-2,-3.2066777E-3,-2.8173849E-2,7.6154666E-3,-2.1688517E-2,-4.329618E-2,-1.7115308E-2,-1.5862485E-2,1.6040748E-2,3.595678E-2,-3.3105512E-3,4.594294E-2,8.066061E-2,7.558425E-2,1.0480171E-1,1.4563368E-1,8.60929E-2,1.8836835E-2,4.9709193E-2,3.9918598E-2,8.827346E-3,-4.524478E-2,-1.4873262E-2,4.648523E-3,2.4555214E-2,3.8068686E-2,2.2753483E-2,4.0255003E-2,7.0520304E-2,5.0801765E-2,3.6149886E-2,5.732459E-2,1.0219379E-1,-1.6575327E-2,2.8810486E-2,4.894067E-2,7.854027E-2,8.222137E-2,5.1646214E-2,1.0437884E-1,1.2950628E-1,7.459036E-2,1.0447308E-1,1.1255985E-1,6.704172E-2,9.5339864E-2,1.2501296E-1,1.489859E-1,1.1576674E-1,5.7617392E-2,6.933587E-2,7.8687035E-2,9.474423E-2,6.446698E-2,4.1183334E-2,1.44877955E-2,8.369442E-2,1.0316513E-1,1.4045176E-1,1.6866355E-1,1.260951E-1,7.11423E-2,1.1318958E-1,1.1581545E-1,8.143895E-2,8.915629E-2,1.01090096E-1,1.3318941E-1,1.0532948E-1,1.558312E-1,1.21010534E-1,1.3150628E-1,1.3855389E-1,8.416865E-2,9.9779464E-2,5.1896688E-2,8.2590126E-2,3.637401E-2,-1.3750738E-2,1.1512448E-1,9.672098E-2],"split_indices":[1,1,1,1,1,0,1,0,1,0,0,1,0,0,3,3,0,1,0,0,0,0,1,1,0,3,2,2,3,3,3,1,3,0,0,2,0,1,2,2,0,2,2,0,0,2,3,3,0,2,3,0,1,2,2,0,0,0,3,3,0,0,0,1,1,1,0,3,0,3,3,2,2,3,3,0,0,3,0,1,3,0,3,3,3,0,3,0,3,3,3,2,3,1,2,3,3,2,2,0,0,3,2,3,2,1,1,1,1,1,0,3,0,0,0,0,0,0,0,0,0,0,0,0,0,0,0,0,0,0,0,0,0,0,0,0,0,0,0,0,0,0,0,0,0,0,0,0,0,0,0,0,0,0,0,0,0,0,0,0,0,0,0,0,0,0,0,0,0,0,0,0,0,0,0,0,0,0,0,0,0,0,0,0,0,0,0,0,0,0,0,0,0,0,0,0,0,0,0,0,0,0,0,0,0,0,0,0,0,0,0,0,0,0,0,0,0,0,0,0,0],"split_type":[0,0,0,0,0,0,0,0,0,0,0,0,0,0,0,0,0,0,0,0,0,0,0,0,0,0,0,0,0,0,0,0,0,0,0,0,0,0,0,0,0,0,0,0,0,0,0,0,0,0,0,0,0,0,0,0,0,0,0,0,0,0,0,0,0,0,0,0,0,0,0,0,0,0,0,0,0,0,0,0,0,0,0,0,0,0,0,0,0,0,0,0,0,0,0,0,0,0,0,0,0,0,0,0,0,0,0,0,0,0,0,0,0,0,0,0,0,0,0,0,0,0,0,0,0,0,0,0,0,0,0,0,0,0,0,0,0,0,0,0,0,0,0,0,0,0,0,0,0,0,0,0,0,0,0,0,0,0,0,0,0,0,0,0,0,0,0,0,0,0,0,0,0,0,0,0,0,0,0,0,0,0,0,0,0,0,0,0,0,0,0,0,0,0,0,0,0,0,0,0,0,0,0,0,0,0,0,0,0,0,0,0,0,0,0,0,0,0,0,0,0],"sum_hessian":[1.3782661E6,8.780129E5,5.0025322E5,5.6934475E5,3.0866812E5,2.3381133E5,2.664419E5,1.8855802E5,3.8078672E5,1.5932473E5,1.4934339E5,2.2136175E5,1.2449586E4,1.3405292E5,1.3238898E5,2.0112488E5,1.7966184E5,1.5780584E5,1.5188947E3,1.4595908E5,3.3843147E3,1.0941125E5,1.1195049E5,8.1044517E3,4.3451343E3,1.2822335E5,5.829571E3,6.578185E4,6.660713E4,1.9424608E5,6.8787915E3,1.7937225E5,2.895951E2,9.3723164E4,6.4082676E4,9.776487E2,5.41246E2,1.2617073E5,1.9788357E4,2.082029E3,1.3022856E3,9.261717E4,1.679408E4,6.198853E4,4.996196E4,4.624952E3,3.4794998E3,3.180703E3,1.1644312E3,6.72495E4,6.0973844E4,2.200825E3,3.628746E3,4.5063383E4,2.0718469E4,5.162043E4,1.4986706E4,1.436921E5,5.055399E4,6.691364E3,1.8742772E2,1.0715374E5,7.221851E4,1.7312703E2,1.1646808E2,8.907441E4,4.648755E3,5.8383164E4,5.699513E3,9.786089E1,8.797878E2,2.3785437E2,3.033916E2,6.031681E4,6.585392E4,6.5465264E3,1.324183E4,8.465465E2,1.2354825E3,9.9036993E2,3.1191574E2,7.2422516E4,2.0194656E4,2.0673757E3,1.4726703E4,5.89234E4,3.0651318E3,4.8136465E4,1.8254966E3,4.9067056E2,4.1342817E3,2.5650051E3,9.144947E2,1.2748492E3,1.9058536E3,7.4524677E2,4.1918442E2,3.2995098E4,3.4254402E4,4.6344984E4,1.462886E4,2.055227E3,1.4559795E2,2.719449E3,9.09297E2,1.8840807E4,2.6222576E4,1.2861779E4,7.856689E3,2.7244906E4,2.4375521E4,6.115353E2,1.4375171E4,4.6626645E4,3.927343E3,6.455469E3,2.3589479E2,1.04691586E5,2.4621558E3,7.207871E4,1.3979488E2,8.341211E1,8.971491E1,5.44238E1,6.204428E1,5.03214E4,3.8753008E4,3.5246406E3,1.1241143E3,5.7416105E4,9.670587E2,4.75648E3,9.4303284E2,7.063858E1,2.722231E1,7.8374896E2,9.603887E1,9.320581E1,1.4464854E2,2.586923E2,4.4699287E1,5.893372E4,1.383087E3,6.4630035E4,1.2238813E3,4.724615E3,1.8219113E3,9.261951E3,3.9798794E3,6.542472E2,1.9229933E2,7.735507E2,4.6193182E2,5.50317E2,4.4005292E2,2.0332796E2,1.0858778E2,7.0284484E4,2.1380303E3,1.5205546E4,4.989111E3,1.3028396E3,7.6453625E2,9.235894E3,5.4908096E3,5.0136453E4,8.786947E3,1.7908939E3,1.2742378E3,3.871055E4,9.425915E3,1.2908699E3,5.346268E2,2.1448561E2,2.7618494E2,2.6008577E3,1.5334238E3,1.9719271E3,5.9307794E2,5.501096E2,3.6438507E2,8.4038916E2,4.3446E2,1.7439924E3,1.6186124E2,1.1249163E2,6.327551E2,3.6394482E2,5.5239613E1,2.0144242E4,1.2850856E4,2.710495E4,7.149455E3,2.6017254E4,2.032773E4,2.0475045E3,1.2581356E4,1.7990741E3,2.5615295E2,9.397395E1,5.1624E1,2.5608643E3,1.5858481E2,4.9928333E2,4.1001364E2,1.32318955E4,5.608911E3,5.190031E2,2.5703572E4,2.2820227E2,1.2633577E4,4.060436E3,3.796253E3,1.7699533E4,9.545372E3,1.5326201E4,9.049321E3,3.4359915E2,2.6793613E2,5.6487095E3,8.726461E3],"tree_param":{"num_deleted":"0","num_feature":"6","num_nodes":"221","size_leaf_vector":"1"}},{"base_weights":[-5.7211714E-3,-8.5493875E-1,3.9610574E-1,-7.850189E-1,-9.925868E-1,2.0322381E-1,1.1923312E0,-7.858235E-1,1.4678577E-1,-1.0534197E0,-7.845941E-1,2.205802E-1,-5.43558E-1,1.7271565E0,1.0456985E0,-7.850506E-1,-1.0657336E0,-7.1535045E-1,9.670666E-1,-1.1224779E0,-9.309519E-1,-8.688579E-1,4.7539964E-1,1.9786993E-1,5.2610147E-1,-6.081875E-1,-1.4635289E-1,1.4727949E0,1.8826466E0,8.2134134E-1,1.3398341E0,-7.850668E-1,5.751195E-1,-1.1242137E0,-6.7353517E-1,-9.93694E-1,-2.2182164E-1,2.4387918E0,6.3548315E-1,-1.1322324E0,-1.0634059E0,-8.748692E-1,-1.0314326E0,-9.3270856E-1,-5.9870803E-1,1.6623752E-1,1.4746817E0,2.4527398E-1,-5.7770144E-2,6.176334E-1,2.9927194E-1,-4.401809E-1,-7.1049094E-1,-2.353637E-1,2.8030986E-1,1.549794E0,3.249467E-1,1.9278997E0,1.1245301E0,2.2854927E-1,1.0342013E0,2.5983143E0,1.2887119E0,-3.9248195E-2,-4.666986E-2,6.2206205E-2,-1.6342124E-2,-9.8187095E-1,-5.7347286E-2,-1.9576664E-1,-1.0011613E0,-5.8802273E-2,-5.846286E-1,3.9777863E-1,-7.304835E-1,1.2624749E0,2.6705627E0,1.4169761E0,-7.085858E-2,-1.1359264E0,-1.0364579E0,-9.9957293E-1,-1.1002332E0,-9.2256707E-1,-8.238217E-1,-9.862276E-1,-1.0793403E0,-4.730039E-1,-9.7668046E-1,-7.907616E-1,-4.9759787E-1,2.3584123E-1,-6.091502E-1,1.927809E-2,1.5832965E0,3.508231E-1,2.3637201E-1,-1.6846476E-1,2.3015381E-1,6.5799695E-1,2.997886E-1,3.43613E-1,7.6693825E-2,-5.7069576E-1,-2.921543E-1,-6.6277E-1,-7.7234006E-1,-2.038104E-1,-6.32079E-1,-5.435493E-2,6.5372944E-1,1.7422726E0,1.2772784E0,-1.7561473E-1,1.3046303E0,2.1368077E0,1.7908525E0,4.661419E-1,1.5103873E0,4.3551034E-1,-6.3796526E-1,8.9830834E-1,1.4930532E0,2.7649777E0,2.0719728E0,1.138355E0,1.4607806E0,-4.4028077E-2,-5.4725047E-2,-2.6198909E-2,4.0646795E-2,-5.7897843E-2,-3.9737076E-2,2.3868097E-2,-3.7856832E-2,-4.793253E-2,3.8551133E-2,-1.8191405E-2,-5.5324078E-2,1.5887499E-1,-4.2631116E-2,1.9073443E-1,1.03985764E-1,-4.8399108E-4,1.1972922E-1,-4.2315777E-2,7.0109874E-2,-5.5859007E-2,-5.7422787E-2,-4.5247946E-2,-5.48989E-2,-5.133456E-2,-4.9033735E-2,-5.5345673E-2,-5.19087E-2,-4.5256775E-2,-4.843907E-2,-4.2790987E-2,-4.0347602E-2,-5.2833643E-2,-4.7351364E-2,-5.2444793E-2,-5.484284E-2,-4.3838087E-2,-1.4903058E-2,-5.0256938E-2,-4.2765E-2,-4.58957E-2,-1.997081E-2,-7.891617E-3,-2.6078073E-2,-2.0420969E-2,1.7544257E-2,-3.83446E-2,1.725729E-2,4.9467105E-2,-9.354546E-3,5.0695087E-3,8.2333505E-2,1.664344E-2,6.099494E-2,1.1828729E-2,-1.464199E-2,1.4975881E-3,-1.2950557E-2,2.031949E-2,1.1537707E-3,3.7357E-2,2.980133E-2,2.0554522E-2,3.5986693E-3,1.372345E-2,2.0035436E-2,-2.0573116E-3,1.0741339E-2,-3.0300314E-2,-1.9156128E-2,-1.1269534E-2,-2.375829E-2,-3.54165E-2,-3.0211776E-2,-4.660838E-2,-3.7845667E-2,-1.3275123E-2,1.0779765E-2,-7.036023E-3,-4.2130843E-2,3.4514908E-3,-1.7648095E-2,2.9089747E-2,1.5544927E-1,1.0213857E-1,7.816957E-2,4.7641315E-2,6.8760134E-2,7.45826E-2,-2.7360827E-2,1.0640343E-1,5.7078827E-2,1.1320648E-1,8.855402E-2,9.068335E-2,6.0160816E-2,-1.9106053E-2,3.4406282E-2,2.9042656E-2,8.798763E-2,1.346753E-1,1.8627478E-2,-3.9567996E-2,-6.641753E-3,4.0535808E-2,5.3796083E-2,6.541029E-2,8.956236E-2,1.2319114E-1,1.4014465E-1,8.822245E-2,1.1841227E-1,5.1714607E-2,8.5351236E-2,6.723042E-2,8.545679E-2],"categories":[],"categories_nodes":[],"categories_segments":[],"categories_sizes":[],"default_left":[0,0,0,0,0,0,0,0,0,0,0,0,0,0,0,0,0,0,0,0,0,0,0,0,0,0,0,0,0,0,0,0,0,0,0,0,0,0,0,0,0,0,0,0,0,0,0,0,0,0,0,0,0,0,0,0,0,0,0,0,0,0,0,0,0,0,0,0,0,0,0,0,0,0,0,0,0,0,0,0,0,0,0,0,0,0,0,0,0,0,0,0,0,0,0,0,0,0,0,0,0,0,0,0,0,0,0,0,0,0,0,0,0,0,0,0,0,0,0,0,0,0,0,0,0,0,0,0,0,0,0,0,0,0,0,0,0,0,0,0,0,0,0,0,0,0,0,0,0,0,0,0,0,0,0,0,0,0,0,0,0,0,0,0,0,0,0,0,0,0,0,0,0,0,0,0,0,0,0,0,0,0,0,0,0,0,0,0,0,0,0,0,0,0,0,0,0,0,0,0,0,0,0,0,0,0,0,0,0,0,0,0,0,0,0,0,0,0,0,0,0,0,0,0,0,0,0,0,0,0,0,0,0,0,0,0,0,0,0,0,0,0,0],"id":5,"left_children":[1,3,5,7,9,11,13,15,17,19,21,23,25,27,29,31,33,35,37,39,41,43,45,47,49,51,53,55,57,59,61,63,65,67,69,71,73,75,77,79,81,83,85,87,89,91,93,95,97,99,101,103,105,107,109,111,113,115,117,119,121,123,125,-1,-1,-1,-1,127,-1,129,131,-1,133,135,137,139,141,143,145,147,149,151,153,155,157,159,161,163,165,167,169,171,173,175,177,179,181,183,185,187,189,191,193,195,197,199,201,203,205,207,209,211,213,215,217,219,221,223,225,227,229,231,233,235,237,239,241,-1,-1,-1,-1,-1,-1,-1,-1,-1,-1,-1,-1,-1,-1,-1,-1,-1,-1,-1,-1,-1,-1,-1,-1,-1,-1,-1,-1,-1,-1,-1,-1,-1,-1,-1,-1,-1,-1,-1,-1,-1,-1,-1,-1,-1,-1,-1,-1,-1,-1,-1,-1,-1,-1,-1,-1,-1,-1,-1,-1,-1,-1,-1,-1,-1,-1,-1,-1,-1,-1,-1,-1,-1,-1,-1,-1,-1,-1,-1,-1,-1,-1,-1,-1,-1,-1,-1,-1,-1,-1,-1,-1,-1,-1,-1,-1,-1,-1,-1,-1,-1,-1,-1,-1,-1,-1,-1,-1,-1,-1,-1,-1,-1,-1,-1,-1],"loss_changes":[4.681314E5,4.2400312E3,1.4301542E5,2.1920312E2,1.8771562E3,9.716461E3,1.4239359E4,6.2328125E1,1.7957616E2,9.7014844E2,3.5668398E3,5.083074E3,4.3702002E2,1.5426094E3,9.404203E3,6.890625E0,1.761914E1,1.6800224E1,6.1912804E1,4.1109375E1,2.3245703E2,5.425488E2,6.5046875E2,8.263783E3,1.0522148E3,2.5138574E2,9.060927E1,1.3100664E3,8.296406E2,1.0202098E4,3.96425E3,3.703125E0,2.851469E0,1.125061E0,1.6467983E1,5.2005157E0,1.4778128E1,3.0517578E0,5.9433083E1,2.1109375E1,2.3401367E1,6.396875E1,3.1048828E1,5.142871E2,1.1654321E2,8.702051E1,7.862134E1,5.404219E2,3.3998196E3,4.6312305E2,1.4382263E2,1.0695984E2,2.6347168E1,2.457035E1,5.152107E1,7.2665234E2,4.5797525E2,6.511953E2,3.4686658E2,3.8315244E3,3.7082383E3,2.0536328E2,1.5316016E3,0E0,0E0,0E0,0E0,2.087326E-1,0E0,1.5174862E1,1.1158371E0,0E0,5.184513E0,1.1559057E1,3.1262007E0,2.6098774E1,4.765518E0,7.1259865E1,6.676594E1,1.29609375E1,1.80271E1,9.526367E-1,1.5864258E0,1.01875E1,6.2460938E0,2.0100098E1,2.6826172E0,1.5690558E2,7.941992E1,1.0289722E2,3.2059753E1,1.0967917E2,2.0266808E1,7.3049207E0,4.33136E1,6.977114E2,5.6941406E1,1.3842722E3,1.081054E3,1.7657227E2,1.0320169E2,4.787097E1,3.944238E1,1.9278198E1,3.1663696E1,1.3289795E1,9.051514E0,4.7387077E1,1.4871086E1,8.063201E0,3.2595184E1,4.3441602E2,1.8155957E2,3.8411353E2,3.9967163E1,4.1778125E2,1.831211E2,9.572945E1,1.9882166E2,2.4506975E3,3.1906946E2,7.132344E2,7.4683594E2,1.3928711E1,4.8912598E1,1.8701328E3,7.9497266E2,0E0,0E0,0E0,0E0,0E0,0E0,0E0,0E0,0E0,0E0,0E0,0E0,0E0,0E0,0E0,0E0,0E0,0E0,0E0,0E0,0E0,0E0,0E0,0E0,0E0,0E0,0E0,0E0,0E0,0E0,0E0,0E0,0E0,0E0,0E0,0E0,0E0,0E0,0E0,0E0,0E0,0E0,0E0,0E0,0E0,0E0,0E0,0E0,0E0,0E0,0E0,0E0,0E0,0E0,0E0,0E0,0E0,0E0,0E0,0E0,0E0,0E0,0E0,0E0,0E0,0E0,0E0,0E0,0E0,0E0,0E0,0E0,0E0,0E0,0E0,0E0,0E0,0E0,0E0,0E0,0E0,0E0,0E0,0E0,0E0,0E0,0E0,0E0,0E0,0E0,0E0,0E0,0E0,0E0,0E0,0E0,0E0,0E0,0E0,0E0,0E0,0E0,0E0,0E0,0E0,0E0,0E0,0E0,0E0,0E0,0E0,0E0,0E0,0E0,0E0,0E0],"parents":[2147483647,0,0,1,1,2,2,3,3,4,4,5,5,6,6,7,7,8,8,9,9,10,10,11,11,12,12,13,13,14,14,15,15,16,16,17,17,18,18,19,19,20,20,21,21,22,22,23,23,24,24,25,25,26,26,27,27,28,28,29,29,30,30,31,31,32,32,33,33,34,34,35,35,36,36,37,37,38,38,39,39,40,40,41,41,42,42,43,43,44,44,45,45,46,46,47,47,48,48,49,49,50,50,51,51,52,52,53,53,54,54,55,55,56,56,57,57,58,58,59,59,60,60,61,61,62,62,67,67,69,69,70,70,72,72,73,73,74,74,75,75,76,76,77,77,78,78,79,79,80,80,81,81,82,82,83,83,84,84,85,85,86,86,87,87,88,88,89,89,90,90,91,91,92,92,93,93,94,94,95,95,96,96,97,97,98,98,99,99,100,100,101,101,102,102,103,103,104,104,105,105,106,106,107,107,108,108,109,109,110,110,111,111,112,112,113,113,114,114,115,115,116,116,117,117,118,118,119,119,120,120,121,121,122,122,123,123,124,124,125,125,126,126],"right_children":[2,4,6,8,10,12,14,16,18,20,22,24,26,28,30,32,34,36,38,40,42,44,46,48,50,52,54,56,58,60,62,64,66,68,70,72,74,76,78,80,82,84,86,88,90,92,94,96,98,100,102,104,106,108,110,112,114,116,118,120,122,124,126,-1,-1,-1,-1,128,-1,130,132,-1,134,136,138,140,142,144,146,148,150,152,154,156,158,160,162,164,166,168,170,172,174,176,178,180,182,184,186,188,190,192,194,196,198,200,202,204,206,208,210,212,214,216,218,220,222,224,226,228,230,232,234,236,238,240,242,-1,-1,-1,-1,-1,-1,-1,-1,-1,-1,-1,-1,-1,-1,-1,-1,-1,-1,-1,-1,-1,-1,-1,-1,-1,-1,-1,-1,-1,-1,-1,-1,-1,-1,-1,-1,-1,-1,-1,-1,-1,-1,-1,-1,-1,-1,-1,-1,-1,-1,-1,-1,-1,-1,-1,-1,-1,-1,-1,-1,-1,-1,-1,-1,-1,-1,-1,-1,-1,-1,-1,-1,-1,-1,-1,-1,-1,-1,-1,-1,-1,-1,-1,-1,-1,-1,-1,-1,-1,-1,-1,-1,-1,-1,-1,-1,-1,-1,-1,-1,-1,-1,-1,-1,-1,-1,-1,-1,-1,-1,-1,-1,-1,-1,-1,-1],"split_conditions":[9.2250924E-4,2.5666668E-4,1.2606043E-2,1.4433756E-1,1.2606043E-2,4.3E1,7.024393E-2,2E0,1.6E1,2.2096889E-1,2.73E2,1.1320708E0,4.761905E-2,2E0,5E0,1.3867505E-1,6.0642824E-2,6E0,1.6329932E-1,8.037889E-2,3E0,1.1E1,1.047E3,2.5666668E-4,7.692308E-1,1.74E2,3.3333334E-1,3.3841452E2,1.95E2,5.2E-1,2.5666668E-4,1E0,1.4106913E-1,3E0,9.93808E-2,1.7222223E-5,2.0225996E-1,3.2E1,4.8E1,1.95E2,2E0,9.430652E1,7E0,6.0642824E-2,2.5788888E-2,9.0478474E-1,6.7955554E-3,5.2E-1,6.14375E-2,8E0,3E0,1.0190972E-1,4.92E2,2.5E-1,6.8E1,5.052195E-2,5.2E-1,3.0701753E-1,4.8112523E-2,7.566821E1,1.953639E-1,1.7222223E-5,7.320944E-2,-3.9248195E-2,-4.666986E-2,6.2206205E-2,-1.6342124E-2,1.7222223E-5,-5.7347286E-2,3.2E1,1.24273956E-1,-5.8802273E-2,1.5762208E-1,1.5466177E-1,9E0,1.7E1,3.8E1,3.2E1,5.66E2,2E0,6.7955554E-3,1.1356361E-1,2.43E2,2E0,2.669611E2,1.160821E1,1.3E1,2.1837221E-2,5E0,2.508726E-1,6.604582E-2,8.4275E-3,7.64E2,9.602778E-4,7.3323555E-2,1E0,1.7222223E-5,5.2E-1,6.8421054E-1,3.5E-1,1.8E1,4.7935383E1,4.7935383E1,2.7692307E-2,1.24E2,1.0190972E-1,3.8544445E-3,1.9343066E-1,5.4E1,8.333333E-1,9.230769E-1,1E0,5.2E-1,2.4334814E-2,9.444444E-1,5.8722023E-2,4.0498013E2,1.5090833E-2,2.5259722E-2,2.5666668E-4,3E0,8.57425E-2,2.8097573E-1,5.9701493E-3,1.8215302E-1,2.8867513E-1,3.0701753E-1,-4.4028077E-2,-5.4725047E-2,-2.6198909E-2,4.0646795E-2,-5.7897843E-2,-3.9737076E-2,2.3868097E-2,-3.7856832E-2,-4.793253E-2,3.8551133E-2,-1.8191405E-2,-5.5324078E-2,1.5887499E-1,-4.2631116E-2,1.9073443E-1,1.03985764E-1,-4.8399108E-4,1.1972922E-1,-4.2315777E-2,7.0109874E-2,-5.5859007E-2,-5.7422787E-2,-4.5247946E-2,-5.48989E-2,-5.133456E-2,-4.9033735E-2,-5.5345673E-2,-5.19087E-2,-4.5256775E-2,-4.843907E-2,-4.2790987E-2,-4.0347602E-2,-5.2833643E-2,-4.7351364E-2,-5.2444793E-2,-5.484284E-2,-4.3838087E-2,-1.4903058E-2,-5.0256938E-2,-4.2765E-2,-4.58957E-2,-1.997081E-2,-7.891617E-3,-2.6078073E-2,-2.0420969E-2,1.7544257E-2,-3.83446E-2,1.725729E-2,4.9467105E-2,-9.354546E-3,5.0695087E-3,8.2333505E-2,1.664344E-2,6.099494E-2,1.1828729E-2,-1.464199E-2,1.4975881E-3,-1.2950557E-2,2.031949E-2,1.1537707E-3,3.7357E-2,2.980133E-2,2.0554522E-2,3.5986693E-3,1.372345E-2,2.0035436E-2,-2.0573116E-3,1.0741339E-2,-3.0300314E-2,-1.9156128E-2,-1.1269534E-2,-2.375829E-2,-3.54165E-2,-3.0211776E-2,-4.660838E-2,-3.7845667E-2,-1.3275123E-2,1.0779765E-2,-7.036023E-3,-4.2130843E-2,3.4514908E-3,-1.7648095E-2,2.9089747E-2,1.5544927E-1,1.0213857E-1,7.816957E-2,4.7641315E-2,6.8760134E-2,7.45826E-2,-2.7360827E-2,1.0640343E-1,5.7078827E-2,1.1320648E-1,8.855402E-2,9.068335E-2,6.0160816E-2,-1.9106053E-2,3.4406282E-2,2.9042656E-2,8.798763E-2,1.346753E-1,1.8627478E-2,-3.9567996E-2,-6.641753E-3,4.0535808E-2,5.3796083E-2,6.541029E-2,8.956236E-2,1.2319114E-1,1.4014465E-1,8.822245E-2,1.1841227E-1,5.1714607E-2,8.5351236E-2,6.723042E-2,8.545679E-2],"split_indices":[4,5,0,0,0,3,0,3,3,5,3,5,4,3,3,0,0,3,0,5,3,3,3,5,4,3,4,5,3,4,5,3,0,3,0,5,0,3,3,3,3,5,3,0,5,5,5,4,5,3,3,5,3,4,3,0,4,4,0,5,0,5,5,0,0,0,0,5,0,3,0,0,0,0,3,3,3,3,3,3,5,5,3,3,5,5,3,5,3,0,0,5,3,5,0,3,5,4,4,4,3,5,5,4,3,5,5,4,3,4,4,4,4,0,4,0,5,5,5,5,3,5,0,4,0,0,4,0,0,0,0,0,0,0,0,0,0,0,0,0,0,0,0,0,0,0,0,0,0,0,0,0,0,0,0,0,0,0,0,0,0,0,0,0,0,0,0,0,0,0,0,0,0,0,0,0,0,0,0,0,0,0,0,0,0,0,0,0,0,0,0,0,0,0,0,0,0,0,0,0,0,0,0,0,0,0,0,0,0,0,0,0,0,0,0,0,0,0,0,0,0,0,0,0,0,0,0,0,0,0,0,0,0,0,0,0,0,0,0,0,0,0,0],"split_type":[0,0,0,0,0,0,0,0,0,0,0,0,0,0,0,0,0,0,0,0,0,0,0,0,0,0,0,0,0,0,0,0,0,0,0,0,0,0,0,0,0,0,0,0,0,0,0,0,0,0,0,0,0,0,0,0,0,0,0,0,0,0,0,0,0,0,0,0,0,0,0,0,0,0,0,0,0,0,0,0,0,0,0,0,0,0,0,0,0,0,0,0,0,0,0,0,0,0,0,0,0,0,0,0,0,0,0,0,0,0,0,0,0,0,0,0,0,0,0,0,0,0,0,0,0,0,0,0,0,0,0,0,0,0,0,0,0,0,0,0,0,0,0,0,0,0,0,0,0,0,0,0,0,0,0,0,0,0,0,0,0,0,0,0,0,0,0,0,0,0,0,0,0,0,0,0,0,0,0,0,0,0,0,0,0,0,0,0,0,0,0,0,0,0,0,0,0,0,0,0,0,0,0,0,0,0,0,0,0,0,0,0,0,0,0,0,0,0,0,0,0,0,0,0,0,0,0,0,0,0,0,0,0,0,0,0,0,0,0,0,0,0,0],"sum_hessian":[1.3718581E6,4.4063106E5,9.3122706E5,2.9220772E5,1.4842334E5,7.496332E5,1.815939E5,2.9195578E5,2.5194957E2,1.1483327E5,3.3590074E4,7.3260694E5,1.7026244E4,3.9072125E4,1.4252178E5,2.9115556E5,8.002048E2,1.2290314E2,1.2904643E2,7.342283E4,4.141045E4,3.1484795E4,2.105278E3,6.8191956E5,5.06874E4,1.4643122E4,2.3831235E3,1.4827205E4,2.4244918E4,8.085328E4,6.1668496E4,2.911525E5,3.0516553E0,6.947457E2,1.05459015E2,7.793526E1,4.4967876E1,2.2559893E1,1.0648654E2,6.3001375E4,1.042145E4,2.6583012E4,1.48274375E4,2.5463889E4,6.0209067E3,1.6087291E3,4.965491E2,5.752495E5,1.0667006E5,3.6113066E4,1.457433E4,5.543945E3,9.099177E3,1.9721416E3,4.109819E2,1.3894775E4,9.324293E2,2.2877766E4,1.3671526E3,2.1362656E4,5.949062E4,2.4053757E3,5.926312E4,2.909568E5,1.9569508E2,1.5342877E0,1.5173675E0,1.0175764E2,5.929881E2,4.3549488E1,6.190953E1,5.260865E1,2.532661E1,2.0371443E1,2.4596436E1,4.774541E0,1.778535E1,5.00763E1,5.641024E1,6.065122E4,2.350156E3,3.82306E3,6.5983906E3,1.3733559E4,1.2849453E4,7.6400156E3,7.1874224E3,2.2240725E3,2.3239816E4,2.0742166E3,3.9466902E3,1.4768533E3,1.3187585E2,3.456513E1,4.6198398E2,4.4739707E4,5.3050975E5,7.7048555E4,2.9621504E4,3.204283E4,4.0702363E3,1.2152765E4,2.4215657E3,2.9447268E3,2.599218E3,5.1428325E3,3.9563442E3,1.8282433E3,1.4389824E2,2.1718846E2,1.9379344E2,8.140043E3,5.754733E3,6.176611E2,3.1476822E2,9.057053E3,1.3820713E4,5.0599002E2,8.611626E2,1.7244438E4,4.1182183E3,4.589992E4,1.3590702E4,1.8236676E3,5.8170807E2,3.1630986E4,2.7632135E4,5.8213444E1,4.3544197E1,3.3220688E1,1.0328801E1,3.256421E1,2.934532E1,3.2921784E0,2.2034433E1,4.057479E0,1.6313963E1,1.3449123E1,1.1147311E1,2.2421694E0,2.5323718E0,4.198676E0,1.3586676E1,2.076433E1,2.931197E1,3.723447E1,1.9175774E1,2.4333719E4,3.63175E4,7.5406226E2,1.5960938E3,1.548173E3,2.2748872E3,5.9419443E3,6.5644604E2,9.987103E3,3.746456E3,4.4186177E3,8.430836E3,2.7221665E3,4.9178486E3,2.6472512E3,4.5401714E3,6.711303E2,1.5529421E3,1.8820082E4,4.419735E3,1.564536E3,5.0968045E2,2.6051932E2,3.686171E3,2.233749E2,1.2534784E3,1.13337875E2,1.8537983E1,5.3978405E0,2.9167288E1,1.9053074E1,4.4293088E2,4.3835492E4,9.042175E2,5.303073E5,2.0243568E2,2.4143336E4,5.2905223E4,1.6001942E4,1.3619562E4,1.3135961E4,1.890687E4,2.733801E3,1.3364353E3,5.4990806E3,6.653684E3,1.3071495E3,1.1144161E3,2.4763298E3,4.6839713E2,1.9060951E3,6.93123E2,2.885678E3,2.2571543E3,3.4302548E2,3.6133188E3,1.5941241E3,2.3411911E2,4.3663548E1,1.0023469E2,1.5422949E2,6.2958973E1,1.89479E2,4.3144317E0,3.0335784E3,5.106465E3,1.3366715E3,4.418061E3,1.1202484E2,5.0563623E2,5.0034985E1,2.6473325E2,6.7143657E3,2.342687E3,1.3302181E4,5.1853186E2,1.0479957E2,4.0119043E2,1.8286063E2,6.7830194E2,4.6665808E2,1.677778E4,3.1584995E3,9.5971893E2,3.0743797E4,1.5156124E4,8.39322E3,5.1974824E3,2.113031E2,1.6123645E3,2.8884705E2,2.92861E2,2.674047E4,4.8905146E3,1.8830344E4,8.80179E3],"tree_param":{"num_deleted":"0","num_feature":"6","num_nodes":"243","size_leaf_vector":"1"}},{"base_weights":[-5.827629E-3,-6.721476E-1,1.0437868E0,-9.2763597E-1,-1.9209531E-1,-4.589391E-1,1.3522856E0,-5.8622133E-2,-8.0535406E-1,-7.941723E-1,2.6979434E-1,-3.0358094E-1,-6.9871217E-1,1.0018164E0,1.6467501E0,-1.0106128E0,-5.017586E-1,-6.844342E-1,-9.768978E-1,6.064913E-2,4.830212E-1,-3.6952063E-1,6.6013074E-1,-7.6583815E-1,7.7805054E-1,8.272571E-1,1.1530368E0,1.8315006E0,1.2511591E0,-9.785031E-1,-1.0814581E0,-6.8010134E-1,-3.4089422E-1,-7.539518E-1,-5.8083755E-1,-1.0277429E0,-3.417388E-1,3.8352806E-2,1.2515126E0,4.5637324E-1,1.7668236E0,-4.3597242E-1,-1.9965374E-1,2.5638297E-1,8.966841E-1,-8.823334E-1,-5.3657895E-1,-8.527209E-1,1.4187285E0,7.868658E-1,1.6974006E0,1.1206466E0,1.6679288E0,1.6532245E0,2.096487E0,1.0075434E0,1.5174422E0,-5.151471E-2,-9.102722E-1,-1.0830778E0,6.32253E-1,-6.9604325E-1,-4.0685862E-1,-3.4962863E-1,1.2388719E0,-7.905947E-1,-6.935209E-1,-6.3345146E-1,-5.473599E-1,-1.0398864E0,1.0609932E-1,-4.5584682E-1,1.2170801E0,-4.6171106E-2,1.5344441E-1,9.051775E-1,2.0432203E0,3.5602617E-1,5.550347E-1,1.4144539E0,2.224806E0,-4.9672893E-1,-3.8724998E-1,-2.2930507E-1,-3.7793547E-2,6.379336E-1,-5.245118E-1,1.0788226E0,5.985254E-2,-9.2203087E-1,-8.796639E-2,-7.882281E-1,-2.3029351E-1,-9.608886E-1,-5.599049E-2,5.969622E-1,1.8818383E0,8.5428524E-1,4.9309674E-1,1.4369413E0,2.151904E0,1.2355976E0,7.8592277E-1,1.3929427E0,1.9430538E0,1.6646699E0,3.7109086E-1,2.186147E0,1.8754593E0,3.891043E-1,1.1909757E0,1.3462648E0,1.7219561E0,-4.6871033E-2,-4.3304507E-2,-5.4548915E-2,-4.4459406E-2,6.22574E-3,8.735988E-2,-3.1145139E-2,-3.538888E-2,-3.5473377E-2,-1.49143925E-2,-2.1199672E-2,-1.2519866E-2,3.1312916E-2,8.5802205E-2,-4.019364E-2,-3.8622342E-2,-3.5106014E-2,-3.413486E-2,-3.2271933E-2,-3.0962437E-2,-2.7379943E-2,3.1170366E-2,-5.2327044E-2,-3.3864774E-2,-1.1982708E-2,4.4204134E-2,-3.0727202E-2,-2.6860093E-3,2.323399E-2,8.134522E-2,-4.66273E-3,3.7023597E-3,8.49774E-3,-3.8887213E-3,2.8901864E-2,6.290244E-2,-2.49189E-2,1.04146734E-1,1.9327996E-2,4.5861416E-3,2.9683886E-2,1.647882E-2,6.3148655E-2,8.468391E-2,9.77131E-2,1.2369374E-1,-2.2803048E-2,-2.5800643E-2,-1.8971527E-2,-3.888995E-2,-1.0312283E-2,-2.515879E-2,2.330788E-3,-3.0992491E-2,3.4561574E-2,2.5944456E-2,-2.8971288E-2,-2.3251433E-2,4.1328315E-2,6.421431E-2,-6.1763056E-2,5.457231E-2,-4.9044687E-2,-4.1592214E-2,-2.763752E-2,2.8127154E-2,-3.6803886E-2,-4.872367E-2,-2.6532529E-2,1.9154267E-2,-5.6317028E-2,-4.5058668E-2,-3.427277E-2,2.2983596E-2,9.661507E-3,1.04808204E-1,6.5507434E-2,1.0547626E-1,4.349859E-2,4.9701366E-3,1.7527191E-2,4.2885642E-2,6.1904646E-2,8.512281E-2,1.026788E-1,1.2535356E-1,5.6664865E-2,6.828955E-2,2.8811557E-2,5.525697E-2,2.4245828E-2,7.741014E-2,9.210541E-2,1.0677584E-1,7.734996E-2,8.838274E-2,-2.1967017E-3,5.8359183E-2,1.030756E-1,1.1637079E-1,1.0126033E-1,8.077251E-2,1.703886E-2,1.10778764E-1,5.3816926E-2,8.565913E-2,2.7172765E-2,7.280146E-2,8.430639E-2,1.17783956E-1],"categories":[],"categories_nodes":[],"categories_segments":[],"categories_sizes":[],"default_left":[0,0,0,0,0,0,0,0,0,0,0,0,0,0,0,0,0,0,0,0,0,0,0,0,0,0,0,0,0,0,0,0,0,0,0,0,0,0,0,0,0,0,0,0,0,0,0,0,0,0,0,0,0,0,0,0,0,0,0,0,0,0,0,0,0,0,0,0,0,0,0,0,0,0,0,0,0,0,0,0,0,0,0,0,0,0,0,0,0,0,0,0,0,0,0,0,0,0,0,0,0,0,0,0,0,0,0,0,0,0,0,0,0,0,0,0,0,0,0,0,0,0,0,0,0,0,0,0,0,0,0,0,0,0,0,0,0,0,0,0,0,0,0,0,0,0,0,0,0,0,0,0,0,0,0,0,0,0,0,0,0,0,0,0,0,0,0,0,0,0,0,0,0,0,0,0,0,0,0,0,0,0,0,0,0,0,0,0,0,0,0,0,0,0,0,0,0,0,0,0,0,0,0,0,0,0,0,0,0,0,0,0,0,0,0,0,0,0,0,0,0,0,0],"id":6,"left_children":[1,3,5,7,9,11,13,-1,15,17,19,21,23,25,27,29,31,33,35,37,39,41,43,45,47,49,51,53,55,57,59,61,63,65,67,69,71,73,75,77,79,81,83,85,87,89,91,93,95,97,99,101,103,105,107,109,111,-1,113,115,117,119,121,123,125,127,129,131,133,135,137,139,141,143,145,147,149,151,153,155,157,159,161,163,165,167,169,171,173,175,177,179,181,183,185,187,189,191,193,195,197,199,201,203,205,207,209,211,213,215,217,219,221,-1,-1,-1,-1,-1,-1,-1,-1,-1,-1,-1,-1,-1,-1,-1,-1,-1,-1,-1,-1,-1,-1,-1,-1,-1,-1,-1,-1,-1,-1,-1,-1,-1,-1,-1,-1,-1,-1,-1,-1,-1,-1,-1,-1,-1,-1,-1,-1,-1,-1,-1,-1,-1,-1,-1,-1,-1,-1,-1,-1,-1,-1,-1,-1,-1,-1,-1,-1,-1,-1,-1,-1,-1,-1,-1,-1,-1,-1,-1,-1,-1,-1,-1,-1,-1,-1,-1,-1,-1,-1,-1,-1,-1,-1,-1,-1,-1,-1,-1,-1,-1,-1,-1,-1,-1,-1,-1,-1,-1,-1],"loss_changes":[9.5722725E5,1.02681125E5,2.4638762E5,1.6355875E4,8.087037E4,3.371918E3,4.5505062E4,0E0,2.2706844E4,2.5307578E3,7.338581E3,3.4911377E3,3.5288027E3,5.3136094E3,1.7510562E4,4.935E2,4.2167227E3,5.676211E2,1.5293438E3,2.2057815E3,2.7868398E3,5.803037E2,3.3580383E2,9.087871E2,1.6185427E3,3.283371E3,1.7972344E3,7.7126875E3,4.947203E3,5.2775E2,1.8885938E2,3.0335742E2,1.0668145E3,1.039707E2,5.5453125E1,6.039492E2,6.252848E2,7.933288E2,4.1679395E2,7.901426E2,2.6420068E2,1.0921094E2,6.939038E1,3.880392E2,3.380243E2,7.117344E2,8.8414526E2,3.7628174E1,4.2196924E2,1.7685195E3,4.875869E2,3.9042188E3,4.801621E2,1.4323125E3,1.297625E3,4.5192266E3,1.2735625E3,0E0,7.663281E1,1.0278125E2,3.6380917E1,5.608789E1,1.2611743E2,5.6706055E2,1.2321039E2,6.455078E0,1.1787109E0,1.6962891E0,5.760254E0,1.0399219E2,1.254609E2,2.0886194E2,7.319772E1,2.6615405E2,1.3183728E2,1.22094055E2,4.7857666E1,3.1937598E2,3.5048535E2,3.7578613E1,4.358911E1,1.26604E1,6.2354004E1,7.707556E1,1.10082855E2,5.190399E0,1.1274796E0,9.335132E1,5.3248474E2,1.133125E2,3.2547147E2,6.04541E1,9.538519E2,2.7879333E0,1.7624964E1,2.430193E2,8.9728516E1,8.6010156E2,8.663552E2,1.3716943E2,4.751465E1,1.00464844E3,1.7362402E3,4.4976123E2,5.8001953E1,1.1701562E3,2.8593378E2,8.179375E2,7.3509375E2,8.0384875E2,1.8376133E3,1.747875E3,3.7298438E2,0E0,0E0,0E0,0E0,0E0,0E0,0E0,0E0,0E0,0E0,0E0,0E0,0E0,0E0,0E0,0E0,0E0,0E0,0E0,0E0,0E0,0E0,0E0,0E0,0E0,0E0,0E0,0E0,0E0,0E0,0E0,0E0,0E0,0E0,0E0,0E0,0E0,0E0,0E0,0E0,0E0,0E0,0E0,0E0,0E0,0E0,0E0,0E0,0E0,0E0,0E0,0E0,0E0,0E0,0E0,0E0,0E0,0E0,0E0,0E0,0E0,0E0,0E0,0E0,0E0,0E0,0E0,0E0,0E0,0E0,0E0,0E0,0E0,0E0,0E0,0E0,0E0,0E0,0E0,0E0,0E0,0E0,0E0,0E0,0E0,0E0,0E0,0E0,0E0,0E0,0E0,0E0,0E0,0E0,0E0,0E0,0E0,0E0,0E0,0E0,0E0,0E0,0E0,0E0,0E0,0E0,0E0,0E0,0E0,0E0],"parents":[2147483647,0,0,1,1,2,2,3,3,4,4,5,5,6,6,8,8,9,9,10,10,11,11,12,12,13,13,14,14,15,15,16,16,17,17,18,18,19,19,20,20,21,21,22,22,23,23,24,24,25,25,26,26,27,27,28,28,29,29,30,30,31,31,32,32,33,33,34,34,35,35,36,36,37,37,38,38,39,39,40,40,41,41,42,42,43,43,44,44,45,45,46,46,47,47,48,48,49,49,50,50,51,51,52,52,53,53,54,54,55,55,56,56,58,58,59,59,60,60,61,61,62,62,63,63,64,64,65,65,66,66,67,67,68,68,69,69,70,70,71,71,72,72,73,73,74,74,75,75,76,76,77,77,78,78,79,79,80,80,81,81,82,82,83,83,84,84,85,85,86,86,87,87,88,88,89,89,90,90,91,91,92,92,93,93,94,94,95,95,96,96,97,97,98,98,99,99,100,100,101,101,102,102,103,103,104,104,105,105,106,106,107,107,108,108,109,109,110,110,111,111,112,112],"right_children":[2,4,6,8,10,12,14,-1,16,18,20,22,24,26,28,30,32,34,36,38,40,42,44,46,48,50,52,54,56,58,60,62,64,66,68,70,72,74,76,78,80,82,84,86,88,90,92,94,96,98,100,102,104,106,108,110,112,-1,114,116,118,120,122,124,126,128,130,132,134,136,138,140,142,144,146,148,150,152,154,156,158,160,162,164,166,168,170,172,174,176,178,180,182,184,186,188,190,192,194,196,198,200,202,204,206,208,210,212,214,216,218,220,222,-1,-1,-1,-1,-1,-1,-1,-1,-1,-1,-1,-1,-1,-1,-1,-1,-1,-1,-1,-1,-1,-1,-1,-1,-1,-1,-1,-1,-1,-1,-1,-1,-1,-1,-1,-1,-1,-1,-1,-1,-1,-1,-1,-1,-1,-1,-1,-1,-1,-1,-1,-1,-1,-1,-1,-1,-1,-1,-1,-1,-1,-1,-1,-1,-1,-1,-1,-1,-1,-1,-1,-1,-1,-1,-1,-1,-1,-1,-1,-1,-1,-1,-1,-1,-1,-1,-1,-1,-1,-1,-1,-1,-1,-1,-1,-1,-1,-1,-1,-1,-1,-1,-1,-1,-1,-1,-1,-1,-1,-1],"split_conditions":[5.6603774E-3,1.509434E-3,9.2250924E-4,3.773585E-4,7.322176E-3,1E0,2.1132076E-2,-5.8622133E-2,6.833713E-3,1E0,3.018868E-3,6.603774E-2,2.73E2,1.0566038E-2,6.604582E-2,1E0,7.54717E-4,3.018868E-3,9.2250924E-4,3.380617E-1,3.4815532E-1,1.8490566E-2,8.981132E-2,1.8490566E-2,7.106691E-2,2.6572356E-1,2.1628623E-1,6.2264152E-2,4E0,7.54717E-4,6.666667E-1,8E0,5.0709254E-1,2.264151E-3,3.773585E-3,4.7140452E-1,4.082483E-1,2.264151E-3,5.7735026E-1,4.1509434E-3,4.7140452E-1,8.679246E-3,4.5660377E-2,7.773585E-2,1.6716981E-1,2.3570226E-1,3.1866692E-2,4.106123E-2,1.0566038E-2,7.493805E-2,3.7796447E-1,6.160411E-2,7E0,1.1E2,1E0,5.555556E-1,1.8E1,-5.151471E-2,1.1320754E-3,9.2250924E-4,9.2250924E-4,5.714286E-1,2.1212121E-2,1.1320754E-3,6.666667E-1,1.8867925E-3,2.6415095E-3,3.3962263E-3,9.2250924E-4,3.3333334E-1,6.666667E-1,4.1509434E-3,2.6415095E-3,1E0,8.134892E-2,6E-1,8.368201E-3,6.859943E-2,7.024393E-2,1E1,5.7735026E-1,6.4150942E-3,1.8113207E-2,4.037736E-2,6.2264152E-2,7.358491E-2,8.301887E-2,1.1622641E-1,2.573585E-1,1.0188679E-2,1.2E1,5E0,5E0,3.89E2,2.226415E-2,4.082483E-1,4.92E2,7.7E1,1.8257418E-1,1.1E1,5.7735026E-1,1.5471698E-2,5E0,3.6363637E-1,1.55E2,3.3207547E-2,4.9346376E-2,1.1622641E-1,8.5714287E-1,3.6603773E-1,1.8490006E-1,1.3636364E-1,2.573585E-1,-4.6871033E-2,-4.3304507E-2,-5.4548915E-2,-4.4459406E-2,6.22574E-3,8.735988E-2,-3.1145139E-2,-3.538888E-2,-3.5473377E-2,-1.49143925E-2,-2.1199672E-2,-1.2519866E-2,3.1312916E-2,8.5802205E-2,-4.019364E-2,-3.8622342E-2,-3.5106014E-2,-3.413486E-2,-3.2271933E-2,-3.0962437E-2,-2.7379943E-2,3.1170366E-2,-5.2327044E-2,-3.3864774E-2,-1.1982708E-2,4.4204134E-2,-3.0727202E-2,-2.6860093E-3,2.323399E-2,8.134522E-2,-4.66273E-3,3.7023597E-3,8.49774E-3,-3.8887213E-3,2.8901864E-2,6.290244E-2,-2.49189E-2,1.04146734E-1,1.9327996E-2,4.5861416E-3,2.9683886E-2,1.647882E-2,6.3148655E-2,8.468391E-2,9.77131E-2,1.2369374E-1,-2.2803048E-2,-2.5800643E-2,-1.8971527E-2,-3.888995E-2,-1.0312283E-2,-2.515879E-2,2.330788E-3,-3.0992491E-2,3.4561574E-2,2.5944456E-2,-2.8971288E-2,-2.3251433E-2,4.1328315E-2,6.421431E-2,-6.1763056E-2,5.457231E-2,-4.9044687E-2,-4.1592214E-2,-2.763752E-2,2.8127154E-2,-3.6803886E-2,-4.872367E-2,-2.6532529E-2,1.9154267E-2,-5.6317028E-2,-4.5058668E-2,-3.427277E-2,2.2983596E-2,9.661507E-3,1.04808204E-1,6.5507434E-2,1.0547626E-1,4.349859E-2,4.9701366E-3,1.7527191E-2,4.2885642E-2,6.1904646E-2,8.512281E-2,1.026788E-1,1.2535356E-1,5.6664865E-2,6.828955E-2,2.8811557E-2,5.525697E-2,2.4245828E-2,7.741014E-2,9.210541E-2,1.0677584E-1,7.734996E-2,8.838274E-2,-2.1967017E-3,5.8359183E-2,1.030756E-1,1.1637079E-1,1.0126033E-1,8.077251E-2,1.703886E-2,1.10778764E-1,5.3816926E-2,8.565913E-2,2.7172765E-2,7.280146E-2,8.430639E-2,1.17783956E-1],"split_indices":[1,1,4,1,4,3,1,0,4,3,1,1,3,1,0,3,1,1,4,0,0,1,1,1,0,0,0,1,3,1,0,3,0,1,1,0,0,1,0,1,0,1,1,1,1,0,0,0,1,0,0,0,3,3,3,4,3,0,1,4,4,4,4,1,0,1,1,1,4,0,0,1,1,3,0,4,4,0,0,3,0,1,1,1,1,1,1,1,1,1,3,3,3,3,1,0,3,3,0,3,0,1,3,4,3,1,0,1,4,1,0,4,1,0,0,0,0,0,0,0,0,0,0,0,0,0,0,0,0,0,0,0,0,0,0,0,0,0,0,0,0,0,0,0,0,0,0,0,0,0,0,0,0,0,0,0,0,0,0,0,0,0,0,0,0,0,0,0,0,0,0,0,0,0,0,0,0,0,0,0,0,0,0,0,0,0,0,0,0,0,0,0,0,0,0,0,0,0,0,0,0,0,0,0,0,0,0,0,0,0,0,0,0,0,0,0,0,0,0,0,0,0,0],"split_type":[0,0,0,0,0,0,0,0,0,0,0,0,0,0,0,0,0,0,0,0,0,0,0,0,0,0,0,0,0,0,0,0,0,0,0,0,0,0,0,0,0,0,0,0,0,0,0,0,0,0,0,0,0,0,0,0,0,0,0,0,0,0,0,0,0,0,0,0,0,0,0,0,0,0,0,0,0,0,0,0,0,0,0,0,0,0,0,0,0,0,0,0,0,0,0,0,0,0,0,0,0,0,0,0,0,0,0,0,0,0,0,0,0,0,0,0,0,0,0,0,0,0,0,0,0,0,0,0,0,0,0,0,0,0,0,0,0,0,0,0,0,0,0,0,0,0,0,0,0,0,0,0,0,0,0,0,0,0,0,0,0,0,0,0,0,0,0,0,0,0,0,0,0,0,0,0,0,0,0,0,0,0,0,0,0,0,0,0,0,0,0,0,0,0,0,0,0,0,0,0,0,0,0,0,0,0,0,0,0,0,0,0,0,0,0,0,0,0,0,0,0,0,0],"sum_hessian":[1.3686798E6,8.372036E5,5.314762E5,5.464022E5,2.908014E5,9.05242E4,4.40952E5,1.8201062E5,3.6439156E5,1.26242516E5,1.6455889E5,5.4933164E4,3.5591035E4,2.0133227E5,2.3961973E5,2.1740397E5,1.469876E5,7.88768E4,4.736572E4,8.307521E4,8.148367E4,5.1415777E4,3.5173877E3,3.404405E4,1.5469845E3,9.345743E4,1.07874836E5,1.633348E5,7.628494E4,1.4961006E5,6.7793914E4,6.970534E4,7.728225E4,4.7198434E4,3.1678363E4,4.3854508E4,3.5112104E3,8.154941E4,1.5258027E3,7.982804E4,1.6556396E3,3.6956758E4,1.445902E4,1.3002365E3,2.2171514E3,2.2571682E4,1.1472371E4,4.3624426E2,1.1107402E3,8.9313484E4,4.143951E3,1.0149338E5,6.381456E3,9.764733E4,6.568746E4,3.984059E4,3.6444344E4,8.5043375E4,6.4566684E4,6.7730266E4,6.3650196E1,6.5861234E4,3.8441072E3,7.6858086E4,4.2416473E2,2.9374695E4,1.7823738E4,1.2311509E4,1.9366855E4,4.3389883E4,4.6462625E2,3.272375E3,2.3883546E2,4.7018996E4,3.453041E4,1.0629536E3,4.6284918E2,3.9578223E4,4.0249812E4,9.380197E2,7.1761993E2,1.6443121E4,2.0513635E4,1.2220007E4,2.2390125E3,8.735815E2,4.2665497E2,1.8206033E3,3.9654807E2,2.1497225E4,1.0744569E3,6.2970435E3,5.1753276E3,3.8391605E2,5.232822E1,4.0117087E2,7.095694E2,7.264068E4,1.66728E4,2.6369646E3,1.5069866E3,7.554646E4,2.5946918E4,3.1945657E3,3.1868904E3,9.678306E4,8.6426624E2,4.6724664E4,1.89628E4,9.114454E3,3.0726137E4,1.9843225E4,1.6601121E4,3.9980027E4,2.4586656E4,6.5074055E4,2.656213E3,4.4497852E1,1.9152342E1,9.113083E3,5.6748152E4,1.0135637E3,2.8305435E3,4.393189E4,3.29262E4,1.867367E2,2.3742802E2,1.6938314E4,1.2436382E4,9.896847E3,7.9268926E3,6.652414E3,5.659095E3,1.9363436E4,3.419964E0,4.2606062E4,7.838184E2,3.2214822E2,1.4247803E2,2.346007E3,9.263679E2,8.497073E1,1.5386473E2,3.378667E4,1.3232324E4,3.2229312E4,2.3010986E3,5.5295654E2,5.0999704E2,6.9433618E0,4.5590582E2,3.5479027E4,4.099195E3,3.4359105E4,5.8907075E3,6.116948E2,3.263249E2,3.4822073E2,3.693992E2,5.2969624E3,1.114616E4,2.0112912E4,4.0072308E2,1.1272625E4,9.4738184E2,1.95624E3,2.8277237E2,6.001013E2,2.7348016E2,2.1730315E2,2.093518E2,8.194963E2,1.001107E3,1.7573022E2,2.2081784E2,